~o
<STREAMINFO> 1 12
<VECSIZE> 12<NULLD><MFCC><DIAGC>
~h "#2"
<BEGINHMM>
<NUMSTATES> 5
<STATE> 2
<MEAN> 12
 -3.180444e+00 -2.992383e+00 6.889953e+00 4.733292e-01 -6.101211e+00 -1.097579e+01 -2.006948e+01 -9.527746e-01 -2.523876e+00 -4.707602e+00 3.893852e+00 -6.601997e+00
<VARIANCE> 12
 6.954721e+00 6.962744e+00 4.125726e+01 1.887087e+01 9.231965e+00 2.669586e+01 5.368795e+01 1.757982e+01 2.056459e+01 1.674169e+01 1.638333e+01 1.798412e+01
<GCONST> 5.647631e+01
<STATE> 3
<MEAN> 12
 -1.446625e+00 6.342046e+00 8.486289e+00 3.184486e+00 -1.202487e+00 -7.313779e+00 -1.207096e+01 1.316213e+00 2.221027e+00 -1.789806e+00 3.441643e+00 -5.829492e+00
<VARIANCE> 12
 1.381798e+01 3.453413e+01 1.262945e+01 1.139434e+01 7.205254e+00 2.457965e+01 2.314872e+01 1.024407e+01 9.589078e+00 1.533126e+01 1.447339e+01 1.924214e+01
<GCONST> 5.445689e+01
<STATE> 4
<MEAN> 12
 -6.139434e+00 1.188754e+00 5.709291e+00 1.185302e+00 -4.543261e+00 -7.637635e+00 -9.647491e+00 -2.300373e+00 -1.089230e+00 -2.813931e+00 4.516313e+00 -1.268345e+00
<VARIANCE> 12
 1.900502e+01 1.688733e+01 2.123898e+01 9.043241e+00 2.144943e+01 6.317678e+01 6.353565e+01 5.039078e+01 2.416987e+01 2.063384e+01 2.058560e+01 4.608372e+01
<GCONST> 6.143378e+01
<TRANSP> 5
 0.000000e+00 1.000000e+00 0.000000e+00 0.000000e+00 0.000000e+00
 0.000000e+00 4.736842e-01 5.263158e-01 0.000000e+00 0.000000e+00
 0.000000e+00 0.000000e+00 5.833333e-01 4.166667e-01 0.000000e+00
 0.000000e+00 0.000000e+00 0.000000e+00 1.666667e-01 8.333333e-01
 0.000000e+00 0.000000e+00 0.000000e+00 0.000000e+00 0.000000e+00
<ENDHMM>
