~o
<STREAMINFO> 1 12
<VECSIZE> 12<NULLD><MFCC><DIAGC>
~h "#9"
<BEGINHMM>
<NUMSTATES> 5
<STATE> 2
<MEAN> 12
 -2.029952e+00 -3.993816e+00 -2.542959e+00 -1.232493e+00 -7.334844e+00 -8.067829e+00 -1.896424e+01 4.488969e-01 -9.942873e-01 -5.904204e-01 5.785406e+00 -8.442602e+00
<VARIANCE> 12
 2.806762e+01 2.845764e+01 3.412606e+00 2.304033e+01 2.693873e+01 2.460888e+01 5.012675e+01 1.311908e+02 1.185834e+01 2.876226e+01 5.400151e+01 3.402379e+01
<GCONST> 6.173833e+01
<STATE> 3
<MEAN> 12
 -3.907349e-01 -7.803832e-01 -2.304540e+00 -3.939167e+00 -2.389880e+00 -1.191057e+01 -1.642313e+01 4.882271e+00 -6.277471e+00 8.894095e+00 6.535315e+00 -6.723381e+00
<VARIANCE> 12
 3.044411e+01 2.293330e+01 1.035385e+01 2.801779e+01 7.611717e+00 1.921422e+01 2.848673e+01 4.060338e+01 3.290430e+01 4.008989e+01 2.428235e+01 2.383311e+01
<GCONST> 5.985739e+01
<STATE> 4
<MEAN> 12
 -8.357901e+00 2.118045e+00 -2.259953e+00 -3.445256e+00 3.189348e-01 -2.916098e+00 -6.250800e+00 1.029842e+00 -2.191088e+00 4.312391e+00 3.931447e+00 -4.332657e+00
<VARIANCE> 12
 5.485562e+01 5.208689e+01 2.009541e+01 6.541908e+01 2.817440e+01 1.413873e+01 5.503027e+01 3.510994e+01 5.088282e+01 1.886708e+01 3.732980e+01 1.486915e+01
<GCONST> 6.393317e+01
<TRANSP> 5
 0.000000e+00 1.000000e+00 0.000000e+00 0.000000e+00 0.000000e+00
 0.000000e+00 5.333334e-01 4.666667e-01 0.000000e+00 0.000000e+00
 0.000000e+00 0.000000e+00 6.666667e-01 3.333333e-01 0.000000e+00
 0.000000e+00 0.000000e+00 0.000000e+00 3.000000e-01 7.000000e-01
 0.000000e+00 0.000000e+00 0.000000e+00 0.000000e+00 0.000000e+00
<ENDHMM>
