~o
<STREAMINFO> 1 12
<VECSIZE> 12<NULLD><MFCC><DIAGC>
~h "@"
<BEGINHMM>
<NUMSTATES> 5
<STATE> 2
<MEAN> 12
 -5.322924e+00 -2.421959e+00 1.419154e+00 -1.397362e+00 -5.518654e+00 -6.446185e+00 -1.100317e+01 -9.209297e-01 -3.180531e+00 -2.751580e+00 3.757022e+00 -5.342621e+00
<VARIANCE> 12
 5.151710e+01 2.364133e+01 2.792705e+01 3.674125e+01 3.365679e+01 4.874928e+01 9.239029e+01 5.847526e+01 3.198289e+01 4.266057e+01 5.351272e+01 2.786337e+01
<GCONST> 6.661618e+01
<STATE> 3
<MEAN> 12
 -3.094349e+00 -3.274750e+00 5.318626e+00 6.392832e-01 -4.714110e+00 -9.307521e+00 -1.864030e+01 -2.549337e+00 -1.552663e+00 -6.386902e+00 5.763097e+00 -5.858930e+00
<VARIANCE> 12
 1.700183e+01 1.681656e+01 2.068341e+01 1.509073e+01 1.537365e+01 4.297808e+01 8.542099e+01 2.735546e+01 2.753154e+01 4.346515e+01 3.169382e+01 3.760691e+01
<GCONST> 6.187408e+01
<STATE> 4
<MEAN> 12
 -4.906560e+00 7.600522e-01 2.934760e+00 5.811149e-01 -1.685566e+00 -5.186230e+00 -9.021134e+00 -2.639604e+00 -2.700275e+00 -2.935430e+00 1.555414e+00 -4.208247e+00
<VARIANCE> 12
 3.935981e+01 2.419565e+01 2.350382e+01 2.170732e+01 2.653703e+01 5.026941e+01 8.850945e+01 4.736136e+01 2.476533e+01 3.770091e+01 4.561726e+01 2.688478e+01
<GCONST> 6.463609e+01
<TRANSP> 5
 0.000000e+00 1.000000e+00 0.000000e+00 0.000000e+00 0.000000e+00
 0.000000e+00 2.500000e-01 7.500000e-01 0.000000e+00 0.000000e+00
 0.000000e+00 0.000000e+00 5.344828e-01 4.655173e-01 0.000000e+00
 0.000000e+00 0.000000e+00 0.000000e+00 2.285714e-01 7.714286e-01
 0.000000e+00 0.000000e+00 0.000000e+00 0.000000e+00 0.000000e+00
<ENDHMM>
