~o
<STREAMINFO> 1 12
<VECSIZE> 12<NULLD><MFCC><DIAGC>
~h "a"
<BEGINHMM>
<NUMSTATES> 5
<STATE> 2
<MEAN> 12
 -6.576265e-01 -8.128916e+00 -4.391556e+00 -9.601722e+00 -5.682735e+00 -7.775744e+00 -1.406219e+01 8.257356e+00 1.312080e+00 8.553700e-01 6.546043e+00 -1.371833e+01
<VARIANCE> 12
 9.811285e+00 1.531541e+01 2.778181e+01 2.686017e+01 2.546468e+01 4.365157e+01 3.375397e+01 5.092839e+01 4.101262e+01 3.208187e+01 5.918971e+01 3.620347e+01
<GCONST> 6.299706e+01
<STATE> 3
<MEAN> 12
 1.967726e-01 -7.524513e+00 -6.018289e+00 -1.265331e+01 -1.676810e+00 -2.445691e+00 -7.505279e+00 4.497807e+00 -4.210252e+00 1.281801e+00 3.928280e+00 -1.170768e+01
<VARIANCE> 12
 9.404306e+00 2.935454e+01 2.635176e+01 3.433665e+01 5.643777e+01 6.048899e+01 3.596952e+01 4.904330e+01 5.385852e+01 3.838990e+01 3.896315e+01 3.997989e+01
<GCONST> 6.507902e+01
<STATE> 4
<MEAN> 12
 -4.318430e+00 -2.520474e+00 8.123509e-01 -3.013312e+00 -3.903061e+00 -8.862810e+00 -7.452270e+00 2.369534e+00 -1.455907e+00 1.650926e+00 -4.399727e-01 -6.418994e+00
<VARIANCE> 12
 2.934044e+01 3.512021e+01 3.194497e+01 2.958081e+01 3.790416e+01 5.148564e+01 6.167827e+01 9.410587e+01 4.573117e+01 2.905477e+01 4.043599e+01 2.622663e+01
<GCONST> 6.624458e+01
<TRANSP> 5
 0.000000e+00 1.000000e+00 0.000000e+00 0.000000e+00 0.000000e+00
 0.000000e+00 6.995074e-01 3.004926e-01 0.000000e+00 0.000000e+00
 0.000000e+00 0.000000e+00 7.294900e-01 2.705100e-01 0.000000e+00
 0.000000e+00 0.000000e+00 0.000000e+00 6.126984e-01 3.873016e-01
 0.000000e+00 0.000000e+00 0.000000e+00 0.000000e+00 0.000000e+00
<ENDHMM>
