~o
<STREAMINFO> 1 12
<VECSIZE> 12<NULLD><MFCC><DIAGC>
~h "a#"
<BEGINHMM>
<NUMSTATES> 5
<STATE> 2
<MEAN> 12
 1.938048e+00 -5.106636e+00 -1.990675e+00 -1.413433e+01 -8.254581e+00 4.646188e-01 -4.420504e+00 1.470060e+00 -4.162294e+00 -6.637031e+00 9.036744e+00 -9.671442e+00
<VARIANCE> 12
 1.933969e+01 2.593365e+01 2.932887e+01 5.542371e+01 3.577774e+01 4.909646e+01 5.634280e+01 3.078387e+01 2.037561e+01 6.839806e+01 3.838655e+01 2.589372e+01
<GCONST> 6.473676e+01
<STATE> 3
<MEAN> 12
 3.677106e+00 -5.158473e+00 -3.742783e+00 -1.628804e+01 -7.262415e+00 -3.065181e+00 -2.562172e+00 4.724836e+00 -1.162583e+01 -2.617905e+00 1.033935e+01 -1.424236e+01
<VARIANCE> 12
 1.013657e+01 1.831601e+01 1.559178e+01 3.475873e+01 3.111613e+01 1.939127e+01 4.839874e+01 3.339650e+01 2.456701e+01 2.459580e+01 5.130113e+01 3.664879e+01
<GCONST> 6.130717e+01
<STATE> 4
<MEAN> 12
 -2.488715e+00 1.347295e+00 1.089939e+00 -4.401753e+00 -5.332473e+00 -4.589656e+00 -1.784839e-01 -5.320632e+00 -7.175219e+00 8.452346e-01 7.102230e-02 -7.893548e+00
<VARIANCE> 12
 4.907922e+01 3.424811e+01 5.051112e+01 6.186243e+01 3.817626e+01 2.461364e+01 2.925442e+01 6.095647e+01 7.141387e+01 2.959902e+01 2.621319e+01 5.273035e+01
<GCONST> 6.674809e+01
<TRANSP> 5
 0.000000e+00 1.000000e+00 0.000000e+00 0.000000e+00 0.000000e+00
 0.000000e+00 7.343750e-01 2.656250e-01 0.000000e+00 0.000000e+00
 0.000000e+00 0.000000e+00 7.918367e-01 2.081633e-01 0.000000e+00
 0.000000e+00 0.000000e+00 0.000000e+00 7.411168e-01 2.588832e-01
 0.000000e+00 0.000000e+00 0.000000e+00 0.000000e+00 0.000000e+00
<ENDHMM>
