~o
<STREAMINFO> 1 12
<VECSIZE> 12<NULLD><MFCC><DIAGC>
~h "b"
<BEGINHMM>
<NUMSTATES> 5
<STATE> 2
<MEAN> 12
 5.271960e+00 1.723346e+00 6.320910e+00 4.949430e+00 1.673953e+00 -2.040374e-01 -1.394087e+01 -3.532516e+00 -9.669185e-01 -5.910204e+00 4.193803e+00 -4.114509e+00
<VARIANCE> 12
 2.422805e+01 3.309265e+01 1.425874e+01 2.930596e+01 1.672007e+01 2.234626e+01 5.242409e+01 9.697664e+00 2.588068e+01 2.680303e+01 9.920251e+00 1.273387e+01
<GCONST> 5.831188e+01
<STATE> 3
<MEAN> 12
 5.173944e+00 4.555879e+00 4.437286e+00 1.769688e+00 1.320133e+00 -1.676882e+00 -8.349443e+00 -4.128479e+00 -5.237994e+00 -8.562030e+00 1.697179e+00 -2.179389e+00
<VARIANCE> 12
 3.724022e+01 1.657707e+01 9.655023e+00 1.655193e+01 1.965134e+01 2.270919e+01 4.146311e+01 3.993700e+01 4.058926e+01 5.589525e+01 2.661665e+01 3.884488e+01
<GCONST> 6.173503e+01
<STATE> 4
<MEAN> 12
 -1.509228e+00 -5.479479e-01 9.915024e-01 -4.912972e+00 -2.379660e+00 1.008948e-02 -1.067807e+01 -2.228552e+00 -2.480371e+00 -6.962340e+00 5.525750e+00 -2.000227e+00
<VARIANCE> 12
 6.421854e+01 2.903115e+01 5.747402e+00 4.699468e+01 3.648864e+01 2.118054e+01 6.371521e+01 1.588643e+01 3.756948e+01 7.043993e+01 5.200909e+01 7.909831e+01
<GCONST> 6.495701e+01
<TRANSP> 5
 0.000000e+00 1.000000e+00 0.000000e+00 0.000000e+00 0.000000e+00
 0.000000e+00 5.777778e-01 4.222222e-01 0.000000e+00 0.000000e+00
 0.000000e+00 0.000000e+00 5.128205e-01 4.871795e-01 0.000000e+00
 0.000000e+00 0.000000e+00 0.000000e+00 2.400000e-01 7.600000e-01
 0.000000e+00 0.000000e+00 0.000000e+00 0.000000e+00 0.000000e+00
<ENDHMM>
