~o
<STREAMINFO> 1 12
<VECSIZE> 12<NULLD><MFCC><DIAGC>
~h "d"
<BEGINHMM>
<NUMSTATES> 5
<STATE> 2
<MEAN> 12
 -8.151991e-01 4.890800e+00 8.419082e+00 1.559910e+00 -2.520698e+00 -7.387528e+00 -7.842849e+00 -2.167776e+00 -1.933997e+00 -3.778918e+00 -1.903945e+00 -8.584567e+00
<VARIANCE> 12
 4.027809e+01 2.294267e+01 2.994577e+01 1.558050e+01 3.049303e+01 4.007214e+01 3.285011e+01 3.817889e+01 2.013729e+01 2.517723e+01 2.267155e+01 2.477507e+01
<GCONST> 6.183062e+01
<STATE> 3
<MEAN> 12
 -1.030583e+01 5.704373e-01 6.808792e+00 -3.392613e-01 -2.008748e+00 -4.133440e+00 -6.386131e+00 -4.368712e+00 -1.935697e+00 -3.960026e+00 -3.807545e+00 -4.409443e+00
<VARIANCE> 12
 7.611408e+01 1.992315e+01 3.742331e+01 2.828520e+01 3.131500e+01 4.260193e+01 3.811572e+01 3.181315e+01 1.889667e+01 3.927397e+01 3.008707e+01 1.992650e+01
<GCONST> 6.364547e+01
<STATE> 4
<MEAN> 12
 -6.652186e+00 -1.132933e-02 5.965016e+00 6.319727e-01 -4.260596e+00 -1.067938e+01 -1.309754e+01 -3.604064e+00 -1.140993e+00 -6.668128e+00 6.366711e-02 -5.023840e+00
<VARIANCE> 12
 2.590874e+01 2.549095e+01 5.778449e+01 2.647057e+01 3.402369e+01 3.930470e+01 3.588575e+01 3.154502e+01 3.261538e+01 4.602774e+01 4.072534e+01 3.722942e+01
<GCONST> 6.474832e+01
<TRANSP> 5
 0.000000e+00 1.000000e+00 0.000000e+00 0.000000e+00 0.000000e+00
 0.000000e+00 5.562130e-01 4.437870e-01 0.000000e+00 0.000000e+00
 0.000000e+00 0.000000e+00 3.362832e-01 6.637168e-01 0.000000e+00
 0.000000e+00 0.000000e+00 0.000000e+00 3.478261e-01 6.521739e-01
 0.000000e+00 0.000000e+00 0.000000e+00 0.000000e+00 0.000000e+00
<ENDHMM>
