~o
<STREAMINFO> 1 12
<VECSIZE> 12<NULLD><MFCC><DIAGC>
~h "E"
<BEGINHMM>
<NUMSTATES> 5
<STATE> 2
<MEAN> 12
 -3.936515e+00 -5.428926e+00 2.971194e+00 -3.027898e+00 -1.096098e+01 -1.510950e+01 -1.336465e+01 5.579531e+00 -8.171688e-01 -2.668143e+00 3.600058e+00 -4.739811e+00
<VARIANCE> 12
 9.571342e+00 2.544522e+01 2.126965e+01 1.818543e+01 2.655266e+01 3.808189e+01 3.996063e+01 4.823777e+01 1.908548e+01 2.802258e+01 2.361585e+01 4.407242e+01
<GCONST> 6.122033e+01
<STATE> 3
<MEAN> 12
 -2.709308e+00 -4.325805e+00 1.037048e+01 -1.176300e-01 -1.337678e+01 -1.115894e+01 -1.471168e+01 6.561438e+00 -6.217796e+00 -5.500841e+00 6.241744e+00 -4.153918e+00
<VARIANCE> 12
 1.262681e+01 1.991813e+01 3.859624e+01 2.217385e+01 6.763300e+01 4.266307e+01 5.177372e+01 3.614418e+01 2.723741e+01 3.822028e+01 3.357470e+01 2.466666e+01
<GCONST> 6.350306e+01
<STATE> 4
<MEAN> 12
 -6.869313e+00 -1.690297e-01 4.270649e+00 2.464109e+00 -2.825084e+00 -5.987312e+00 -4.895893e+00 7.240523e-01 -2.418624e+00 -2.094718e+00 1.281793e+00 -4.206301e+00
<VARIANCE> 12
 7.066763e+01 3.196200e+01 4.462624e+01 3.653109e+01 5.081775e+01 9.111701e+01 7.709288e+01 4.711683e+01 6.756606e+01 4.041574e+01 2.635344e+01 4.784451e+01
<GCONST> 6.886346e+01
<TRANSP> 5
 0.000000e+00 1.000000e+00 0.000000e+00 0.000000e+00 0.000000e+00
 0.000000e+00 7.432432e-01 2.567568e-01 0.000000e+00 0.000000e+00
 0.000000e+00 0.000000e+00 6.148649e-01 3.851351e-01 0.000000e+00
 0.000000e+00 0.000000e+00 0.000000e+00 5.043478e-01 4.956522e-01
 0.000000e+00 0.000000e+00 0.000000e+00 0.000000e+00 0.000000e+00
<ENDHMM>
