~o
<STREAMINFO> 1 12
<VECSIZE> 12<NULLD><MFCC><DIAGC>
~h "e"
<BEGINHMM>
<NUMSTATES> 5
<STATE> 2
<MEAN> 12
 -5.493633e+00 -2.707217e+00 5.407762e+00 -3.963728e+00 -6.869617e+00 -4.272548e+00 -1.183842e+01 -2.737687e+00 -3.240074e+00 -6.899835e+00 5.407844e+00 -6.348466e+00
<VARIANCE> 12
 7.135516e+01 2.967325e+01 5.071387e+01 1.020776e+02 4.222041e+01 1.006798e+02 7.946740e+01 7.435527e+01 4.506056e+01 7.717316e+01 3.823693e+01 6.619547e+01
<GCONST> 7.129389e+01
<STATE> 3
<MEAN> 12
 -4.234966e+00 -4.030998e+00 1.322119e+01 4.218130e-01 -1.541534e+01 -1.311046e+01 -1.694035e+01 4.540338e+00 -7.350272e+00 -8.199018e+00 6.094022e+00 -2.868476e+00
<VARIANCE> 12
 8.190859e+00 1.480957e+01 3.329631e+01 2.278017e+01 3.967529e+01 3.311244e+01 4.266557e+01 2.201462e+01 4.426944e+01 3.713605e+01 1.966349e+01 2.036743e+01
<GCONST> 6.090747e+01
<STATE> 4
<MEAN> 12
 -5.231641e+00 -2.481293e-01 7.475735e+00 2.829477e-01 -1.131730e+01 -1.274280e+01 -8.692991e+00 -1.166901e+00 -6.485497e+00 -4.604572e+00 1.776618e+00 -7.238992e-01
<VARIANCE> 12
 3.318202e+01 4.536189e+01 3.708207e+01 3.399249e+01 5.432912e+01 8.622463e+01 5.361456e+01 3.555339e+01 5.840815e+01 4.657522e+01 3.416607e+01 4.164844e+01
<GCONST> 6.768437e+01
<TRANSP> 5
 0.000000e+00 1.000000e+00 0.000000e+00 0.000000e+00 0.000000e+00
 0.000000e+00 7.314050e-01 2.685950e-01 0.000000e+00 0.000000e+00
 0.000000e+00 0.000000e+00 7.854785e-01 2.145215e-01 0.000000e+00
 0.000000e+00 0.000000e+00 0.000000e+00 7.085202e-01 2.914798e-01
 0.000000e+00 0.000000e+00 0.000000e+00 0.000000e+00 0.000000e+00
<ENDHMM>
