~o
<STREAMINFO> 1 12
<VECSIZE> 12<NULLD><MFCC><DIAGC>
~h "e#"
<BEGINHMM>
<NUMSTATES> 5
<STATE> 2
<MEAN> 12
 -8.317341e-01 -7.664157e+00 -4.756603e+00 -7.985066e+00 -3.687323e+00 -4.992108e+00 -1.222503e+01 6.382648e+00 -2.031065e+00 -7.044532e-01 8.716111e+00 -1.727137e+01
<VARIANCE> 12
 1.637190e+01 1.450166e+01 1.507011e+01 1.271224e+01 1.269490e+01 2.131304e+01 2.646901e+01 4.992781e+01 3.949191e+01 2.051744e+01 4.739812e+01 4.756844e+01
<GCONST> 5.998483e+01
<STATE> 3
<MEAN> 12
 -1.418314e+00 -7.962308e+00 -5.124341e+00 -5.452704e+00 -5.628940e+00 -1.006377e+01 -1.239196e+01 8.995575e+00 -4.826129e+00 -1.548504e+00 2.315771e+00 -1.503697e+01
<VARIANCE> 12
 1.485428e+01 1.567772e+01 3.869273e+01 1.029610e+01 1.742740e+01 2.516083e+01 3.627241e+01 5.312495e+01 4.087025e+01 1.615391e+01 4.379445e+01 3.001467e+01
<GCONST> 6.081326e+01
<STATE> 4
<MEAN> 12
 -8.526812e-01 -1.825462e+00 2.406537e+00 8.972934e-01 -6.731389e+00 -8.308064e+00 -2.696891e+00 -2.492877e+00 -3.990263e+00 -2.802909e-01 4.155539e-01 -1.163801e+01
<VARIANCE> 12
 3.854185e+01 4.277401e+01 3.332767e+01 1.972699e+01 4.385294e+01 4.629540e+01 3.552584e+01 5.689550e+01 4.364205e+01 4.086411e+01 6.385881e+01 4.501249e+01
<GCONST> 6.662782e+01
<TRANSP> 5
 0.000000e+00 1.000000e+00 0.000000e+00 0.000000e+00 0.000000e+00
 0.000000e+00 7.236842e-01 2.763158e-01 0.000000e+00 0.000000e+00
 0.000000e+00 0.000000e+00 7.407407e-01 2.592593e-01 0.000000e+00
 0.000000e+00 0.000000e+00 0.000000e+00 6.500000e-01 3.500000e-01
 0.000000e+00 0.000000e+00 0.000000e+00 0.000000e+00 0.000000e+00
<ENDHMM>
