~o
<STREAMINFO> 1 12
<VECSIZE> 12<NULLD><MFCC><DIAGC>
~h "f"
<BEGINHMM>
<NUMSTATES> 5
<STATE> 2
<MEAN> 12
 -1.234240e+01 -6.667474e-01 1.226251e+00 2.059221e+00 1.658076e+00 5.643275e-01 9.327951e-01 1.267413e+00 2.871260e+00 1.554271e+00 1.797567e-01 -6.327877e-01
<VARIANCE> 12
 3.235470e+01 3.201286e+01 1.152002e+01 6.850955e+00 3.667872e+01 2.206724e+01 5.391913e+01 2.873042e+01 2.344303e+01 2.460925e+01 2.007166e+01 1.721788e+01
<GCONST> 5.961057e+01
<STATE> 3
<MEAN> 12
 -2.090177e+01 -9.354000e+00 -4.012622e+00 -5.466898e-01 -2.202201e+00 -5.875557e-01 -9.892156e-01 1.840974e+00 3.512605e+00 3.132941e+00 3.134960e+00 1.449226e+00
<VARIANCE> 12
 1.366339e+01 1.010134e+01 2.240586e+01 1.141225e+01 1.707691e+01 2.093973e+01 2.324708e+01 2.336174e+01 1.771215e+01 2.281804e+01 1.963650e+01 1.483546e+01
<GCONST> 5.637880e+01
<STATE> 4
<MEAN> 12
 -1.021512e+01 -1.276881e+00 2.072675e-01 -1.783895e+00 -3.059492e+00 -2.856747e+00 -3.922928e+00 -1.906960e+00 -1.466496e+00 -3.458684e+00 1.012627e+00 -2.073223e+00
<VARIANCE> 12
 6.345326e+01 2.128976e+01 3.630604e+01 3.503923e+01 2.717944e+01 3.551887e+01 2.798729e+01 4.557349e+01 4.264764e+01 3.053776e+01 2.979207e+01 1.764825e+01
<GCONST> 6.387192e+01
<TRANSP> 5
 0.000000e+00 1.000000e+00 0.000000e+00 0.000000e+00 0.000000e+00
 0.000000e+00 5.135135e-01 4.864865e-01 0.000000e+00 0.000000e+00
 0.000000e+00 0.000000e+00 8.085107e-01 1.914894e-01 0.000000e+00
 0.000000e+00 0.000000e+00 0.000000e+00 4.782609e-01 5.217391e-01
 0.000000e+00 0.000000e+00 0.000000e+00 0.000000e+00 0.000000e+00
<ENDHMM>
