~o
<STREAMINFO> 1 12
<VECSIZE> 12<NULLD><MFCC><DIAGC>
~h "g"
<BEGINHMM>
<NUMSTATES> 5
<STATE> 2
<MEAN> 12
 -3.682194e+00 -5.401326e-01 1.107533e+01 4.514990e+00 -8.614244e+00 -1.420142e+01 -7.883294e+00 1.679925e+00 -5.754699e+00 -6.362812e+00 3.986734e+00 -1.638538e+00
<VARIANCE> 12
 2.161650e+01 1.939052e+01 3.266410e+01 3.086056e+00 1.106621e+01 5.826611e+00 6.399035e+01 3.471365e+01 2.017568e+01 1.497570e+01 1.172432e+01 2.064713e+01
<GCONST> 5.577829e+01
<STATE> 3
<MEAN> 12
 -3.371217e+00 -3.073215e+00 1.339242e+01 5.112966e+00 -1.200826e+01 -1.365371e+01 -8.945083e+00 -4.257644e-01 -5.451884e+00 -8.421769e+00 1.795384e+00 2.343496e-01
<VARIANCE> 12
 3.449255e+01 7.159053e+00 9.463989e+00 9.576902e-01 8.544378e+00 1.829373e+01 9.063066e+00 4.143165e+01 8.913851e-01 2.051622e-01 3.125685e+00 2.765227e+01
<GCONST> 4.350842e+01
<STATE> 4
<MEAN> 12
 -2.023438e+00 -1.450968e+00 1.239181e+01 2.419809e+00 -1.052855e+01 -1.568853e+01 -9.407257e+00 -3.481387e+00 -5.800223e+00 -5.894068e+00 2.451325e+00 -3.868229e+00
<VARIANCE> 12
 3.711723e+01 2.290930e+01 4.315919e+01 1.195727e+01 5.556265e+00 4.819816e+01 5.114235e+01 6.050324e+01 7.438531e+00 1.745228e+01 2.490000e+01 7.269020e+01
<GCONST> 6.104115e+01
<TRANSP> 5
 0.000000e+00 1.000000e+00 0.000000e+00 0.000000e+00 0.000000e+00
 0.000000e+00 5.000000e-01 5.000000e-01 0.000000e+00 0.000000e+00
 0.000000e+00 0.000000e+00 0.000000e+00 1.000000e+00 0.000000e+00
 0.000000e+00 0.000000e+00 0.000000e+00 0.000000e+00 1.000000e+00
 0.000000e+00 0.000000e+00 0.000000e+00 0.000000e+00 0.000000e+00
<ENDHMM>
