~o
<STREAMINFO> 1 12
<VECSIZE> 12<NULLD><MFCC><DIAGC>
~h "H"
<BEGINHMM>
<NUMSTATES> 5
<STATE> 2
<MEAN> 12
 -7.284788e+00 -6.819071e-01 4.738288e+00 1.637249e+00 -2.249274e+00 -5.618130e+00 -1.109544e+01 -4.968127e+00 2.064640e+00 -4.396198e+00 -5.650360e-02 -3.794520e+00
<VARIANCE> 12
 5.767126e+01 5.268261e+01 6.890453e+01 2.278071e+01 4.379806e+01 3.188746e+01 4.266580e+01 3.512725e+01 2.922478e+01 7.229406e+01 6.383635e+01 2.657312e+01
<GCONST> 6.707836e+01
<STATE> 3
<MEAN> 12
 -7.712517e+00 -2.579910e+00 9.924783e+00 4.094679e+00 -5.516522e+00 -7.861120e+00 -1.079233e+01 -1.492038e+00 -2.043550e+00 -5.585705e+00 -3.624882e-01 -1.871298e+00
<VARIANCE> 12
 3.517351e+01 2.581275e+01 9.872454e+01 2.152037e+01 5.560838e+01 1.882029e+01 3.696017e+01 3.215426e+01 2.510923e+01 4.990097e+01 1.615629e+01 6.517348e+00
<GCONST> 6.235073e+01
<STATE> 4
<MEAN> 12
 -6.228996e+00 -4.090886e+00 9.854557e+00 4.564798e+00 -5.196034e+00 -1.014361e+01 -1.313861e+01 -1.817054e+00 -3.177792e+00 -9.779912e+00 -1.254061e+00 -8.005757e-01
<VARIANCE> 12
 2.219304e+01 1.577699e+01 7.333162e+01 2.189019e+01 2.976446e+01 3.747734e+01 4.401064e+01 2.148621e+01 1.873071e+01 3.960090e+01 1.288458e+01 1.589513e+01
<GCONST> 6.109384e+01
<TRANSP> 5
 0.000000e+00 1.000000e+00 0.000000e+00 0.000000e+00 0.000000e+00
 0.000000e+00 3.000000e-01 7.000000e-01 0.000000e+00 0.000000e+00
 0.000000e+00 0.000000e+00 2.222222e-01 7.777778e-01 0.000000e+00
 0.000000e+00 0.000000e+00 0.000000e+00 2.222222e-01 7.777778e-01
 0.000000e+00 0.000000e+00 0.000000e+00 0.000000e+00 0.000000e+00
<ENDHMM>
