~o
<STREAMINFO> 1 12
<VECSIZE> 12<NULLD><MFCC><DIAGC>
~h "i"
<BEGINHMM>
<NUMSTATES> 5
<STATE> 2
<MEAN> 12
 -1.062032e+01 3.390047e+00 1.352946e+01 3.170937e+00 -6.139548e+00 -1.243547e+01 -1.157521e+01 -4.444483e+00 -1.743039e+00 -1.117433e+01 -1.524878e+00 9.549914e-01
<VARIANCE> 12
 2.382442e+01 3.004869e+01 3.444831e+01 2.127378e+01 1.486372e+01 3.193935e+01 3.073238e+01 2.690337e+01 2.801477e+01 3.133020e+01 1.934626e+01 2.736997e+01
<GCONST> 6.115458e+01
<STATE> 3
<MEAN> 12
 -8.044640e+00 -2.698863e-01 1.797993e+01 8.820779e-01 -1.042821e+01 -1.011019e+01 -1.818504e+01 -1.916347e+00 -4.773285e+00 -1.663131e+01 1.124371e+00 -9.065200e-02
<VARIANCE> 12
 1.147101e+01 1.935013e+01 2.405986e+01 2.108036e+01 2.628946e+01 2.705897e+01 2.743379e+01 2.641830e+01 2.962956e+01 3.360289e+01 2.291870e+01 1.926097e+01
<GCONST> 5.983237e+01
<STATE> 4
<MEAN> 12
 -6.085389e+00 2.019286e+00 1.153282e+01 2.982791e+00 -8.103216e+00 -9.529524e+00 -9.512897e+00 -1.069112e+00 -3.221556e+00 -9.610514e+00 1.350785e+00 -2.717465e+00
<VARIANCE> 12
 3.853517e+01 3.946833e+01 4.753893e+01 3.567550e+01 3.929763e+01 5.649710e+01 6.419414e+01 5.377256e+01 3.309254e+01 4.249570e+01 2.717088e+01 2.692248e+01
<GCONST> 6.651346e+01
<TRANSP> 5
 0.000000e+00 1.000000e+00 0.000000e+00 0.000000e+00 0.000000e+00
 0.000000e+00 5.310345e-01 4.689655e-01 0.000000e+00 0.000000e+00
 0.000000e+00 0.000000e+00 7.994100e-01 2.005900e-01 0.000000e+00
 0.000000e+00 0.000000e+00 0.000000e+00 4.086956e-01 5.913044e-01
 0.000000e+00 0.000000e+00 0.000000e+00 0.000000e+00 0.000000e+00
<ENDHMM>
