~o
<STREAMINFO> 1 12
<VECSIZE> 12<NULLD><MFCC><DIAGC>
~h "j"
<BEGINHMM>
<NUMSTATES> 5
<STATE> 2
<MEAN> 12
 -9.010473e+00 -9.368920e-02 7.602649e+00 -2.829423e+00 -4.821482e+00 -4.550450e+00 -1.319685e+01 -5.420456e+00 -5.390985e+00 -1.044609e+01 2.133528e+00 1.380658e+00
<VARIANCE> 12
 5.621432e+01 1.506091e+01 3.826009e+01 3.539694e+01 3.654940e+01 4.322548e+01 5.965825e+01 4.715085e+01 4.011259e+01 6.514336e+01 3.562130e+01 3.834346e+01
<GCONST> 6.640172e+01
<STATE> 3
<MEAN> 12
 -1.137775e+01 -1.218698e+00 1.130348e+01 -2.043062e-01 -6.291960e+00 -2.981219e+00 -1.123057e+01 3.112703e-01 -5.472581e+00 -9.121746e+00 2.347867e+00 -2.404774e+00
<VARIANCE> 12
 2.315356e+01 2.511592e+01 1.280877e+02 8.190725e+00 1.065857e+02 3.352093e+01 1.152983e+02 2.981761e+01 2.052701e+01 4.764592e+01 2.415399e+01 1.549500e+01
<GCONST> 6.451014e+01
<STATE> 4
<MEAN> 12
 -3.082269e+00 -5.746000e+00 7.823014e+00 -2.490869e+00 -1.053733e+01 -1.027795e+01 -2.023505e+01 4.330985e+00 -3.832459e+00 -8.502449e+00 8.129094e+00 -4.645123e+00
<VARIANCE> 12
 1.498432e+01 1.560354e+01 3.828302e+01 2.967337e+01 5.798053e+01 3.046358e+01 5.509562e+01 5.956678e+01 3.114440e+01 4.235983e+01 2.636772e+01 3.013839e+01
<GCONST> 6.397987e+01
<TRANSP> 5
 0.000000e+00 1.000000e+00 0.000000e+00 0.000000e+00 0.000000e+00
 0.000000e+00 6.865672e-01 3.134328e-01 0.000000e+00 0.000000e+00
 0.000000e+00 0.000000e+00 7.920792e-01 2.079208e-01 0.000000e+00
 0.000000e+00 0.000000e+00 0.000000e+00 7.000000e-01 3.000000e-01
 0.000000e+00 0.000000e+00 0.000000e+00 0.000000e+00 0.000000e+00
<ENDHMM>
