~o
<STREAMINFO> 1 12
<VECSIZE> 12<NULLD><MFCC><DIAGC>
~h "k"
<BEGINHMM>
<NUMSTATES> 5
<STATE> 2
<MEAN> 12
 -7.761387e+00 1.992438e+00 3.805229e+00 1.179978e+00 -9.136918e-01 -5.854282e+00 -5.062338e+00 1.407233e+00 -2.528809e+00 -1.859999e+00 1.594374e+00 -2.180221e+00
<VARIANCE> 12
 4.314033e+01 2.597060e+01 2.829055e+01 3.316121e+01 3.157306e+01 5.952760e+01 5.096341e+01 5.817278e+01 4.426982e+01 4.709069e+01 3.032505e+01 2.398024e+01
<GCONST> 6.568471e+01
<STATE> 3
<MEAN> 12
 -1.430001e+01 -5.167193e+00 -2.423881e+00 -5.981883e+00 -3.116940e+00 -2.852221e+00 -2.982391e+00 1.192434e+00 -1.030799e+00 4.433994e-01 1.805930e+00 -1.066398e+00
<VARIANCE> 12
 5.592511e+01 3.942191e+01 4.998567e+01 4.124729e+01 3.143632e+01 3.510386e+01 4.167934e+01 4.084455e+01 4.200427e+01 2.350927e+01 2.305711e+01 2.071414e+01
<GCONST> 6.489420e+01
<STATE> 4
<MEAN> 12
 -8.540935e+00 -2.109508e+00 9.364840e-01 -3.526477e+00 -5.020398e+00 -5.166060e+00 -6.244568e+00 -8.216534e-01 -2.467855e+00 -3.221346e+00 -8.688464e-01 -3.118872e+00
<VARIANCE> 12
 3.661074e+01 3.805653e+01 5.047145e+01 2.283135e+01 3.559490e+01 6.334816e+01 5.031858e+01 5.081763e+01 3.182197e+01 4.115116e+01 5.352689e+01 2.526110e+01
<GCONST> 6.629780e+01
<TRANSP> 5
 0.000000e+00 1.000000e+00 0.000000e+00 0.000000e+00 0.000000e+00
 0.000000e+00 6.437500e-01 3.562500e-01 0.000000e+00 0.000000e+00
 0.000000e+00 0.000000e+00 6.392405e-01 3.607595e-01 0.000000e+00
 0.000000e+00 0.000000e+00 0.000000e+00 5.681818e-01 4.318182e-01
 0.000000e+00 0.000000e+00 0.000000e+00 0.000000e+00 0.000000e+00
<ENDHMM>
