~o
<STREAMINFO> 1 12
<VECSIZE> 12<NULLD><MFCC><DIAGC>
~h "l"
<BEGINHMM>
<NUMSTATES> 5
<STATE> 2
<MEAN> 12
 -6.673556e+00 -1.202549e+00 6.172416e+00 1.717184e+00 -4.429185e+00 -6.498755e+00 -9.413918e+00 -1.175320e+00 -1.060899e+00 -4.231170e+00 7.305020e-01 -3.846708e+00
<VARIANCE> 12
 4.128635e+01 2.385305e+01 2.871655e+01 2.416094e+01 4.489623e+01 4.947765e+01 8.179495e+01 3.238339e+01 2.737292e+01 4.588875e+01 2.403437e+01 4.234910e+01
<GCONST> 6.513812e+01
<STATE> 3
<MEAN> 12
 -3.553390e-01 -6.067251e+00 5.466071e+00 6.667197e+00 -5.701790e+00 -7.874621e+00 -2.291926e+01 -2.144341e+00 2.968679e+00 -1.039109e+01 3.596681e+00 -6.217542e+00
<VARIANCE> 12
 2.483795e+01 1.627986e+01 2.474200e+01 4.891788e+01 6.088089e+01 3.507882e+01 8.563042e+01 3.348273e+01 3.568034e+01 4.549303e+01 4.109843e+01 3.960760e+01
<GCONST> 6.557021e+01
<STATE> 4
<MEAN> 12
 -3.262594e+00 -3.566392e+00 5.978010e+00 1.196684e+00 -8.923752e+00 -1.108995e+01 -1.493817e+01 4.851485e-01 -2.039911e+00 -6.020446e+00 2.935574e+00 -8.580495e+00
<VARIANCE> 12
 2.939384e+01 2.104513e+01 5.970489e+01 4.151923e+01 4.251006e+01 3.711831e+01 6.799141e+01 3.562870e+01 2.465051e+01 6.320063e+01 4.051621e+01 3.998782e+01
<GCONST> 6.619532e+01
<TRANSP> 5
 0.000000e+00 1.000000e+00 0.000000e+00 0.000000e+00 0.000000e+00
 0.000000e+00 5.065789e-01 4.934210e-01 0.000000e+00 0.000000e+00
 0.000000e+00 0.000000e+00 6.621622e-01 3.378378e-01 0.000000e+00
 0.000000e+00 0.000000e+00 0.000000e+00 6.559633e-01 3.440367e-01
 0.000000e+00 0.000000e+00 0.000000e+00 0.000000e+00 0.000000e+00
<ENDHMM>
