~o
<STREAMINFO> 1 12
<VECSIZE> 12<NULLD><MFCC><DIAGC>
~h "m"
<BEGINHMM>
<NUMSTATES> 5
<STATE> 2
<MEAN> 12
 -1.791575e+00 -1.820506e+00 2.277792e+00 2.665995e+00 -4.505851e+00 -7.093110e+00 -6.139830e+00 -2.975769e+00 -5.247453e+00 -4.767832e+00 3.369769e+00 -8.524818e+00
<VARIANCE> 12
 3.803640e+01 2.463026e+01 2.609687e+01 3.086206e+01 4.071435e+01 3.934629e+01 5.696684e+01 5.584840e+01 4.940582e+01 5.068156e+01 3.352279e+01 4.977415e+01
<GCONST> 6.627783e+01
<STATE> 3
<MEAN> 12
 2.761057e+00 -3.192633e+00 5.369183e+00 3.546808e+00 -6.462373e+00 -7.923006e+00 -5.067038e+00 -3.920383e+00 -1.102359e+01 -4.258039e+00 3.658923e+00 -1.365127e+01
<VARIANCE> 12
 1.339687e+01 1.709505e+01 2.166337e+01 2.759484e+01 1.420156e+01 2.106714e+01 2.220560e+01 3.648131e+01 4.322901e+01 5.758430e+01 2.252641e+01 4.215077e+01
<GCONST> 6.095550e+01
<STATE> 4
<MEAN> 12
 -7.413219e-01 -3.340532e+00 5.861821e-01 -4.198426e+00 -7.934669e+00 -5.489951e+00 -8.421250e+00 -8.700716e-02 -3.310774e+00 -6.621061e+00 5.145304e+00 -8.476763e+00
<VARIANCE> 12
 2.168412e+01 4.786453e+01 4.495330e+01 6.668356e+01 3.985489e+01 4.381979e+01 5.130794e+01 8.848464e+01 2.350994e+01 5.074321e+01 5.043295e+01 4.638854e+01
<GCONST> 6.773297e+01
<TRANSP> 5
 0.000000e+00 1.000000e+00 0.000000e+00 0.000000e+00 0.000000e+00
 0.000000e+00 1.538462e-01 8.461539e-01 0.000000e+00 0.000000e+00
 0.000000e+00 0.000000e+00 7.267081e-01 2.732919e-01 0.000000e+00
 0.000000e+00 0.000000e+00 0.000000e+00 2.786885e-01 7.213115e-01
 0.000000e+00 0.000000e+00 0.000000e+00 0.000000e+00 0.000000e+00
<ENDHMM>
