~o
<STREAMINFO> 1 12
<VECSIZE> 12<NULLD><MFCC><DIAGC>
~h "n"
<BEGINHMM>
<NUMSTATES> 5
<STATE> 2
<MEAN> 12
 2.029211e+00 -1.717647e+00 6.053422e+00 1.706792e+00 -1.020080e+01 -6.552392e+00 -2.023196e+00 -1.168268e+01 -8.321253e+00 -1.013458e+00 -1.829884e+00 -1.255028e+01
<VARIANCE> 12
 9.290655e+00 1.391769e+01 1.439585e+01 1.324051e+01 1.691131e+01 1.614357e+01 3.110263e+01 3.323566e+01 2.293999e+01 2.972787e+01 3.357944e+01 2.968023e+01
<GCONST> 5.814670e+01
<STATE> 3
<MEAN> 12
 -1.650715e+00 1.545327e+00 6.705522e+00 -2.380335e+00 -1.029338e+01 -8.217893e+00 -8.351328e+00 4.501629e-01 -3.793170e+00 -8.144100e+00 2.193545e+00 -7.495138e+00
<VARIANCE> 12
 1.336601e+01 2.591054e+01 4.852487e+01 2.634488e+01 3.116654e+01 6.020894e+01 4.277441e+01 5.239552e+01 2.408279e+01 4.588342e+01 3.270714e+01 2.604669e+01
<GCONST> 6.406225e+01
<STATE> 4
<MEAN> 12
 -6.989361e+00 -1.983868e+00 9.265644e-01 -7.868188e-01 -7.894969e+00 -9.377119e+00 -1.204972e+01 1.589379e+00 -1.729575e+00 -2.162079e+00 4.561703e+00 -8.939539e+00
<VARIANCE> 12
 7.190286e+01 4.089116e+01 5.703716e+01 4.542459e+01 2.861976e+01 4.464171e+01 5.483891e+01 4.687006e+01 1.908097e+01 3.219661e+01 5.234104e+01 6.712389e+01
<GCONST> 6.748993e+01
<TRANSP> 5
 0.000000e+00 1.000000e+00 0.000000e+00 0.000000e+00 0.000000e+00
 0.000000e+00 7.500000e-01 2.500000e-01 0.000000e+00 0.000000e+00
 0.000000e+00 0.000000e+00 5.411765e-01 4.588235e-01 0.000000e+00
 0.000000e+00 0.000000e+00 0.000000e+00 6.320755e-01 3.679245e-01
 0.000000e+00 0.000000e+00 0.000000e+00 0.000000e+00 0.000000e+00
<ENDHMM>
