~o
<STREAMINFO> 1 12
<VECSIZE> 12<NULLD><MFCC><DIAGC>
~h "O"
<BEGINHMM>
<NUMSTATES> 5
<STATE> 2
<MEAN> 12
 -9.011441e+00 1.280166e+00 -1.168079e+00 -2.888794e+00 -1.774294e+00 -4.094369e+00 -3.904873e+00 -4.403655e+00 -2.460481e+00 -4.691222e-01 2.480077e+00 -4.697250e-03
<VARIANCE> 12
 1.859731e+01 1.977762e+01 1.278075e+01 1.437965e+01 1.181390e+01 2.083698e+01 1.697656e+01 4.055827e+01 3.138114e+01 1.758307e+01 1.372071e+01 4.969720e+01
<GCONST> 5.805442e+01
<STATE> 3
<MEAN> 12
 3.781326e-02 -4.737471e+00 -1.950348e+00 -1.076809e+01 -1.363386e+00 -5.340267e+00 -1.018649e+01 -1.872860e+00 -6.098356e+00 3.065616e-01 1.357690e+01 -5.960737e+00
<VARIANCE> 12
 1.944441e+01 2.910561e+01 7.127344e+00 3.950636e+01 2.519995e+01 3.122861e+01 3.064958e+01 6.168267e+01 2.569545e+01 2.372745e+01 4.624733e+01 1.022837e+02
<GCONST> 6.312091e+01
<STATE> 4
<MEAN> 12
 -2.645720e+00 -8.289654e-01 -3.028994e+00 -5.085630e+00 -5.601756e+00 -2.751424e+00 -6.139313e+00 -1.639543e+00 -6.752789e+00 -1.433841e+00 8.905998e+00 -5.659788e+00
<VARIANCE> 12
 4.521651e+01 8.720591e+00 4.479494e+01 4.294655e+01 3.744449e+01 2.406681e+01 5.172408e+01 2.897933e+01 8.071481e+01 3.801450e+01 1.113436e+02 8.304215e+01
<GCONST> 6.687078e+01
<TRANSP> 5
 0.000000e+00 1.000000e+00 0.000000e+00 0.000000e+00 0.000000e+00
 0.000000e+00 4.444444e-01 5.555556e-01 0.000000e+00 0.000000e+00
 0.000000e+00 0.000000e+00 7.222222e-01 2.777778e-01 0.000000e+00
 0.000000e+00 0.000000e+00 0.000000e+00 2.857143e-01 7.142857e-01
 0.000000e+00 0.000000e+00 0.000000e+00 0.000000e+00 0.000000e+00
<ENDHMM>
