~o
<STREAMINFO> 1 12
<VECSIZE> 12<NULLD><MFCC><DIAGC>
~h "o"
<BEGINHMM>
<NUMSTATES> 5
<STATE> 2
<MEAN> 12
 2.085477e+00 -1.441856e+00 -1.167870e+00 -1.301887e+01 -1.120751e+01 5.119700e-01 -1.254211e+01 -2.845994e+00 -8.413814e+00 -1.517021e+01 1.511553e+01 -3.621197e-01
<VARIANCE> 12
 2.120557e+01 1.500078e+01 1.706748e+01 2.466354e+01 4.153069e+01 2.620378e+01 5.517809e+01 4.672194e+01 4.130635e+01 5.707251e+01 3.985939e+01 4.605413e+01
<GCONST> 6.398703e+01
<STATE> 3
<MEAN> 12
 -1.542370e-01 -2.772925e+00 8.711982e-02 -6.434021e+00 -2.843667e+00 -5.314928e+00 -1.806921e+01 -4.797172e+00 -6.220940e+00 -6.989976e+00 1.203489e+01 -4.325447e+00
<VARIANCE> 12
 3.224486e+01 8.863337e+00 2.310293e+01 1.395784e+01 2.387833e+01 7.156606e+01 4.072720e+01 2.764713e+01 3.108767e+01 5.676123e+01 5.983743e+01 3.997710e+01
<GCONST> 6.321142e+01
<STATE> 4
<MEAN> 12
 -3.768328e+00 7.414300e-01 3.831900e+00 -2.361604e-01 -3.140681e+00 -6.837810e+00 -9.992719e+00 -4.495166e+00 -2.883556e+00 -2.972007e+00 2.824699e+00 -3.399318e+00
<VARIANCE> 12
 6.919589e+01 3.763051e+01 3.143766e+01 3.028878e+01 2.531607e+01 6.717127e+01 4.181661e+01 5.101357e+01 2.656311e+01 4.579793e+01 3.268250e+01 3.532228e+01
<GCONST> 6.603725e+01
<TRANSP> 5
 0.000000e+00 1.000000e+00 0.000000e+00 0.000000e+00 0.000000e+00
 0.000000e+00 7.517241e-01 2.482759e-01 0.000000e+00 0.000000e+00
 0.000000e+00 0.000000e+00 4.782609e-01 5.217391e-01 0.000000e+00
 0.000000e+00 0.000000e+00 0.000000e+00 5.443038e-01 4.556962e-01
 0.000000e+00 0.000000e+00 0.000000e+00 0.000000e+00 0.000000e+00
<ENDHMM>
