~o
<STREAMINFO> 1 12
<VECSIZE> 12<NULLD><MFCC><DIAGC>
~h "o#"
<BEGINHMM>
<NUMSTATES> 5
<STATE> 2
<MEAN> 12
 1.232490e+00 -1.758509e+00 -9.339567e-01 -9.003126e+00 -9.069969e+00 -4.273210e+00 -4.380417e+00 1.031729e+00 -4.374392e+00 -6.554844e+00 9.596795e+00 -9.374337e+00
<VARIANCE> 12
 2.397270e+01 2.715878e+01 1.509587e+01 2.311951e+01 3.646870e+01 2.421727e+01 3.497437e+01 4.071142e+01 6.162502e+01 4.645495e+01 8.641415e+01 4.489818e+01
<GCONST> 6.465598e+01
<STATE> 3
<MEAN> 12
 3.029746e+00 -3.141021e+00 1.921745e+00 -1.344825e+01 -1.442960e+01 -7.006378e+00 -1.668456e+00 4.141164e-01 -7.940489e+00 -3.753577e+00 7.380470e+00 -1.462698e+01
<VARIANCE> 12
 1.642082e+01 1.459214e+01 2.018166e+01 3.332357e+01 3.494078e+01 2.585068e+01 2.768243e+01 2.580730e+01 3.061159e+01 3.646489e+01 2.455611e+01 3.371393e+01
<GCONST> 6.115865e+01
<STATE> 4
<MEAN> 12
 -7.621676e-01 2.239937e-01 1.855539e+00 -2.101999e+00 -7.063435e+00 -4.171607e+00 -7.944480e-01 -7.029586e+00 -7.644592e+00 -2.351504e+00 1.520061e+00 -8.249370e+00
<VARIANCE> 12
 5.126036e+01 2.616665e+01 1.886816e+01 1.886752e+01 4.771480e+01 3.507750e+01 3.632169e+01 6.813271e+01 2.802545e+01 2.448138e+01 2.360427e+01 5.467441e+01
<GCONST> 6.406137e+01
<TRANSP> 5
 0.000000e+00 1.000000e+00 0.000000e+00 0.000000e+00 0.000000e+00
 0.000000e+00 6.395349e-01 3.604651e-01 0.000000e+00 0.000000e+00
 0.000000e+00 0.000000e+00 7.960526e-01 2.039474e-01 0.000000e+00
 0.000000e+00 0.000000e+00 0.000000e+00 6.265060e-01 3.734940e-01
 0.000000e+00 0.000000e+00 0.000000e+00 0.000000e+00 0.000000e+00
<ENDHMM>
