~o
<STREAMINFO> 1 12
<VECSIZE> 12<NULLD><MFCC><DIAGC>
~h "p"
<BEGINHMM>
<NUMSTATES> 5
<STATE> 2
<MEAN> 12
 -6.198372e+00 2.766237e+00 2.507445e+00 1.097084e+00 -1.049230e+00 -2.439219e+00 -3.014757e+00 -1.903222e+00 -3.345660e-01 -7.697594e-01 5.813436e-01 -1.481557e+00
<VARIANCE> 12
 2.453248e+01 3.334343e+01 2.043401e+01 2.623113e+01 2.813567e+01 3.573397e+01 2.674724e+01 2.936366e+01 2.724942e+01 2.644395e+01 2.058697e+01 2.474453e+01
<GCONST> 6.143818e+01
<STATE> 3
<MEAN> 12
 -5.219895e+00 -3.809967e+00 -4.756408e-01 -1.439519e+00 -6.465671e+00 -5.861819e+00 -6.334996e+00 3.094503e+00 3.920388e+00 -3.523228e+00 1.135363e+00 -4.242462e+00
<VARIANCE> 12
 2.012262e+01 4.068742e+01 3.980022e+01 4.832482e+01 5.246379e+01 2.691190e+01 4.471638e+01 5.970208e+01 3.653756e+01 6.792082e+01 4.147583e+01 3.744705e+01
<GCONST> 6.663123e+01
<STATE> 4
<MEAN> 12
 -2.309754e+00 -3.613249e+00 -9.368391e-01 -7.646343e+00 -7.848829e+00 2.757228e-01 -1.215747e+01 -2.646226e+00 3.156321e+00 -3.524327e+00 4.106370e+00 -6.921718e+00
<VARIANCE> 12
 1.880276e+01 2.315413e+01 4.750457e+01 5.696505e+01 3.684323e+01 6.430463e+01 6.834379e+01 7.632198e+01 5.382832e+01 3.846894e+01 4.400097e+01 4.384000e+01
<GCONST> 6.756419e+01
<TRANSP> 5
 0.000000e+00 1.000000e+00 0.000000e+00 0.000000e+00 0.000000e+00
 0.000000e+00 8.428571e-01 1.571429e-01 0.000000e+00 0.000000e+00
 0.000000e+00 0.000000e+00 6.489362e-01 3.510638e-01 0.000000e+00
 0.000000e+00 0.000000e+00 0.000000e+00 8.630705e-01 1.369295e-01
 0.000000e+00 0.000000e+00 0.000000e+00 0.000000e+00 0.000000e+00
<ENDHMM>
