~o
<STREAMINFO> 1 12
<VECSIZE> 12<NULLD><MFCC><DIAGC>
~h "R"
<BEGINHMM>
<NUMSTATES> 5
<STATE> 2
<MEAN> 12
 -4.589135e+00 -2.496738e+00 -4.855754e-02 -9.294622e+00 -5.835398e+00 -4.025590e+00 -6.561305e+00 1.588743e+00 -1.823975e+00 -5.054846e+00 7.753897e+00 -5.541267e+00
<VARIANCE> 12
 3.949487e+01 3.146761e+01 5.060769e+01 4.209498e+01 8.261222e+01 8.969987e+01 8.750644e+01 4.171385e+01 4.019852e+01 8.346011e+01 4.578730e+01 3.697930e+01
<GCONST> 6.950943e+01
<STATE> 3
<MEAN> 12
 -1.310722e+00 -4.259277e+00 -2.887175e+00 -1.132296e+01 -3.000526e+00 -2.661089e+00 -1.039024e+01 1.824885e+00 -7.503488e+00 1.715750e-02 1.085473e+01 -6.538176e+00
<VARIANCE> 12
 2.654313e+01 2.049968e+01 2.808505e+01 4.484653e+01 3.742707e+01 2.754610e+01 8.353916e+01 3.930384e+01 6.352607e+01 4.097721e+01 4.718912e+01 6.442370e+01
<GCONST> 6.641119e+01
<STATE> 4
<MEAN> 12
 -8.407542e+00 -3.048059e+00 -7.554250e-01 -3.289390e+00 2.120550e+00 -1.884918e+00 -2.330637e+00 8.680457e-01 -1.219472e+00 2.310148e+00 3.729988e+00 -4.056981e+00
<VARIANCE> 12
 6.050338e+01 2.581999e+01 2.659783e+01 3.581784e+01 4.320356e+01 4.279496e+01 6.475706e+01 3.625726e+01 4.155498e+01 4.159544e+01 4.095094e+01 3.676653e+01
<GCONST> 6.632324e+01
<TRANSP> 5
 0.000000e+00 1.000000e+00 0.000000e+00 0.000000e+00 0.000000e+00
 0.000000e+00 5.960785e-01 4.039216e-01 0.000000e+00 0.000000e+00
 0.000000e+00 0.000000e+00 6.970588e-01 3.029412e-01 0.000000e+00
 0.000000e+00 0.000000e+00 0.000000e+00 7.098591e-01 2.901408e-01
 0.000000e+00 0.000000e+00 0.000000e+00 0.000000e+00 0.000000e+00
<ENDHMM>
