~o
<STREAMINFO> 1 12
<VECSIZE> 12<NULLD><MFCC><DIAGC>
~h "S"
<BEGINHMM>
<NUMSTATES> 5
<STATE> 2
<MEAN> 12
 -2.181115e+01 -4.498944e+00 8.997548e+00 6.394998e-01 -1.406662e+00 -3.442745e+00 4.066526e-01 -4.357302e+00 2.441413e+00 -1.812176e+00 -2.248526e+00 -1.443530e+00
<VARIANCE> 12
 7.285960e+01 2.335664e+01 3.895797e+01 1.898627e+01 1.503283e+01 1.937288e+01 1.598705e+01 2.737929e+01 2.632201e+01 2.194773e+01 1.599988e+01 2.468686e+01
<GCONST> 6.019374e+01
<STATE> 3
<MEAN> 12
 -2.532932e+01 -9.719087e+00 3.028590e+00 -2.103699e+00 2.363885e+00 -8.790670e+00 8.637391e-01 -1.753983e+00 4.624886e+00 1.932042e+00 5.073684e-01 6.793374e-01
<VARIANCE> 12
 2.714466e+01 2.537417e+01 1.405676e+01 1.914231e+01 3.568298e+01 2.181284e+01 1.361547e+01 1.397118e+01 1.455859e+01 1.647750e+01 1.593098e+01 1.510996e+01
<GCONST> 5.705361e+01
<STATE> 4
<MEAN> 12
 -8.593653e+00 -2.219429e+00 -9.986845e-01 -7.073698e+00 -1.749318e+00 -6.812996e+00 -1.745609e+00 -5.958724e-01 -7.912846e-01 -2.076229e+00 1.758978e+00 -3.050231e+00
<VARIANCE> 12
 1.054157e+02 7.995121e+00 2.380377e+01 2.122396e+01 1.656904e+01 3.239553e+01 3.048162e+01 2.474567e+01 1.367765e+01 1.432253e+01 2.566111e+01 1.396095e+01
<GCONST> 5.908641e+01
<TRANSP> 5
 0.000000e+00 1.000000e+00 0.000000e+00 0.000000e+00 0.000000e+00
 0.000000e+00 5.000000e-01 5.000000e-01 0.000000e+00 0.000000e+00
 0.000000e+00 0.000000e+00 7.428572e-01 2.571429e-01 0.000000e+00
 0.000000e+00 0.000000e+00 0.000000e+00 5.714286e-01 4.285714e-01
 0.000000e+00 0.000000e+00 0.000000e+00 0.000000e+00 0.000000e+00
<ENDHMM>
