~o
<STREAMINFO> 1 12
<VECSIZE> 12<NULLD><MFCC><DIAGC>
~h "s"
<BEGINHMM>
<NUMSTATES> 5
<STATE> 2
<MEAN> 12
 -1.789985e+01 5.090728e+00 3.091252e+00 1.546357e+00 1.648245e+00 -4.964767e+00 -1.461182e+00 -5.880171e-01 -3.866334e-01 4.757760e-01 3.278363e-01 -1.368167e+00
<VARIANCE> 12
 4.237639e+01 2.923099e+01 2.647041e+01 2.219142e+01 2.409215e+01 5.241674e+01 4.075639e+01 3.938090e+01 3.102690e+01 1.861586e+01 2.327477e+01 2.146238e+01
<GCONST> 6.264662e+01
<STATE> 3
<MEAN> 12
 -2.750572e+01 -1.420986e-01 -4.976007e+00 -1.049585e+00 -1.636400e+00 -4.218255e+00 1.018290e+00 -1.097542e+00 2.442711e+00 1.491089e+00 1.394836e+00 6.624258e-01
<VARIANCE> 12
 1.750377e+01 1.023371e+01 1.576900e+01 2.097466e+01 1.907261e+01 1.559688e+01 2.052371e+01 2.258892e+01 2.116881e+01 1.645637e+01 1.476294e+01 1.682122e+01
<GCONST> 5.624635e+01
<STATE> 4
<MEAN> 12
 -1.211729e+01 2.305337e+00 1.504453e+00 -1.489330e+00 -1.532299e+00 -7.080819e+00 -3.954778e+00 -2.048747e+00 -1.743202e+00 7.797469e-01 9.266974e-01 -4.186443e+00
<VARIANCE> 12
 5.288758e+01 2.542147e+01 3.543699e+01 2.358963e+01 2.144705e+01 4.154567e+01 3.370353e+01 3.807909e+01 2.834284e+01 4.039801e+01 3.497906e+01 3.300537e+01
<GCONST> 6.403107e+01
<TRANSP> 5
 0.000000e+00 1.000000e+00 0.000000e+00 0.000000e+00 0.000000e+00
 0.000000e+00 5.524862e-01 4.475138e-01 0.000000e+00 0.000000e+00
 0.000000e+00 0.000000e+00 8.402367e-01 1.597633e-01 0.000000e+00
 0.000000e+00 0.000000e+00 0.000000e+00 5.714286e-01 4.285714e-01
 0.000000e+00 0.000000e+00 0.000000e+00 0.000000e+00 0.000000e+00
<ENDHMM>
