~o
<STREAMINFO> 1 12
<VECSIZE> 12<NULLD><MFCC><DIAGC>
~h "sil"
<BEGINHMM>
<NUMSTATES> 5
<STATE> 2
<MEAN> 12
 -5.802295e+00 -4.785880e+00 -3.274220e+00 -3.141982e+00 -3.206375e+00 -1.015236e+01 -4.025166e+00 6.714135e+00 5.240226e-01 5.921682e-01 2.773978e+00 -8.790802e+00
<VARIANCE> 12
 3.717212e+01 2.110003e+01 2.418238e+01 1.814947e+01 2.133189e+01 4.097322e+01 3.195883e+01 2.956145e+01 2.227432e+01 3.341870e+01 1.427981e+01 1.060427e+02
<GCONST> 6.236290e+01
<STATE> 3
<MEAN> 12
 -1.313560e+01 -8.560494e+00 -2.900133e+00 -4.940002e-02 3.557906e+00 1.813489e+00 4.968572e+00 6.635920e+00 2.052966e-01 -2.884549e-01 1.788267e+00 1.328274e+00
<VARIANCE> 12
 1.126516e+01 8.822925e+00 1.622169e+01 1.305521e+01 4.206406e+01 8.732756e+01 3.113087e+01 2.343566e+01 1.457786e+01 1.809772e+01 1.878102e+01 1.205559e+01
<GCONST> 5.780811e+01
<STATE> 4
<MEAN> 12
 -1.683347e+01 -1.118511e+01 -3.756721e+00 -5.028601e+00 -2.978120e+00 -9.988527e+00 3.825031e-02 5.247741e+00 -1.085954e+00 -1.624967e+00 -8.738292e-01 -5.459597e-01
<VARIANCE> 12
 8.402215e+00 6.447429e+00 1.439261e+01 7.252423e+00 2.286057e+01 2.468520e+01 1.697132e+01 1.316488e+01 2.025838e+01 1.249689e+01 1.617264e+01 1.129416e+01
<GCONST> 5.318110e+01
<TRANSP> 5
 0.000000e+00 1.000000e+00 0.000000e+00 0.000000e+00 0.000000e+00
 0.000000e+00 6.666667e-01 3.333333e-01 0.000000e+00 0.000000e+00
 0.000000e+00 0.000000e+00 5.686275e-01 4.313726e-01 0.000000e+00
 0.000000e+00 0.000000e+00 0.000000e+00 8.543046e-01 1.456954e-01
 0.000000e+00 0.000000e+00 0.000000e+00 0.000000e+00 0.000000e+00
<ENDHMM>
