~o
<STREAMINFO> 1 12
<VECSIZE> 12<NULLD><MFCC><DIAGC>
~h "t"
<BEGINHMM>
<NUMSTATES> 5
<STATE> 2
<MEAN> 12
 -4.898879e+00 4.003127e+00 3.128000e+00 -4.601326e-01 -4.026850e+00 -1.024205e+01 -6.516451e+00 1.511547e+00 1.172046e+00 -6.137072e-01 1.129721e+00 -3.108101e+00
<VARIANCE> 12
 2.861322e+01 1.903753e+01 4.007658e+01 2.501194e+01 2.201844e+01 3.289555e+01 3.586787e+01 4.361916e+01 4.239299e+01 4.914678e+01 2.442331e+01 3.805506e+01
<GCONST> 6.368187e+01
<STATE> 3
<MEAN> 12
 -1.896228e+01 -1.286450e+00 -1.062604e+00 -3.547412e+00 -3.504230e-01 -1.693002e+00 -9.885278e-01 -8.116259e-01 2.924774e+00 1.530440e+00 1.649063e+00 8.434975e-01
<VARIANCE> 12
 3.667350e+01 2.849401e+01 2.405581e+01 2.474442e+01 2.947400e+01 3.397262e+01 2.901903e+01 2.350894e+01 2.463364e+01 2.710491e+01 2.551940e+01 1.677836e+01
<GCONST> 6.139299e+01
<STATE> 4
<MEAN> 12
 -7.889272e+00 -3.321212e-01 2.972597e-01 -1.649742e+00 -3.742072e+00 -1.199072e+01 -8.621796e+00 -3.113971e+00 -1.701459e-01 -4.196551e-01 3.534899e+00 -5.590025e+00
<VARIANCE> 12
 4.386853e+01 3.017875e+01 3.558828e+01 1.879880e+01 5.047699e+01 7.056312e+01 5.078857e+01 5.571437e+01 3.196021e+01 6.250232e+01 3.422811e+01 5.638194e+01
<GCONST> 6.703949e+01
<TRANSP> 5
 0.000000e+00 1.000000e+00 0.000000e+00 0.000000e+00 0.000000e+00
 0.000000e+00 6.311111e-01 3.688889e-01 0.000000e+00 0.000000e+00
 0.000000e+00 0.000000e+00 7.176871e-01 2.823129e-01 0.000000e+00
 0.000000e+00 0.000000e+00 0.000000e+00 5.654450e-01 4.345550e-01
 0.000000e+00 0.000000e+00 0.000000e+00 0.000000e+00 0.000000e+00
<ENDHMM>
