~o
<STREAMINFO> 1 12
<VECSIZE> 12<NULLD><MFCC><DIAGC>
~h "u"
<BEGINHMM>
<NUMSTATES> 5
<STATE> 2
<MEAN> 12
 -3.596467e+00 -8.413992e-01 1.543052e+00 -2.805716e+00 -3.744263e+00 -7.773609e+00 -1.421101e+01 -4.735271e+00 -4.168205e+00 -5.410452e+00 8.335625e+00 -5.669780e+00
<VARIANCE> 12
 2.617296e+01 2.123691e+01 2.671530e+01 1.340507e+01 2.739688e+01 5.400170e+01 8.038213e+01 3.042808e+01 4.502891e+01 2.848619e+01 4.830759e+01 3.528938e+01
<GCONST> 6.395536e+01
<STATE> 3
<MEAN> 12
 5.152356e-01 9.523301e-01 2.553406e+00 -7.854302e+00 -5.061091e+00 -5.023483e+00 -1.384091e+01 -4.417881e+00 -8.100746e+00 -1.546821e+01 1.081648e+01 -2.827749e+00
<VARIANCE> 12
 2.576441e+01 2.032991e+01 1.613587e+01 4.792329e+01 6.398124e+01 5.721519e+01 3.961176e+01 5.774920e+01 3.281593e+01 8.154061e+01 5.525810e+01 3.533359e+01
<GCONST> 6.637576e+01
<STATE> 4
<MEAN> 12
 -7.691559e+00 -4.083049e-01 2.276185e+00 7.448927e-02 7.970951e-01 1.440944e-01 -4.705678e+00 7.635424e-01 -5.304266e-01 -4.350425e+00 -6.195759e-01 -4.369988e-01
<VARIANCE> 12
 4.849656e+01 1.493993e+01 1.751868e+01 4.497716e+01 3.961174e+01 3.118233e+01 3.638166e+01 2.911106e+01 2.133322e+01 1.085073e+02 4.905769e+01 4.058010e+01
<GCONST> 6.473700e+01
<TRANSP> 5
 0.000000e+00 1.000000e+00 0.000000e+00 0.000000e+00 0.000000e+00
 0.000000e+00 6.185567e-01 3.814433e-01 0.000000e+00 0.000000e+00
 0.000000e+00 0.000000e+00 7.394366e-01 2.605634e-01 0.000000e+00
 0.000000e+00 0.000000e+00 0.000000e+00 6.916667e-01 3.083333e-01
 0.000000e+00 0.000000e+00 0.000000e+00 0.000000e+00 0.000000e+00
<ENDHMM>
