~o
<STREAMINFO> 1 12
<VECSIZE> 12<NULLD><MFCC><DIAGC>
~h "v"
<BEGINHMM>
<NUMSTATES> 5
<STATE> 2
<MEAN> 12
 -4.079389e+00 1.521827e-02 8.193936e-01 -1.884188e+00 -3.041622e+00 -5.946921e+00 -9.805886e+00 2.919432e+00 -4.688597e+00 -2.039316e+00 2.607080e+00 -2.803670e+00
<VARIANCE> 12
 3.084043e+01 1.796321e+01 1.535520e+01 2.829986e+01 2.441420e+01 4.100566e+01 5.792464e+01 5.296977e+01 3.537880e+01 3.925539e+01 4.809531e+01 2.200735e+01
<GCONST> 6.358449e+01
<STATE> 3
<MEAN> 12
 -6.989294e+00 1.313289e-01 1.685885e+00 8.068066e-01 -1.240493e+00 -5.074546e+00 -6.201521e+00 5.758732e-02 -7.821373e-01 -8.193953e-01 5.774732e-01 -2.224560e+00
<VARIANCE> 12
 2.583727e+01 1.695490e+01 1.468196e+01 2.569645e+01 2.368921e+01 6.424426e+01 4.665326e+01 2.941903e+01 2.216859e+01 1.665983e+01 1.684900e+01 1.378376e+01
<GCONST> 5.998142e+01
<STATE> 4
<MEAN> 12
 -2.701822e+00 -2.505550e+00 -1.521363e-01 -4.332686e+00 -4.514799e+00 -5.428590e+00 -1.062856e+01 3.349156e+00 -3.405846e+00 -2.916820e+00 5.003551e+00 -5.178556e+00
<VARIANCE> 12
 3.000007e+01 2.308221e+01 3.305143e+01 4.719508e+01 2.018433e+01 7.794302e+01 6.338972e+01 5.514899e+01 2.839673e+01 3.103503e+01 3.909010e+01 1.753312e+01
<GCONST> 6.477872e+01
<TRANSP> 5
 0.000000e+00 1.000000e+00 0.000000e+00 0.000000e+00 0.000000e+00
 0.000000e+00 8.571428e-02 9.142857e-01 0.000000e+00 0.000000e+00
 0.000000e+00 0.000000e+00 6.235294e-01 3.764706e-01 0.000000e+00
 0.000000e+00 0.000000e+00 0.000000e+00 3.043478e-01 6.956522e-01
 0.000000e+00 0.000000e+00 0.000000e+00 0.000000e+00 0.000000e+00
<ENDHMM>
