~o
<STREAMINFO> 1 12
<VECSIZE> 12<NULLD><MFCC><DIAGC>
~h "w"
<BEGINHMM>
<NUMSTATES> 5
<STATE> 2
<MEAN> 12
 7.822421e-01 2.218874e+00 -5.331455e-01 -9.604694e+00 -6.431892e+00 -1.467767e+00 -7.297363e+00 -8.937481e-01 -4.740467e+00 -1.240789e+01 4.273780e+00 -3.207324e+00
<VARIANCE> 12
 1.677385e+01 8.474985e+00 1.991512e+01 3.571298e+01 4.378193e+01 3.174562e+01 2.260019e+01 2.340401e+01 2.459011e+01 5.180597e+01 3.528132e+01 1.260409e+01
<GCONST> 6.033353e+01
<STATE> 3
<MEAN> 12
 4.734945e+00 -4.761828e+00 -1.233786e+00 -1.426749e+01 -9.777596e+00 1.617993e+00 -1.856366e+01 3.599249e+00 -7.921051e+00 -1.379155e+01 1.938541e+01 -5.899038e-01
<VARIANCE> 12
 1.457436e+01 1.389895e+01 2.160390e+01 2.102048e+01 2.276141e+01 3.021835e+01 4.902835e+01 1.771500e+01 2.097986e+01 7.905282e+01 6.969178e+01 4.699279e+01
<GCONST> 6.229206e+01
<STATE> 4
<MEAN> 12
 2.154226e+00 -1.005399e+01 -4.388283e+00 -1.657448e+01 -3.756914e+00 -2.881868e+00 -1.683617e+01 9.437443e+00 -3.375869e+00 -2.492603e+00 1.617736e+01 -1.421014e+01
<VARIANCE> 12
 7.439222e+00 1.094441e+01 1.924978e+01 6.035392e+01 2.380840e+01 3.307155e+01 7.932830e+01 5.151960e+01 2.425502e+01 3.928796e+01 5.115213e+01 2.516510e+01
<GCONST> 6.251592e+01
<TRANSP> 5
 0.000000e+00 1.000000e+00 0.000000e+00 0.000000e+00 0.000000e+00
 0.000000e+00 5.384616e-01 4.615385e-01 0.000000e+00 0.000000e+00
 0.000000e+00 0.000000e+00 6.538461e-01 3.461539e-01 0.000000e+00
 0.000000e+00 0.000000e+00 0.000000e+00 6.785714e-01 3.214286e-01
 0.000000e+00 0.000000e+00 0.000000e+00 0.000000e+00 0.000000e+00
<ENDHMM>
