~o
<STREAMINFO> 1 12
<VECSIZE> 12<NULLD><MFCC><DIAGC>
~h "y"
<BEGINHMM>
<NUMSTATES> 5
<STATE> 2
<MEAN> 12
 -1.129454e+01 -8.832590e-01 9.699821e+00 3.694439e+00 -6.357012e+00 -8.915419e+00 -1.033873e+01 -1.741397e+00 -1.930059e+00 -7.697726e+00 -1.831156e+00 -2.034548e+00
<VARIANCE> 12
 6.179594e+01 2.600651e+01 7.793209e+01 3.425907e+01 3.327374e+01 2.166311e+01 2.856530e+01 2.764580e+01 1.962119e+01 3.115821e+01 2.018248e+01 2.109642e+01
<GCONST> 6.304815e+01
<STATE> 3
<MEAN> 12
 -4.030825e+00 -3.754494e+00 1.290718e+01 6.226842e+00 -1.235862e+01 -9.164581e+00 -1.579086e+01 1.507551e+00 -1.664532e+00 -1.610817e+01 2.005079e+00 -6.282621e-01
<VARIANCE> 12
 2.490351e+01 1.215584e+01 3.509233e+01 2.264911e+01 3.395077e+01 2.770703e+01 6.827715e+01 2.491079e+01 3.012697e+01 4.984728e+01 1.022786e+01 1.375776e+01
<GCONST> 6.099203e+01
<STATE> 4
<MEAN> 12
 -3.645962e+00 -2.199689e+00 2.854348e+00 2.420767e+00 -5.439036e+00 -6.260565e+00 -6.865579e+00 -4.330008e+00 -2.840216e+00 -6.385253e+00 1.712919e+00 -4.990508e+00
<VARIANCE> 12
 6.565940e+01 1.287522e+01 2.641414e+01 3.328145e+01 2.819987e+01 2.453057e+01 6.551523e+01 6.166705e+01 1.452501e+01 4.828119e+01 3.594108e+01 3.395097e+01
<GCONST> 6.407619e+01
<TRANSP> 5
 0.000000e+00 1.000000e+00 0.000000e+00 0.000000e+00 0.000000e+00
 0.000000e+00 4.166667e-01 5.833333e-01 0.000000e+00 0.000000e+00
 0.000000e+00 0.000000e+00 7.341772e-01 2.658228e-01 0.000000e+00
 0.000000e+00 0.000000e+00 0.000000e+00 4.166667e-01 5.833333e-01
 0.000000e+00 0.000000e+00 0.000000e+00 0.000000e+00 0.000000e+00
<ENDHMM>
