~o
<STREAMINFO> 1 12
<VECSIZE> 12<NULLD><MFCC><DIAGC>
~h "Z"
<BEGINHMM>
<NUMSTATES> 5
<STATE> 2
<MEAN> 12
 -1.413216e+01 1.697264e+00 8.399315e+00 3.764188e+00 9.482817e-01 -8.504390e+00 -3.824266e+00 -9.140667e+00 2.953429e+00 -3.009704e+00 -9.727370e-01 -6.658497e-01
<VARIANCE> 12
 2.180495e+01 7.008774e+00 5.763674e+01 1.724241e+01 2.663049e+01 4.092946e+01 2.376831e+01 3.719091e+01 1.669211e+01 1.735925e+01 1.310857e+01 1.027548e+01
<GCONST> 5.833577e+01
<STATE> 3
<MEAN> 12
 -5.273474e+00 2.886376e-01 2.191345e+00 -1.836925e+00 -1.993249e+00 -1.013512e+01 -1.348855e+01 -9.247654e+00 7.525341e-01 -4.018409e+00 1.658041e+00 -1.803323e+00
<VARIANCE> 12
 1.535368e+01 1.298059e+01 1.570319e+01 8.048072e+00 3.346460e+01 2.518348e+01 1.066023e+02 5.721569e+01 4.534003e+01 1.897474e+01 2.740801e+01 1.884959e+01
<GCONST> 6.064587e+01
<STATE> 4
<MEAN> 12
 -2.479282e-01 -2.814931e+00 -1.849071e+00 -5.925569e+00 -6.733591e+00 -5.580355e+00 -1.250948e+01 -4.167127e+00 9.580203e-01 -4.433934e+00 3.614351e+00 -5.920833e+00
<VARIANCE> 12
 1.006091e+01 5.231037e+01 4.224157e+01 3.647474e+01 4.419584e+01 2.562528e+01 5.937252e+01 7.353372e+01 4.724186e+01 1.016700e+02 6.806605e+01 8.501234e+01
<GCONST> 6.821448e+01
<TRANSP> 5
 0.000000e+00 1.000000e+00 0.000000e+00 0.000000e+00 0.000000e+00
 0.000000e+00 8.021978e-01 1.978022e-01 0.000000e+00 0.000000e+00
 0.000000e+00 0.000000e+00 4.193548e-01 5.806451e-01 0.000000e+00
 0.000000e+00 0.000000e+00 0.000000e+00 6.086956e-01 3.913043e-01
 0.000000e+00 0.000000e+00 0.000000e+00 0.000000e+00 0.000000e+00
<ENDHMM>
