~o
<STREAMINFO> 1 12
<VECSIZE> 12<NULLD><MFCC><DIAGC>
~h "z"
<BEGINHMM>
<NUMSTATES> 5
<STATE> 2
<MEAN> 12
 -6.533200e+00 3.774434e+00 5.976591e+00 2.334644e+00 -5.578783e+00 -1.149390e+01 -8.574468e+00 1.190685e+00 -3.797088e+00 -3.110744e+00 -1.264580e-01 -6.974296e+00
<VARIANCE> 12
 3.347456e+01 2.621759e+01 7.057227e+01 3.907259e+01 3.520222e+01 7.585540e+01 4.663788e+01 3.939994e+01 1.338119e+01 4.934212e+01 1.513024e+01 7.027107e+01
<GCONST> 6.562160e+01
<STATE> 3
<MEAN> 12
 -1.473772e+01 1.110110e+01 9.726565e+00 6.937549e+00 -2.905203e+00 -1.228505e+01 -6.591327e+00 -6.450263e+00 -1.420692e+00 -5.886709e+00 -3.120315e+00 9.215069e-01
<VARIANCE> 12
 1.480044e+01 1.921291e+01 4.167554e+01 2.521252e+01 9.584946e+00 1.882860e+01 1.408516e+01 1.553137e+01 1.235030e+01 2.280342e+01 1.196091e+01 1.539615e+01
<GCONST> 5.610192e+01
<STATE> 4
<MEAN> 12
 -8.728074e+00 5.058719e+00 6.156161e+00 7.668103e-01 -1.914795e+00 -7.658250e+00 -7.489588e+00 -3.128052e+00 2.785994e-01 -2.365926e+00 -1.272382e+00 -3.043482e+00
<VARIANCE> 12
 7.847856e+01 3.892884e+01 6.462730e+01 1.743036e+01 2.325381e+01 4.512611e+01 3.900541e+01 1.815465e+01 4.257124e+01 4.448920e+01 2.106373e+01 3.761024e+01
<GCONST> 6.484575e+01
<TRANSP> 5
 0.000000e+00 1.000000e+00 0.000000e+00 0.000000e+00 0.000000e+00
 0.000000e+00 6.170213e-01 3.829787e-01 0.000000e+00 0.000000e+00
 0.000000e+00 0.000000e+00 8.392857e-01 1.607143e-01 0.000000e+00
 0.000000e+00 0.000000e+00 0.000000e+00 4.000000e-01 6.000000e-01
 0.000000e+00 0.000000e+00 0.000000e+00 0.000000e+00 0.000000e+00
<ENDHMM>
