~o
<STREAMINFO> 1 12
<VECSIZE> 12<NULLD><MFCC><DIAGC>
~h "#2"
<BEGINHMM>
<NUMSTATES> 5
<STATE> 2
<MEAN> 12
 -3.375515e+00 -3.300353e+00 7.203394e+00 3.354242e-01 -5.831364e+00 -1.044831e+01 -2.068023e+01 -1.346624e+00 -2.387373e+00 -5.168478e+00 3.913252e+00 -6.672166e+00
<VARIANCE> 12
 6.577851e+00 5.527740e+00 4.171646e+01 1.959159e+01 8.381906e+00 2.303039e+01 4.952185e+01 1.540881e+01 2.138041e+01 1.347900e+01 1.725863e+01 1.884109e+01
<GCONST> 5.570221e+01
<STATE> 3
<MEAN> 12
 -1.043628e+00 6.757833e+00 8.256227e+00 3.455972e+00 -1.405591e+00 -7.387028e+00 -1.183061e+01 1.516682e+00 2.138184e+00 -1.973159e+00 2.834038e+00 -6.507836e+00
<VARIANCE> 12
 1.277528e+01 3.211074e+01 1.503198e+01 9.712381e+00 1.106154e+01 2.779582e+01 2.258969e+01 1.052686e+01 1.137777e+01 1.481760e+01 9.271724e+00 1.464052e+01
<GCONST> 5.429284e+01
<STATE> 4
<MEAN> 12
 -5.931756e+00 1.043928e+00 6.000355e+00 1.041133e+00 -4.389810e+00 -8.399960e+00 -1.021394e+01 -1.722870e+00 -9.537905e-01 -1.987156e+00 5.331205e+00 -8.587261e-01
<VARIANCE> 12
 1.737402e+01 1.630141e+01 1.908913e+01 9.954195e+00 1.843369e+01 6.118188e+01 5.878651e+01 4.659990e+01 2.117558e+01 2.259273e+01 2.381004e+01 4.011456e+01
<GCONST> 6.092374e+01
<TRANSP> 5
 0.000000e+00 1.000000e+00 0.000000e+00 0.000000e+00 0.000000e+00
 0.000000e+00 4.437513e-01 5.562487e-01 0.000000e+00 0.000000e+00
 0.000000e+00 0.000000e+00 5.614879e-01 4.385121e-01 0.000000e+00
 0.000000e+00 0.000000e+00 0.000000e+00 2.966660e-01 7.033340e-01
 0.000000e+00 0.000000e+00 0.000000e+00 0.000000e+00 0.000000e+00
<ENDHMM>
