~o
<STREAMINFO> 1 12
<VECSIZE> 12<NULLD><MFCC><DIAGC>
~h "#9"
<BEGINHMM>
<NUMSTATES> 5
<STATE> 2
<MEAN> 12
 -1.845406e+00 -3.884992e+00 -2.534840e+00 -1.137779e+00 -7.187494e+00 -8.328439e+00 -1.913907e+01 7.320478e-01 -1.154465e+00 -4.509288e-01 5.652601e+00 -8.310788e+00
<VARIANCE> 12
 2.748008e+01 2.699732e+01 3.383101e+00 2.241513e+01 2.614578e+01 2.460305e+01 4.879421e+01 1.263523e+02 1.166846e+01 2.803473e+01 5.186665e+01 3.301956e+01
<GCONST> 6.142161e+01
<STATE> 3
<MEAN> 12
 -4.625484e-01 -7.528598e-01 -2.304338e+00 -4.093632e+00 -2.325071e+00 -1.184212e+01 -1.619369e+01 4.820588e+00 -6.338953e+00 9.119370e+00 6.662542e+00 -6.761435e+00
<VARIANCE> 12
 3.110866e+01 2.403382e+01 1.058581e+01 2.800476e+01 7.824566e+00 2.002417e+01 2.781417e+01 4.226271e+01 3.412853e+01 3.984150e+01 2.468679e+01 2.447892e+01
<GCONST> 6.010614e+01
<STATE> 4
<MEAN> 12
 -8.374371e+00 2.115199e+00 -2.256253e+00 -3.473603e+00 3.031138e-01 -2.931117e+00 -6.275564e+00 1.030316e+00 -2.195633e+00 4.316256e+00 3.939046e+00 -4.343950e+00
<VARIANCE> 12
 5.490603e+01 5.206605e+01 2.015143e+01 6.536598e+01 2.817382e+01 1.426643e+01 5.525993e+01 3.532255e+01 5.080998e+01 1.899193e+01 3.735166e+01 1.494478e+01
<GCONST> 6.396566e+01
<TRANSP> 5
 0.000000e+00 1.000000e+00 0.000000e+00 0.000000e+00 0.000000e+00
 0.000000e+00 5.544133e-01 4.455867e-01 0.000000e+00 0.000000e+00
 0.000000e+00 0.000000e+00 6.547670e-01 3.452329e-01 0.000000e+00
 0.000000e+00 0.000000e+00 0.000000e+00 3.010031e-01 6.989970e-01
 0.000000e+00 0.000000e+00 0.000000e+00 0.000000e+00 0.000000e+00
<ENDHMM>
