~o
<STREAMINFO> 1 12
<VECSIZE> 12<NULLD><MFCC><DIAGC>
~h "@"
<BEGINHMM>
<NUMSTATES> 5
<STATE> 2
<MEAN> 12
 -5.374232e+00 -2.396142e+00 1.657834e+00 -1.022444e+00 -5.416399e+00 -6.416033e+00 -1.073588e+01 -1.031488e+00 -3.173552e+00 -2.790769e+00 3.460816e+00 -5.174286e+00
<VARIANCE> 12
 5.179855e+01 2.417929e+01 2.777524e+01 3.505164e+01 3.386235e+01 4.906884e+01 9.463622e+01 5.554272e+01 3.166061e+01 4.244479e+01 5.170166e+01 2.823208e+01
<GCONST> 6.654031e+01
<STATE> 3
<MEAN> 12
 -3.113302e+00 -3.126532e+00 5.173979e+00 4.685106e-01 -4.841033e+00 -9.330744e+00 -1.839458e+01 -2.644218e+00 -1.560017e+00 -6.385356e+00 5.811695e+00 -5.905910e+00
<VARIANCE> 12
 1.636270e+01 1.772181e+01 2.167940e+01 1.642421e+01 1.510513e+01 4.085233e+01 8.736961e+01 2.939029e+01 2.693678e+01 4.220307e+01 3.244479e+01 3.709405e+01
<GCONST> 6.200423e+01
<STATE> 4
<MEAN> 12
 -4.828160e+00 5.093242e-01 2.922612e+00 4.819301e-01 -1.558248e+00 -5.158875e+00 -9.665105e+00 -2.370575e+00 -2.698846e+00 -2.883553e+00 1.759093e+00 -4.294942e+00
<VARIANCE> 12
 4.024784e+01 2.413552e+01 2.377844e+01 2.258270e+01 2.620507e+01 5.320798e+01 9.094817e+01 4.737452e+01 2.609534e+01 3.997908e+01 4.672861e+01 2.739523e+01
<GCONST> 6.493260e+01
<TRANSP> 5
 0.000000e+00 1.000000e+00 0.000000e+00 0.000000e+00 0.000000e+00
 0.000000e+00 2.516457e-01 7.483543e-01 0.000000e+00 0.000000e+00
 0.000000e+00 0.000000e+00 5.356283e-01 4.643717e-01 0.000000e+00
 0.000000e+00 0.000000e+00 0.000000e+00 2.236411e-01 7.763590e-01
 0.000000e+00 0.000000e+00 0.000000e+00 0.000000e+00 0.000000e+00
<ENDHMM>
