~o
<STREAMINFO> 1 12
<VECSIZE> 12<NULLD><MFCC><DIAGC>
~h "a"
<BEGINHMM>
<NUMSTATES> 5
<STATE> 2
<MEAN> 12
 -5.864483e-01 -8.528444e+00 -4.482910e+00 -9.638854e+00 -5.382979e+00 -8.088296e+00 -1.373130e+01 8.885837e+00 7.598928e-01 1.004253e+00 6.407336e+00 -1.386564e+01
<VARIANCE> 12
 9.372783e+00 1.572068e+01 2.858344e+01 2.638084e+01 2.694222e+01 4.221606e+01 3.386135e+01 4.507730e+01 4.259489e+01 3.269446e+01 6.150718e+01 3.575117e+01
<GCONST> 6.297460e+01
<STATE> 3
<MEAN> 12
 8.337961e-02 -7.131256e+00 -5.806276e+00 -1.252024e+01 -1.977965e+00 -2.298937e+00 -7.789131e+00 3.959485e+00 -3.755236e+00 1.124816e+00 3.949731e+00 -1.143690e+01
<VARIANCE> 12
 9.898252e+00 2.832380e+01 2.710748e+01 3.575880e+01 5.734649e+01 6.106925e+01 3.959716e+01 4.956734e+01 5.635986e+01 3.694923e+01 3.760620e+01 4.003744e+01
<GCONST> 6.526868e+01
<STATE> 4
<MEAN> 12
 -4.315369e+00 -2.471148e+00 7.227931e-01 -3.027749e+00 -3.848809e+00 -8.709524e+00 -7.392786e+00 2.240258e+00 -1.410409e+00 1.695056e+00 -3.968949e-01 -6.502131e+00
<VARIANCE> 12
 3.005450e+01 3.522783e+01 3.217582e+01 3.020885e+01 3.773384e+01 5.032964e+01 6.164766e+01 9.398547e+01 4.686631e+01 3.033305e+01 4.068372e+01 2.693930e+01
<GCONST> 6.637141e+01
<TRANSP> 5
 0.000000e+00 1.000000e+00 0.000000e+00 0.000000e+00 0.000000e+00
 0.000000e+00 7.023354e-01 2.976646e-01 0.000000e+00 0.000000e+00
 0.000000e+00 0.000000e+00 7.304281e-01 2.695719e-01 0.000000e+00
 0.000000e+00 0.000000e+00 0.000000e+00 6.059112e-01 3.940888e-01
 0.000000e+00 0.000000e+00 0.000000e+00 0.000000e+00 0.000000e+00
<ENDHMM>
