~o
<STREAMINFO> 1 12
<VECSIZE> 12<NULLD><MFCC><DIAGC>
~h "a#"
<BEGINHMM>
<NUMSTATES> 5
<STATE> 2
<MEAN> 12
 1.800266e+00 -5.231484e+00 -1.976758e+00 -1.414825e+01 -7.075747e+00 7.460155e-01 -6.768023e+00 2.095319e+00 -4.320303e+00 -5.493471e+00 1.001282e+01 -9.466520e+00
<VARIANCE> 12
 2.073917e+01 2.973915e+01 3.060130e+01 5.817789e+01 3.875837e+01 4.952652e+01 7.914861e+01 3.631828e+01 2.326826e+01 7.077935e+01 5.397968e+01 2.789205e+01
<GCONST> 6.621067e+01
<STATE> 3
<MEAN> 12
 3.652021e+00 -5.071082e+00 -3.552125e+00 -1.602874e+01 -8.181418e+00 -3.145190e+00 -1.070132e+00 4.020137e+00 -1.119818e+01 -3.488536e+00 9.463904e+00 -1.419686e+01
<VARIANCE> 12
 9.627224e+00 1.604225e+01 1.622927e+01 3.530450e+01 2.900903e+01 1.939019e+01 2.020770e+01 3.297545e+01 2.753894e+01 3.122422e+01 4.110030e+01 3.471431e+01
<GCONST> 6.029933e+01
<STATE> 4
<MEAN> 12
 -2.530977e+00 1.451941e+00 1.005038e+00 -4.416864e+00 -5.225829e+00 -4.551601e+00 -7.430819e-02 -5.314693e+00 -7.074214e+00 7.585410e-01 9.605289e-02 -7.764577e+00
<VARIANCE> 12
 4.943940e+01 3.376241e+01 5.114336e+01 6.310456e+01 3.807519e+01 2.510502e+01 2.963253e+01 6.176734e+01 6.996429e+01 2.934371e+01 2.694763e+01 5.154284e+01
<GCONST> 6.679230e+01
<TRANSP> 5
 0.000000e+00 1.000000e+00 0.000000e+00 0.000000e+00 0.000000e+00
 0.000000e+00 7.168558e-01 2.831443e-01 0.000000e+00 0.000000e+00
 0.000000e+00 0.000000e+00 8.038020e-01 1.961980e-01 0.000000e+00
 0.000000e+00 0.000000e+00 0.000000e+00 7.370325e-01 2.629676e-01
 0.000000e+00 0.000000e+00 0.000000e+00 0.000000e+00 0.000000e+00
<ENDHMM>
