~o
<STREAMINFO> 1 12
<VECSIZE> 12<NULLD><MFCC><DIAGC>
~h "b"
<BEGINHMM>
<NUMSTATES> 5
<STATE> 2
<MEAN> 12
 5.362231e+00 1.766722e+00 6.276198e+00 4.871344e+00 1.609985e+00 -1.539348e-01 -1.385143e+01 -3.628181e+00 -9.330683e-01 -6.169178e+00 4.080637e+00 -3.942003e+00
<VARIANCE> 12
 2.394281e+01 3.340207e+01 1.408106e+01 2.909189e+01 1.628450e+01 2.215181e+01 5.204438e+01 9.721029e+00 2.532414e+01 2.783765e+01 1.017479e+01 1.342513e+01
<GCONST> 5.834381e+01
<STATE> 3
<MEAN> 12
 5.026193e+00 4.468658e+00 4.373122e+00 1.639285e+00 1.321978e+00 -1.710366e+00 -8.309277e+00 -4.048337e+00 -5.356790e+00 -8.497982e+00 1.693336e+00 -2.226772e+00
<VARIANCE> 12
 3.772620e+01 1.654031e+01 9.949648e+00 1.758838e+01 2.030690e+01 2.263968e+01 4.137328e+01 4.019665e+01 4.027932e+01 5.819703e+01 2.734506e+01 3.923358e+01
<GCONST> 6.194028e+01
<STATE> 4
<MEAN> 12
 -1.620464e+00 -5.013276e-01 1.009425e+00 -4.864913e+00 -2.371185e+00 -5.125893e-02 -1.073176e+01 -2.151633e+00 -2.467845e+00 -6.646753e+00 5.736818e+00 -2.164044e+00
<VARIANCE> 12
 6.478642e+01 2.936391e+01 5.903607e+00 4.823911e+01 3.731198e+01 2.153246e+01 6.509998e+01 1.607266e+01 3.843793e+01 6.757008e+01 5.122458e+01 8.039009e+01
<GCONST> 6.508437e+01
<TRANSP> 5
 0.000000e+00 1.000000e+00 0.000000e+00 0.000000e+00 0.000000e+00
 0.000000e+00 5.872996e-01 4.127004e-01 0.000000e+00 0.000000e+00
 0.000000e+00 0.000000e+00 5.075592e-01 4.924407e-01 0.000000e+00
 0.000000e+00 0.000000e+00 0.000000e+00 2.206220e-01 7.793781e-01
 0.000000e+00 0.000000e+00 0.000000e+00 0.000000e+00 0.000000e+00
<ENDHMM>
