~o
<STREAMINFO> 1 12
<VECSIZE> 12<NULLD><MFCC><DIAGC>
~h "d"
<BEGINHMM>
<NUMSTATES> 5
<STATE> 2
<MEAN> 12
 -8.679951e-01 4.772840e+00 8.426231e+00 1.472207e+00 -2.488045e+00 -7.375571e+00 -7.933254e+00 -2.039870e+00 -1.853487e+00 -3.699415e+00 -1.983488e+00 -8.599442e+00
<VARIANCE> 12
 4.175462e+01 2.344797e+01 3.141410e+01 1.583239e+01 3.283593e+01 4.096995e+01 3.368738e+01 3.853959e+01 2.034562e+01 2.554161e+01 2.396985e+01 2.510562e+01
<GCONST> 6.217667e+01
<STATE> 3
<MEAN> 12
 -1.006164e+01 7.491134e-01 6.830088e+00 -9.118668e-02 -2.010021e+00 -4.550941e+00 -6.635847e+00 -4.428452e+00 -1.951568e+00 -4.100998e+00 -3.456633e+00 -4.374134e+00
<VARIANCE> 12
 7.542921e+01 2.091751e+01 3.557724e+01 2.894476e+01 2.809422e+01 4.417537e+01 3.920342e+01 3.057788e+01 1.907831e+01 3.829675e+01 2.937621e+01 1.981668e+01
<GCONST> 6.352880e+01
<STATE> 4
<MEAN> 12
 -6.664495e+00 1.807291e-02 5.936853e+00 5.434861e-01 -4.348331e+00 -1.040671e+01 -1.282820e+01 -3.696657e+00 -1.231617e+00 -6.681776e+00 -9.696017e-02 -5.092690e+00
<VARIANCE> 12
 2.594407e+01 2.554054e+01 5.769268e+01 2.589302e+01 3.361190e+01 4.049856e+01 3.724133e+01 3.167299e+01 3.248341e+01 4.641006e+01 4.141957e+01 3.709385e+01
<GCONST> 6.480432e+01
<TRANSP> 5
 0.000000e+00 1.000000e+00 0.000000e+00 0.000000e+00 0.000000e+00
 0.000000e+00 5.529734e-01 4.470266e-01 0.000000e+00 0.000000e+00
 0.000000e+00 0.000000e+00 3.533957e-01 6.466043e-01 0.000000e+00
 0.000000e+00 0.000000e+00 0.000000e+00 3.376550e-01 6.623450e-01
 0.000000e+00 0.000000e+00 0.000000e+00 0.000000e+00 0.000000e+00
<ENDHMM>
