~o
<STREAMINFO> 1 12
<VECSIZE> 12<NULLD><MFCC><DIAGC>
~h "e"
<BEGINHMM>
<NUMSTATES> 5
<STATE> 2
<MEAN> 12
 -5.518356e+00 -2.723424e+00 5.451639e+00 -3.969007e+00 -6.926851e+00 -4.360634e+00 -1.183150e+01 -2.765843e+00 -3.182615e+00 -6.917544e+00 5.382661e+00 -6.330863e+00
<VARIANCE> 12
 7.076938e+01 2.955668e+01 5.073723e+01 1.017166e+02 4.215883e+01 1.012350e+02 7.836707e+01 7.325580e+01 4.445842e+01 7.697948e+01 3.823681e+01 6.604702e+01
<GCONST> 7.123563e+01
<STATE> 3
<MEAN> 12
 -4.168858e+00 -4.063953e+00 1.326518e+01 3.928307e-01 -1.548521e+01 -1.299231e+01 -1.704545e+01 4.619442e+00 -7.444807e+00 -8.154733e+00 6.087010e+00 -2.805813e+00
<VARIANCE> 12
 8.490716e+00 1.481845e+01 3.424084e+01 2.263966e+01 4.019042e+01 3.276385e+01 4.307590e+01 2.234540e+01 4.295368e+01 3.684650e+01 1.954045e+01 1.982583e+01
<GCONST> 6.092139e+01
<STATE> 4
<MEAN> 12
 -5.251464e+00 -3.127039e-01 7.598137e+00 3.577695e-01 -1.134666e+01 -1.286837e+01 -8.850335e+00 -1.017692e+00 -6.478096e+00 -4.760452e+00 1.948722e+00 -8.663233e-01
<VARIANCE> 12
 3.209654e+01 4.452485e+01 3.633655e+01 3.354818e+01 5.355928e+01 8.523046e+01 5.392056e+01 3.545126e+01 5.963348e+01 4.734351e+01 3.460838e+01 4.205728e+01
<GCONST> 6.763571e+01
<TRANSP> 5
 0.000000e+00 1.000000e+00 0.000000e+00 0.000000e+00 0.000000e+00
 0.000000e+00 7.330139e-01 2.669861e-01 0.000000e+00 0.000000e+00
 0.000000e+00 0.000000e+00 7.792935e-01 2.207065e-01 0.000000e+00
 0.000000e+00 0.000000e+00 0.000000e+00 7.174163e-01 2.825837e-01
 0.000000e+00 0.000000e+00 0.000000e+00 0.000000e+00 0.000000e+00
<ENDHMM>
