~o
<STREAMINFO> 1 12
<VECSIZE> 12<NULLD><MFCC><DIAGC>
~h "E"
<BEGINHMM>
<NUMSTATES> 5
<STATE> 2
<MEAN> 12
 -3.871081e+00 -5.473037e+00 3.245123e+00 -3.132136e+00 -1.105234e+01 -1.485868e+01 -1.360711e+01 5.697251e+00 -7.336401e-01 -2.690990e+00 3.783338e+00 -4.673117e+00
<VARIANCE> 12
 9.936974e+00 2.542968e+01 2.285014e+01 1.729422e+01 2.685547e+01 3.677060e+01 4.016260e+01 4.684706e+01 1.922752e+01 2.769699e+01 2.473073e+01 4.471375e+01
<GCONST> 6.128702e+01
<STATE> 3
<MEAN> 12
 -2.930514e+00 -3.950919e+00 1.010240e+01 4.231513e-01 -1.340283e+01 -1.168618e+01 -1.409097e+01 5.850432e+00 -6.308867e+00 -5.963357e+00 5.692928e+00 -4.017447e+00
<VARIANCE> 12
 1.265491e+01 2.146691e+01 3.986219e+01 2.419969e+01 6.652470e+01 4.786690e+01 5.282520e+01 4.376595e+01 2.441342e+01 4.080285e+01 3.602364e+01 2.411567e+01
<GCONST> 6.401362e+01
<STATE> 4
<MEAN> 12
 -6.856356e+00 -3.931254e-01 3.953552e+00 2.100682e+00 -2.194507e+00 -5.481728e+00 -4.854489e+00 1.223904e+00 -2.399177e+00 -1.321468e+00 1.494714e+00 -4.519879e+00
<VARIANCE> 12
 7.351256e+01 3.243177e+01 4.487592e+01 3.648359e+01 4.359805e+01 8.773236e+01 8.052452e+01 4.655722e+01 7.110088e+01 3.228334e+01 2.509642e+01 4.792219e+01
<GCONST> 6.854138e+01
<TRANSP> 5
 0.000000e+00 1.000000e+00 0.000000e+00 0.000000e+00 0.000000e+00
 0.000000e+00 7.455522e-01 2.544478e-01 0.000000e+00 0.000000e+00
 0.000000e+00 0.000000e+00 6.218237e-01 3.781763e-01 0.000000e+00
 0.000000e+00 0.000000e+00 0.000000e+00 4.830513e-01 5.169488e-01
 0.000000e+00 0.000000e+00 0.000000e+00 0.000000e+00 0.000000e+00
<ENDHMM>
