~o
<STREAMINFO> 1 12
<VECSIZE> 12<NULLD><MFCC><DIAGC>
~h "e#"
<BEGINHMM>
<NUMSTATES> 5
<STATE> 2
<MEAN> 12
 -1.154956e+00 -7.688068e+00 -5.066841e+00 -7.060272e+00 -4.041402e+00 -6.558666e+00 -1.251811e+01 8.056959e+00 -2.139508e+00 -1.182292e+00 8.467478e+00 -1.792471e+01
<VARIANCE> 12
 1.326800e+01 1.189580e+01 1.413069e+01 1.292337e+01 1.214097e+01 2.573363e+01 2.307479e+01 4.957760e+01 3.568012e+01 1.950812e+01 4.113823e+01 3.983961e+01
<GCONST> 5.905733e+01
<STATE> 3
<MEAN> 12
 -5.576063e-01 -7.512330e+00 -3.797097e+00 -5.191720e+00 -6.318978e+00 -1.027705e+01 -1.030585e+01 5.757265e+00 -5.845113e+00 -1.598215e-01 -3.937511e-01 -1.269228e+01
<VARIANCE> 12
 1.899784e+01 2.673328e+01 4.852556e+01 1.313351e+01 1.916739e+01 2.956474e+01 5.163593e+01 6.408979e+01 4.417050e+01 2.210140e+01 3.119419e+01 2.020550e+01
<GCONST> 6.251620e+01
<STATE> 4
<MEAN> 12
 -1.554587e+00 -8.738438e-01 3.080174e+00 1.723341e+00 -6.390281e+00 -6.988284e+00 -2.427233e+00 -3.240371e+00 -3.666524e+00 -1.350330e+00 6.303561e-01 -1.132635e+01
<VARIANCE> 12
 4.490578e+01 3.854043e+01 3.632969e+01 2.116262e+01 5.355245e+01 4.753427e+01 4.115061e+01 5.811892e+01 4.372893e+01 3.907808e+01 7.374876e+01 5.304932e+01
<GCONST> 6.749297e+01
<TRANSP> 5
 0.000000e+00 1.000000e+00 0.000000e+00 0.000000e+00 0.000000e+00
 0.000000e+00 7.960362e-01 2.039638e-01 0.000000e+00 0.000000e+00
 0.000000e+00 0.000000e+00 6.872414e-01 3.127587e-01 0.000000e+00
 0.000000e+00 0.000000e+00 0.000000e+00 5.522016e-01 4.477983e-01
 0.000000e+00 0.000000e+00 0.000000e+00 0.000000e+00 0.000000e+00
<ENDHMM>
