~o
<STREAMINFO> 1 12
<VECSIZE> 12<NULLD><MFCC><DIAGC>
~h "f"
<BEGINHMM>
<NUMSTATES> 5
<STATE> 2
<MEAN> 12
 -1.245919e+01 -8.196267e-01 1.211682e+00 2.028146e+00 1.563716e+00 5.451149e-01 8.904519e-01 1.290455e+00 2.859493e+00 1.546541e+00 2.574373e-01 -6.355346e-01
<VARIANCE> 12
 3.254760e+01 3.224383e+01 1.196304e+01 6.796183e+00 3.655125e+01 2.226407e+01 5.277821e+01 2.826191e+01 2.309340e+01 2.475373e+01 2.043595e+01 1.711177e+01
<GCONST> 5.962363e+01
<STATE> 3
<MEAN> 12
 -2.089983e+01 -9.350522e+00 -4.043203e+00 -5.610245e-01 -2.208195e+00 -5.812625e-01 -1.013561e+00 1.836049e+00 3.481778e+00 3.136646e+00 3.108414e+00 1.439431e+00
<VARIANCE> 12
 1.383976e+01 1.022374e+01 2.209029e+01 1.139676e+01 1.683541e+01 2.081050e+01 2.338516e+01 2.339928e+01 1.806801e+01 2.271614e+01 1.959696e+01 1.496341e+01
<GCONST> 5.639721e+01
<STATE> 4
<MEAN> 12
 -1.022188e+01 -1.276497e+00 2.043119e-01 -1.793554e+00 -3.052381e+00 -2.906111e+00 -3.890369e+00 -1.939621e+00 -1.399767e+00 -3.480722e+00 1.059408e+00 -2.020404e+00
<VARIANCE> 12
 6.417361e+01 2.168741e+01 3.672137e+01 3.547874e+01 2.795176e+01 3.559933e+01 2.843109e+01 4.596867e+01 4.301653e+01 3.071527e+01 3.008370e+01 1.773577e+01
<GCONST> 6.400930e+01
<TRANSP> 5
 0.000000e+00 1.000000e+00 0.000000e+00 0.000000e+00 0.000000e+00
 0.000000e+00 5.255216e-01 4.744785e-01 0.000000e+00 0.000000e+00
 0.000000e+00 0.000000e+00 8.072688e-01 1.927312e-01 0.000000e+00
 0.000000e+00 0.000000e+00 0.000000e+00 4.732138e-01 5.267862e-01
 0.000000e+00 0.000000e+00 0.000000e+00 0.000000e+00 0.000000e+00
<ENDHMM>
