~o
<STREAMINFO> 1 12
<VECSIZE> 12<NULLD><MFCC><DIAGC>
~h "g"
<BEGINHMM>
<NUMSTATES> 5
<STATE> 2
<MEAN> 12
 -3.682197e+00 -5.401428e-01 1.107533e+01 4.514991e+00 -8.614244e+00 -1.420141e+01 -7.883302e+00 1.679935e+00 -5.754705e+00 -6.362806e+00 3.986731e+00 -1.638533e+00
<VARIANCE> 12
 2.161654e+01 1.939051e+01 3.266402e+01 3.086061e+00 1.106620e+01 5.826602e+00 6.399034e+01 3.471367e+01 2.017568e+01 1.497570e+01 1.172432e+01 2.064710e+01
<GCONST> 5.577829e+01
<STATE> 3
<MEAN> 12
 -3.371209e+00 -3.073221e+00 1.339241e+01 5.112967e+00 -1.200827e+01 -1.365371e+01 -8.945088e+00 -4.257508e-01 -5.451882e+00 -8.421768e+00 1.795380e+00 2.343511e-01
<VARIANCE> 12
 3.449251e+01 7.159043e+00 9.463984e+00 9.576917e-01 8.544388e+00 1.829378e+01 9.063057e+00 4.143165e+01 8.913854e-01 2.051622e-01 3.125683e+00 2.765234e+01
<GCONST> 4.350842e+01
<STATE> 4
<MEAN> 12
 -2.023426e+00 -1.450970e+00 1.239179e+01 2.419804e+00 -1.052856e+01 -1.568853e+01 -9.407245e+00 -3.481387e+00 -5.800220e+00 -5.894058e+00 2.451317e+00 -3.868228e+00
<VARIANCE> 12
 3.711718e+01 2.290935e+01 4.315920e+01 1.195728e+01 5.556269e+00 4.819827e+01 5.114240e+01 6.050338e+01 7.438512e+00 1.745226e+01 2.489996e+01 7.269037e+01
<GCONST> 6.104117e+01
<TRANSP> 5
 0.000000e+00 1.000000e+00 0.000000e+00 0.000000e+00 0.000000e+00
 0.000000e+00 5.000000e-01 5.000000e-01 0.000000e+00 0.000000e+00
 0.000000e+00 0.000000e+00 0.000000e+00 1.000000e+00 0.000000e+00
 0.000000e+00 0.000000e+00 0.000000e+00 0.000000e+00 1.000000e+00
 0.000000e+00 0.000000e+00 0.000000e+00 0.000000e+00 0.000000e+00
<ENDHMM>
