~o
<STREAMINFO> 1 12
<VECSIZE> 12<NULLD><MFCC><DIAGC>
~h "H"
<BEGINHMM>
<NUMSTATES> 5
<STATE> 2
<MEAN> 12
 -7.282584e+00 -5.771683e-01 4.678352e+00 1.743513e+00 -2.341727e+00 -5.649551e+00 -1.101361e+01 -4.698983e+00 2.302142e+00 -4.179051e+00 2.715096e-01 -3.609159e+00
<VARIANCE> 12
 5.982082e+01 5.445014e+01 6.994668e+01 2.366962e+01 4.539439e+01 3.168917e+01 4.401974e+01 3.587445e+01 2.838150e+01 7.350578e+01 6.353664e+01 2.650231e+01
<GCONST> 6.726306e+01
<STATE> 3
<MEAN> 12
 -8.215383e+00 -2.653353e+00 8.774456e+00 3.714846e+00 -4.583922e+00 -7.354690e+00 -1.061164e+01 -1.836525e+00 -1.410844e+00 -5.882576e+00 -7.722066e-01 -2.133984e+00
<VARIANCE> 12
 3.437459e+01 2.506989e+01 9.796021e+01 2.353117e+01 5.361697e+01 2.189577e+01 3.828119e+01 3.245170e+01 2.390606e+01 5.045182e+01 1.964629e+01 8.341904e+00
<GCONST> 6.294360e+01
<STATE> 4
<MEAN> 12
 -6.000998e+00 -3.873192e+00 1.063440e+01 4.615447e+00 -5.763843e+00 -1.014841e+01 -1.307940e+01 -1.886707e+00 -3.606349e+00 -9.185822e+00 -1.115809e+00 -9.708088e-01
<VARIANCE> 12
 2.206229e+01 1.703073e+01 7.385736e+01 1.998307e+01 3.289376e+01 3.286689e+01 4.065307e+01 2.396029e+01 1.853340e+01 4.205335e+01 1.230662e+01 1.502429e+01
<GCONST> 6.102597e+01
<TRANSP> 5
 0.000000e+00 1.000000e+00 0.000000e+00 0.000000e+00 0.000000e+00
 0.000000e+00 2.720291e-01 7.279709e-01 0.000000e+00 0.000000e+00
 0.000000e+00 0.000000e+00 1.374269e-01 8.625731e-01 0.000000e+00
 0.000000e+00 0.000000e+00 0.000000e+00 3.183352e-01 6.816648e-01
 0.000000e+00 0.000000e+00 0.000000e+00 0.000000e+00 0.000000e+00
<ENDHMM>
