~o
<STREAMINFO> 1 12
<VECSIZE> 12<NULLD><MFCC><DIAGC>
~h "i"
<BEGINHMM>
<NUMSTATES> 5
<STATE> 2
<MEAN> 12
 -1.062545e+01 3.370368e+00 1.388923e+01 3.011251e+00 -6.289981e+00 -1.225974e+01 -1.184276e+01 -4.468713e+00 -1.545552e+00 -1.157374e+01 -1.557111e+00 1.070559e+00
<VARIANCE> 12
 2.336500e+01 2.927626e+01 3.355033e+01 2.164156e+01 1.513678e+01 3.032817e+01 3.113146e+01 2.703910e+01 2.641543e+01 3.241150e+01 1.972648e+01 2.669940e+01
<GCONST> 6.105397e+01
<STATE> 3
<MEAN> 12
 -7.876220e+00 -2.462570e-01 1.787226e+01 1.185818e+00 -1.045088e+01 -1.014288e+01 -1.790619e+01 -1.830279e+00 -4.869483e+00 -1.633087e+01 1.221722e+00 -3.446668e-01
<VARIANCE> 12
 1.177677e+01 1.965571e+01 2.461248e+01 2.339110e+01 2.572762e+01 2.842310e+01 3.007062e+01 2.577915e+01 2.864779e+01 3.483068e+01 2.239627e+01 2.021730e+01
<GCONST> 6.012352e+01
<STATE> 4
<MEAN> 12
 -6.231545e+00 2.047493e+00 1.077761e+01 2.323253e+00 -7.756049e+00 -9.458588e+00 -9.315815e+00 -1.057186e+00 -3.167766e+00 -9.439678e+00 1.260651e+00 -2.438396e+00
<VARIANCE> 12
 4.154672e+01 4.155784e+01 4.805027e+01 3.251621e+01 4.299180e+01 5.866729e+01 6.809877e+01 5.884863e+01 3.710091e+01 4.629261e+01 2.849352e+01 2.682255e+01
<GCONST> 6.707878e+01
<TRANSP> 5
 0.000000e+00 1.000000e+00 0.000000e+00 0.000000e+00 0.000000e+00
 0.000000e+00 5.504819e-01 4.495181e-01 0.000000e+00 0.000000e+00
 0.000000e+00 0.000000e+00 8.036273e-01 1.963726e-01 0.000000e+00
 0.000000e+00 0.000000e+00 0.000000e+00 3.296836e-01 6.703164e-01
 0.000000e+00 0.000000e+00 0.000000e+00 0.000000e+00 0.000000e+00
<ENDHMM>
