~o
<STREAMINFO> 1 12
<VECSIZE> 12<NULLD><MFCC><DIAGC>
~h "j"
<BEGINHMM>
<NUMSTATES> 5
<STATE> 2
<MEAN> 12
 -8.759410e+00 -4.091242e-01 6.909742e+00 -2.469465e+00 -4.058154e+00 -5.163827e+00 -1.366468e+01 -5.889344e+00 -5.783362e+00 -1.042867e+01 2.249506e+00 1.245224e+00
<VARIANCE> 12
 5.327578e+01 1.328087e+01 3.778835e+01 3.154865e+01 3.680637e+01 4.094439e+01 5.856646e+01 4.267935e+01 4.182016e+01 6.544669e+01 3.499072e+01 4.044010e+01
<GCONST> 6.601115e+01
<STATE> 3
<MEAN> 12
 -1.322569e+01 -1.376701e+00 5.083937e+00 -2.824150e-01 -1.053908e+00 -2.935684e+00 -5.606202e+00 -1.603408e+00 -4.020743e+00 -5.284024e+00 3.886601e-01 -2.808447e+00
<VARIANCE> 12
 2.510813e+01 3.299946e+01 6.492994e+01 1.237148e+01 6.104064e+01 4.622731e+01 7.783614e+01 2.995226e+01 1.976332e+01 3.055878e+01 2.450883e+01 1.911694e+01
<GCONST> 6.371532e+01
<STATE> 4
<MEAN> 12
 -4.710518e+00 -3.956385e+00 1.344456e+01 -1.947696e+00 -1.306306e+01 -7.554700e+00 -2.071203e+01 4.523325e+00 -5.069067e+00 -1.124548e+01 7.455262e+00 -3.529495e+00
<VARIANCE> 12
 1.749232e+01 2.127773e+01 8.321838e+01 2.429255e+01 4.941637e+01 3.819915e+01 4.221049e+01 4.027821e+01 2.748983e+01 4.139073e+01 1.987227e+01 2.465058e+01
<GCONST> 6.379816e+01
<TRANSP> 5
 0.000000e+00 1.000000e+00 0.000000e+00 0.000000e+00 0.000000e+00
 0.000000e+00 6.820595e-01 3.179405e-01 0.000000e+00 0.000000e+00
 0.000000e+00 0.000000e+00 6.917349e-01 3.082651e-01 0.000000e+00
 0.000000e+00 0.000000e+00 0.000000e+00 7.977418e-01 2.022582e-01
 0.000000e+00 0.000000e+00 0.000000e+00 0.000000e+00 0.000000e+00
<ENDHMM>
