~o
<STREAMINFO> 1 12
<VECSIZE> 12<NULLD><MFCC><DIAGC>
~h "k"
<BEGINHMM>
<NUMSTATES> 5
<STATE> 2
<MEAN> 12
 -7.342763e+00 1.922561e+00 3.992365e+00 1.330806e+00 -1.093800e+00 -6.085371e+00 -5.034371e+00 1.423715e+00 -2.893085e+00 -2.023820e+00 1.688738e+00 -2.432178e+00
<VARIANCE> 12
 4.429577e+01 2.631604e+01 2.955743e+01 3.271161e+01 3.246223e+01 5.981358e+01 5.130363e+01 6.170853e+01 4.271531e+01 4.751322e+01 3.239892e+01 2.535305e+01
<GCONST> 6.594774e+01
<STATE> 3
<MEAN> 12
 -1.494328e+01 -4.478317e+00 -1.106180e+00 -4.620484e+00 -3.093988e+00 -3.227447e+00 -3.061422e+00 1.327897e+00 -4.455994e-01 3.321464e-01 2.081796e+00 -7.359263e-01
<VARIANCE> 12
 4.932821e+01 4.507230e+01 4.879497e+01 3.774701e+01 3.300414e+01 3.886034e+01 4.064787e+01 4.051327e+01 4.223086e+01 2.394498e+01 1.842449e+01 1.906431e+01
<GCONST> 6.462341e+01
<STATE> 4
<MEAN> 12
 -8.139019e+00 -2.263623e+00 -2.766114e-01 -4.531849e+00 -4.382689e+00 -4.641572e+00 -6.056412e+00 -7.181113e-01 -2.755728e+00 -2.797015e+00 -9.621466e-01 -3.124291e+00
<VARIANCE> 12
 3.393174e+01 3.675085e+01 5.382116e+01 3.356112e+01 3.552322e+01 5.984142e+01 5.177064e+01 4.865666e+01 3.212343e+01 4.231984e+01 5.237840e+01 2.449529e+01
<GCONST> 6.654739e+01
<TRANSP> 5
 0.000000e+00 1.000000e+00 0.000000e+00 0.000000e+00 0.000000e+00
 0.000000e+00 5.981360e-01 4.018640e-01 0.000000e+00 0.000000e+00
 0.000000e+00 0.000000e+00 6.405618e-01 3.594383e-01 0.000000e+00
 0.000000e+00 0.000000e+00 0.000000e+00 6.189401e-01 3.810600e-01
 0.000000e+00 0.000000e+00 0.000000e+00 0.000000e+00 0.000000e+00
<ENDHMM>
