~o
<STREAMINFO> 1 12
<VECSIZE> 12<NULLD><MFCC><DIAGC>
~h "l"
<BEGINHMM>
<NUMSTATES> 5
<STATE> 2
<MEAN> 12
 -6.577472e+00 -1.282698e+00 6.130249e+00 1.762340e+00 -4.372159e+00 -6.554066e+00 -9.452597e+00 -1.161312e+00 -9.893002e-01 -4.366472e+00 7.923284e-01 -3.902958e+00
<VARIANCE> 12
 4.179293e+01 2.392531e+01 2.865508e+01 2.442971e+01 4.491780e+01 5.057054e+01 8.243317e+01 3.117879e+01 2.708601e+01 4.620924e+01 2.436969e+01 4.337242e+01
<GCONST> 6.518861e+01
<STATE> 3
<MEAN> 12
 -4.177524e-01 -6.016628e+00 5.757681e+00 6.484885e+00 -5.848838e+00 -8.009240e+00 -2.280981e+01 -1.953476e+00 2.869922e+00 -1.036106e+01 3.511588e+00 -6.291348e+00
<VARIANCE> 12
 2.422469e+01 1.664416e+01 2.700560e+01 5.036924e+01 6.141053e+01 3.511121e+01 8.510057e+01 3.491290e+01 3.630952e+01 4.559629e+01 4.167299e+01 4.001123e+01
<GCONST> 6.577309e+01
<STATE> 4
<MEAN> 12
 -3.332047e+00 -3.506809e+00 5.710738e+00 1.249903e+00 -8.860160e+00 -1.095971e+01 -1.485199e+01 3.213892e-01 -2.083081e+00 -5.864586e+00 2.962365e+00 -8.496465e+00
<VARIANCE> 12
 3.050335e+01 2.112792e+01 5.812585e+01 4.103961e+01 4.203653e+01 3.747623e+01 6.873203e+01 3.590062e+01 2.441040e+01 6.337863e+01 3.991986e+01 3.953485e+01
<GCONST> 6.618152e+01
<TRANSP> 5
 0.000000e+00 1.000000e+00 0.000000e+00 0.000000e+00 0.000000e+00
 0.000000e+00 5.045986e-01 4.954014e-01 0.000000e+00 0.000000e+00
 0.000000e+00 0.000000e+00 6.685281e-01 3.314719e-01 0.000000e+00
 0.000000e+00 0.000000e+00 0.000000e+00 6.500924e-01 3.499076e-01
 0.000000e+00 0.000000e+00 0.000000e+00 0.000000e+00 0.000000e+00
<ENDHMM>
