~o
<STREAMINFO> 1 12
<VECSIZE> 12<NULLD><MFCC><DIAGC>
~h "m"
<BEGINHMM>
<NUMSTATES> 5
<STATE> 2
<MEAN> 12
 -1.598358e+00 -1.842343e+00 2.176249e+00 2.692286e+00 -4.516466e+00 -7.099779e+00 -6.119379e+00 -3.124670e+00 -5.338028e+00 -4.783412e+00 3.547352e+00 -8.757490e+00
<VARIANCE> 12
 3.741741e+01 2.459272e+01 2.572746e+01 3.145741e+01 3.991158e+01 3.873014e+01 5.698368e+01 5.764585e+01 4.851035e+01 4.960915e+01 3.404968e+01 4.915976e+01
<GCONST> 6.622452e+01
<STATE> 3
<MEAN> 12
 2.755905e+00 -3.122182e+00 5.371762e+00 3.614408e+00 -6.454735e+00 -7.978862e+00 -5.044192e+00 -3.885700e+00 -1.106227e+01 -4.122584e+00 3.605147e+00 -1.371660e+01
<VARIANCE> 12
 1.375441e+01 1.712021e+01 2.176544e+01 2.711278e+01 1.441471e+01 2.101931e+01 2.300637e+01 3.719598e+01 4.338525e+01 5.769912e+01 2.284786e+01 4.243251e+01
<GCONST> 6.106427e+01
<STATE> 4
<MEAN> 12
 -7.715520e-01 -3.496207e+00 8.202677e-01 -4.139346e+00 -7.898810e+00 -5.422905e+00 -8.386469e+00 -1.761406e-01 -3.391825e+00 -6.872883e+00 5.086360e+00 -8.290779e+00
<VARIANCE> 12
 2.180801e+01 4.679591e+01 4.515570e+01 6.513641e+01 3.919867e+01 4.317920e+01 4.821288e+01 8.391400e+01 2.463984e+01 5.007098e+01 4.842915e+01 4.511452e+01
<GCONST> 6.751573e+01
<TRANSP> 5
 0.000000e+00 1.000000e+00 0.000000e+00 0.000000e+00 0.000000e+00
 0.000000e+00 1.545118e-01 8.454882e-01 0.000000e+00 0.000000e+00
 0.000000e+00 0.000000e+00 7.231303e-01 2.768697e-01 0.000000e+00
 0.000000e+00 0.000000e+00 0.000000e+00 3.020285e-01 6.979715e-01
 0.000000e+00 0.000000e+00 0.000000e+00 0.000000e+00 0.000000e+00
<ENDHMM>
