~o
<STREAMINFO> 1 12
<VECSIZE> 12<NULLD><MFCC><DIAGC>
~h "n"
<BEGINHMM>
<NUMSTATES> 5
<STATE> 2
<MEAN> 12
 2.061173e+00 -1.768809e+00 6.022876e+00 1.718092e+00 -1.024753e+01 -6.534023e+00 -2.056017e+00 -1.167440e+01 -8.332264e+00 -9.991248e-01 -1.792290e+00 -1.259202e+01
<VARIANCE> 12
 9.202827e+00 1.351107e+01 1.445699e+01 1.333271e+01 1.661269e+01 1.619718e+01 3.145408e+01 3.386292e+01 2.305912e+01 2.981928e+01 3.358769e+01 2.965993e+01
<GCONST> 5.814197e+01
<STATE> 3
<MEAN> 12
 -1.721259e+00 1.357949e+00 6.743104e+00 -2.258246e+00 -1.013336e+01 -8.321065e+00 -8.325517e+00 2.484284e-01 -3.809292e+00 -7.848122e+00 2.264026e+00 -7.425673e+00
<VARIANCE> 12
 1.370813e+01 2.900378e+01 5.056024e+01 2.551614e+01 3.193402e+01 5.942514e+01 4.409542e+01 5.306906e+01 2.393285e+01 4.763757e+01 3.490310e+01 2.644649e+01
<GCONST> 6.437533e+01
<STATE> 4
<MEAN> 12
 -7.024562e+00 -1.865382e+00 8.186175e-01 -8.152775e-01 -7.914149e+00 -9.313897e+00 -1.199911e+01 1.588517e+00 -1.727729e+00 -2.212849e+00 4.431077e+00 -9.040442e+00
<VARIANCE> 12
 7.283315e+01 3.966248e+01 5.419344e+01 4.640584e+01 2.833708e+01 4.437656e+01 5.510136e+01 4.747315e+01 1.915249e+01 3.174015e+01 5.224646e+01 6.714948e+01
<GCONST> 6.743222e+01
<TRANSP> 5
 0.000000e+00 1.000000e+00 0.000000e+00 0.000000e+00 0.000000e+00
 0.000000e+00 7.474698e-01 2.525303e-01 0.000000e+00 0.000000e+00
 0.000000e+00 0.000000e+00 5.596720e-01 4.403280e-01 0.000000e+00
 0.000000e+00 0.000000e+00 0.000000e+00 6.249759e-01 3.750242e-01
 0.000000e+00 0.000000e+00 0.000000e+00 0.000000e+00 0.000000e+00
<ENDHMM>
