~o
<STREAMINFO> 1 12
<VECSIZE> 12<NULLD><MFCC><DIAGC>
~h "o"
<BEGINHMM>
<NUMSTATES> 5
<STATE> 2
<MEAN> 12
 2.235207e+00 -1.480888e+00 -1.186073e+00 -1.249938e+01 -1.047169e+01 4.282526e-01 -1.334460e+01 -3.089772e+00 -8.576048e+00 -1.476322e+01 1.549318e+01 -4.456726e-01
<VARIANCE> 12
 1.983361e+01 1.377139e+01 1.614117e+01 2.582215e+01 4.508548e+01 2.617995e+01 6.010442e+01 4.433302e+01 4.042342e+01 5.582955e+01 4.149968e+01 4.540938e+01
<GCONST> 6.392159e+01
<STATE> 3
<MEAN> 12
 -1.171453e+00 -2.685077e+00 6.548703e-01 -5.358150e+00 -2.733308e+00 -7.489478e+00 -1.678945e+01 -4.613555e+00 -4.960800e+00 -5.535481e+00 9.107945e+00 -5.086957e+00
<VARIANCE> 12
 3.279211e+01 1.266958e+01 2.812298e+01 1.869100e+01 2.543484e+01 7.527007e+01 3.872400e+01 3.704610e+01 2.451503e+01 5.563973e+01 4.544642e+01 3.830051e+01
<GCONST> 6.385455e+01
<STATE> 4
<MEAN> 12
 -4.244259e+00 1.071507e+00 4.245249e+00 -7.525510e-03 -3.223761e+00 -6.039326e+00 -9.139314e+00 -4.469593e+00 -2.675203e+00 -2.881189e+00 2.522988e+00 -3.155298e+00
<VARIANCE> 12
 7.563824e+01 4.007482e+01 2.989089e+01 3.223890e+01 2.437478e+01 6.516179e+01 3.727160e+01 4.862591e+01 2.824961e+01 4.869136e+01 3.536368e+01 3.355997e+01
<GCONST> 6.612038e+01
<TRANSP> 5
 0.000000e+00 1.000000e+00 0.000000e+00 0.000000e+00 0.000000e+00
 0.000000e+00 7.745336e-01 2.254664e-01 0.000000e+00 0.000000e+00
 0.000000e+00 0.000000e+00 4.552198e-01 5.447801e-01 0.000000e+00
 0.000000e+00 0.000000e+00 0.000000e+00 4.646827e-01 5.353173e-01
 0.000000e+00 0.000000e+00 0.000000e+00 0.000000e+00 0.000000e+00
<ENDHMM>
