~o
<STREAMINFO> 1 12
<VECSIZE> 12<NULLD><MFCC><DIAGC>
~h "O"
<BEGINHMM>
<NUMSTATES> 5
<STATE> 2
<MEAN> 12
 -8.223591e+00 2.325763e+00 -1.677250e-01 -1.717515e+00 -2.216274e+00 -4.355443e+00 -4.084528e+00 -5.697783e+00 -4.674284e+00 -6.632438e-01 2.316002e+00 -3.914281e-02
<VARIANCE> 12
 2.273615e+01 2.135467e+01 1.188193e+01 4.534318e+00 1.217533e+01 2.666198e+01 2.114114e+01 4.696565e+01 1.974232e+01 1.989348e+01 1.748742e+01 6.571532e+01
<GCONST> 5.792970e+01
<STATE> 3
<MEAN> 12
 -1.347279e-01 -4.962594e+00 -2.065484e+00 -1.083269e+01 -1.266814e+00 -5.534031e+00 -1.060690e+01 -2.093655e+00 -6.083308e+00 7.610239e-01 1.394010e+01 -5.752491e+00
<VARIANCE> 12
 2.403547e+01 2.677478e+01 5.744159e+00 3.204323e+01 2.241058e+01 2.796336e+01 2.235975e+01 6.128234e+01 2.370399e+01 2.201915e+01 3.940807e+01 1.023367e+02
<GCONST> 6.195976e+01
<STATE> 4
<MEAN> 12
 -4.611880e+00 -4.839831e-01 -3.022022e+00 -5.085454e+00 -4.532080e+00 -2.506194e+00 -4.525222e+00 -1.045372e+00 -4.102423e+00 -1.955681e+00 6.508421e+00 -4.520448e+00
<VARIANCE> 12
 4.188589e+01 8.202850e+00 3.828227e+01 5.147482e+01 3.904110e+01 2.311527e+01 4.803378e+01 2.306838e+01 8.814084e+01 3.118815e+01 9.361504e+01 7.020943e+01
<GCONST> 6.600515e+01
<TRANSP> 5
 0.000000e+00 1.000000e+00 0.000000e+00 0.000000e+00 0.000000e+00
 0.000000e+00 2.306470e-01 7.693530e-01 0.000000e+00 0.000000e+00
 0.000000e+00 0.000000e+00 7.247661e-01 2.752339e-01 0.000000e+00
 0.000000e+00 0.000000e+00 0.000000e+00 4.643596e-01 5.356404e-01
 0.000000e+00 0.000000e+00 0.000000e+00 0.000000e+00 0.000000e+00
<ENDHMM>
