~o
<STREAMINFO> 1 12
<VECSIZE> 12<NULLD><MFCC><DIAGC>
~h "o#"
<BEGINHMM>
<NUMSTATES> 5
<STATE> 2
<MEAN> 12
 6.950800e-01 -9.112991e-01 -1.369941e+00 -8.729567e+00 -7.979404e+00 -3.719224e+00 -5.153932e+00 2.136270e+00 -5.461577e+00 -4.669152e+00 8.290833e+00 -8.482435e+00
<VARIANCE> 12
 2.723844e+01 2.760526e+01 1.473645e+01 2.320663e+01 3.409490e+01 2.626816e+01 2.978957e+01 3.472149e+01 6.298720e+01 3.587224e+01 9.226048e+01 4.676172e+01
<GCONST> 6.434352e+01
<STATE> 3
<MEAN> 12
 3.003890e+00 -3.206147e+00 1.697912e+00 -1.321966e+01 -1.429040e+01 -7.160173e+00 -1.493706e+00 -1.011948e-02 -7.298669e+00 -4.759075e+00 8.110328e+00 -1.472444e+01
<VARIANCE> 12
 1.529035e+01 1.412087e+01 1.916592e+01 3.274030e+01 3.390000e+01 2.265732e+01 2.970172e+01 2.971267e+01 3.681063e+01 4.475114e+01 3.069221e+01 3.013990e+01
<GCONST> 6.153458e+01
<STATE> 4
<MEAN> 12
 -5.182785e-01 -1.633643e-01 2.093666e+00 -2.221632e+00 -7.385804e+00 -3.871057e+00 -1.055926e+00 -6.775884e+00 -7.326061e+00 -2.510159e+00 1.753906e+00 -7.942759e+00
<VARIANCE> 12
 5.151472e+01 2.885469e+01 1.946722e+01 1.917728e+01 4.981508e+01 3.572757e+01 3.561925e+01 6.691827e+01 2.765714e+01 2.484834e+01 2.390338e+01 5.363987e+01
<GCONST> 6.423071e+01
<TRANSP> 5
 0.000000e+00 1.000000e+00 0.000000e+00 0.000000e+00 0.000000e+00
 0.000000e+00 5.535449e-01 4.464551e-01 0.000000e+00 0.000000e+00
 0.000000e+00 0.000000e+00 8.134747e-01 1.865253e-01 0.000000e+00
 0.000000e+00 0.000000e+00 0.000000e+00 6.368617e-01 3.631383e-01
 0.000000e+00 0.000000e+00 0.000000e+00 0.000000e+00 0.000000e+00
<ENDHMM>
