~o
<STREAMINFO> 1 12
<VECSIZE> 12<NULLD><MFCC><DIAGC>
~h "p"
<BEGINHMM>
<NUMSTATES> 5
<STATE> 2
<MEAN> 12
 -6.136993e+00 2.743068e+00 2.467016e+00 1.130753e+00 -9.318703e-01 -2.302345e+00 -2.945711e+00 -1.879975e+00 -3.604815e-01 -7.201505e-01 6.166368e-01 -1.593703e+00
<VARIANCE> 12
 2.451325e+01 3.343989e+01 2.083755e+01 2.602787e+01 2.776548e+01 3.497878e+01 2.687174e+01 3.009502e+01 2.733691e+01 2.584683e+01 2.031511e+01 2.454581e+01
<GCONST> 6.140572e+01
<STATE> 3
<MEAN> 12
 -5.414963e+00 -3.174608e+00 2.155165e-02 -1.124535e+00 -6.486104e+00 -6.050010e+00 -6.433143e+00 2.290950e+00 3.582271e+00 -3.295761e+00 1.077457e+00 -3.562352e+00
<VARIANCE> 12
 2.109224e+01 4.016610e+01 3.742543e+01 4.634155e+01 5.183721e+01 2.739000e+01 4.563466e+01 5.798209e+01 3.570568e+01 6.727203e+01 4.139931e+01 3.703537e+01
<GCONST> 6.651312e+01
<STATE> 4
<MEAN> 12
 -2.339807e+00 -3.712227e+00 -1.032297e+00 -7.671506e+00 -7.812399e+00 2.297485e-01 -1.203851e+01 -2.381484e+00 3.233547e+00 -3.599519e+00 4.052038e+00 -7.006347e+00
<VARIANCE> 12
 1.871720e+01 2.434925e+01 4.779805e+01 5.652715e+01 3.668779e+01 6.400006e+01 6.801698e+01 7.858219e+01 5.392707e+01 3.863572e+01 4.405384e+01 4.376732e+01
<GCONST> 6.762951e+01
<TRANSP> 5
 0.000000e+00 1.000000e+00 0.000000e+00 0.000000e+00 0.000000e+00
 0.000000e+00 8.390473e-01 1.609527e-01 0.000000e+00 0.000000e+00
 0.000000e+00 0.000000e+00 6.562495e-01 3.437505e-01 0.000000e+00
 0.000000e+00 0.000000e+00 0.000000e+00 8.647236e-01 1.352764e-01
 0.000000e+00 0.000000e+00 0.000000e+00 0.000000e+00 0.000000e+00
<ENDHMM>
