~o
<STREAMINFO> 1 12
<VECSIZE> 12<NULLD><MFCC><DIAGC>
~h "R"
<BEGINHMM>
<NUMSTATES> 5
<STATE> 2
<MEAN> 12
 -4.872579e+00 -3.059125e+00 1.991652e-01 -8.804606e+00 -5.620001e+00 -4.037117e+00 -7.304583e+00 1.899543e+00 -1.566081e+00 -4.832917e+00 7.713872e+00 -5.277736e+00
<VARIANCE> 12
 4.359234e+01 2.886442e+01 5.058858e+01 4.207200e+01 8.655224e+01 9.111057e+01 8.257175e+01 4.089833e+01 4.035324e+01 8.663246e+01 4.443401e+01 3.872199e+01
<GCONST> 6.956246e+01
<STATE> 3
<MEAN> 12
 -1.379794e+00 -3.854902e+00 -2.951564e+00 -1.127834e+01 -3.033784e+00 -2.860162e+00 -9.788717e+00 1.783857e+00 -7.386477e+00 -9.247365e-02 1.058616e+01 -6.667253e+00
<VARIANCE> 12
 2.537371e+01 2.195038e+01 2.764645e+01 4.364798e+01 3.748236e+01 2.916015e+01 8.908501e+01 3.969213e+01 6.127724e+01 4.161954e+01 4.883809e+01 6.089196e+01
<GCONST> 6.648169e+01
<STATE> 4
<MEAN> 12
 -8.481134e+00 -2.977448e+00 -6.981634e-01 -3.345701e+00 2.083807e+00 -1.684667e+00 -2.040125e+00 6.506367e-01 -1.127548e+00 2.180405e+00 3.699294e+00 -3.990896e+00
<VARIANCE> 12
 6.003296e+01 2.765960e+01 2.688465e+01 3.834534e+01 4.438079e+01 4.230336e+01 6.307401e+01 3.600457e+01 4.140208e+01 4.322228e+01 4.125500e+01 3.689569e+01
<GCONST> 6.649077e+01
<TRANSP> 5
 0.000000e+00 1.000000e+00 0.000000e+00 0.000000e+00 0.000000e+00
 0.000000e+00 5.774744e-01 4.225257e-01 0.000000e+00 0.000000e+00
 0.000000e+00 0.000000e+00 7.161501e-01 2.838499e-01 0.000000e+00
 0.000000e+00 0.000000e+00 0.000000e+00 7.000201e-01 2.999799e-01
 0.000000e+00 0.000000e+00 0.000000e+00 0.000000e+00 0.000000e+00
<ENDHMM>
