~o
<STREAMINFO> 1 12
<VECSIZE> 12<NULLD><MFCC><DIAGC>
~h "S"
<BEGINHMM>
<NUMSTATES> 5
<STATE> 2
<MEAN> 12
 -2.230605e+01 -4.487482e+00 8.885388e+00 -2.860141e-02 -1.784210e+00 -3.492454e+00 7.624302e-01 -4.741687e+00 1.601867e+00 -1.847937e+00 -2.337563e+00 -1.600850e+00
<VARIANCE> 12
 7.508936e+01 2.293276e+01 3.824818e+01 2.298370e+01 1.813063e+01 1.916114e+01 1.636930e+01 2.354943e+01 1.595024e+01 2.174168e+01 1.487566e+01 2.199175e+01
<GCONST> 5.972874e+01
<STATE> 3
<MEAN> 12
 -2.507485e+01 -9.713094e+00 3.004310e+00 -1.793407e+00 2.593063e+00 -8.775329e+00 6.970740e-01 -1.515902e+00 5.084324e+00 2.002427e+00 6.245288e-01 7.746184e-01
<VARIANCE> 12
 2.737850e+01 2.572001e+01 1.456508e+01 1.870557e+01 3.257335e+01 2.213704e+01 1.342636e+01 1.483434e+01 1.727329e+01 1.609578e+01 1.585413e+01 1.602230e+01
<GCONST> 5.725904e+01
<STATE> 4
<MEAN> 12
 -8.584473e+00 -2.297052e+00 -9.661363e-01 -7.062335e+00 -1.753348e+00 -6.872074e+00 -1.781637e+00 -6.101859e-01 -8.018795e-01 -2.116023e+00 1.689483e+00 -3.049351e+00
<VARIANCE> 12
 1.057258e+02 8.575320e+00 2.414094e+01 2.119057e+01 1.637355e+01 3.237372e+01 3.043429e+01 2.444711e+01 1.379301e+01 1.431199e+01 2.639887e+01 1.401211e+01
<GCONST> 5.918533e+01
<TRANSP> 5
 0.000000e+00 1.000000e+00 0.000000e+00 0.000000e+00 0.000000e+00
 0.000000e+00 5.089133e-01 4.910867e-01 0.000000e+00 0.000000e+00
 0.000000e+00 0.000000e+00 7.409306e-01 2.590695e-01 0.000000e+00
 0.000000e+00 0.000000e+00 0.000000e+00 5.700682e-01 4.299318e-01
 0.000000e+00 0.000000e+00 0.000000e+00 0.000000e+00 0.000000e+00
<ENDHMM>
