~o
<STREAMINFO> 1 12
<VECSIZE> 12<NULLD><MFCC><DIAGC>
~h "s"
<BEGINHMM>
<NUMSTATES> 5
<STATE> 2
<MEAN> 12
 -1.784802e+01 5.210749e+00 3.099884e+00 1.553158e+00 1.549023e+00 -5.148331e+00 -1.586468e+00 -6.822827e-01 -3.634912e-01 4.799412e-01 1.131834e-01 -1.560713e+00
<VARIANCE> 12
 4.389292e+01 2.831840e+01 2.637587e+01 2.212099e+01 2.389194e+01 5.086805e+01 3.875788e+01 3.900187e+01 3.163446e+01 1.910718e+01 2.194088e+01 2.080231e+01
<GCONST> 6.250021e+01
<STATE> 3
<MEAN> 12
 -2.748243e+01 -1.383631e-01 -4.907140e+00 -1.039873e+00 -1.607296e+00 -4.188970e+00 1.026749e+00 -1.020559e+00 2.432651e+00 1.523833e+00 1.431033e+00 6.882134e-01
<VARIANCE> 12
 1.754768e+01 1.031507e+01 1.658284e+01 2.089718e+01 1.921970e+01 1.559800e+01 2.099364e+01 2.319334e+01 2.121812e+01 1.600027e+01 1.512957e+01 1.696821e+01
<GCONST> 5.636765e+01
<STATE> 4
<MEAN> 12
 -1.228364e+01 2.241326e+00 1.362001e+00 -1.468565e+00 -1.460495e+00 -6.959283e+00 -3.831645e+00 -2.142022e+00 -1.726415e+00 6.817403e-01 1.017566e+00 -4.040814e+00
<VARIANCE> 12
 5.359067e+01 2.569667e+01 3.549258e+01 2.394472e+01 2.206138e+01 4.353047e+01 3.483820e+01 3.677069e+01 2.786305e+01 4.070070e+01 3.471978e+01 3.342702e+01
<GCONST> 6.414026e+01
<TRANSP> 5
 0.000000e+00 1.000000e+00 0.000000e+00 0.000000e+00 0.000000e+00
 0.000000e+00 5.438741e-01 4.561259e-01 0.000000e+00 0.000000e+00
 0.000000e+00 0.000000e+00 8.404183e-01 1.595817e-01 0.000000e+00
 0.000000e+00 0.000000e+00 0.000000e+00 5.777748e-01 4.222252e-01
 0.000000e+00 0.000000e+00 0.000000e+00 0.000000e+00 0.000000e+00
<ENDHMM>
