~o
<STREAMINFO> 1 12
<VECSIZE> 12<NULLD><MFCC><DIAGC>
~h "sil"
<BEGINHMM>
<NUMSTATES> 5
<STATE> 2
<MEAN> 12
 -5.882435e+00 -4.784552e+00 -3.187421e+00 -3.275320e+00 -3.448488e+00 -1.004611e+01 -4.154793e+00 6.464328e+00 4.177111e-01 6.231186e-01 2.749042e+00 -9.065084e+00
<VARIANCE> 12
 3.836929e+01 2.197533e+01 2.570516e+01 1.797927e+01 2.024755e+01 4.343365e+01 3.216427e+01 2.896065e+01 2.244299e+01 3.369212e+01 1.391717e+01 1.059968e+02
<GCONST> 6.246845e+01
<STATE> 3
<MEAN> 12
 -1.284502e+01 -8.495307e+00 -3.068322e+00 -3.935536e-02 3.446271e+00 8.449721e-01 4.676833e+00 6.974754e+00 2.086427e-01 -3.123183e-01 1.750587e+00 1.197200e+00
<VARIANCE> 12
 1.335100e+01 8.381897e+00 1.440859e+01 1.245624e+01 3.973311e+01 9.084383e+01 3.109312e+01 2.358674e+01 1.602589e+01 1.805270e+01 1.926954e+01 1.163144e+01
<GCONST> 5.783097e+01
<STATE> 4
<MEAN> 12
 -1.687964e+01 -1.120761e+01 -3.750099e+00 -5.091950e+00 -3.017987e+00 -1.000776e+01 1.618545e-02 5.208403e+00 -1.058353e+00 -1.640653e+00 -8.804531e-01 -5.290231e-01
<VARIANCE> 12
 8.360206e+00 6.495670e+00 1.451133e+01 7.030468e+00 2.290329e+01 2.499647e+01 1.676458e+01 1.314274e+01 1.995423e+01 1.245814e+01 1.616382e+01 1.146903e+01
<GCONST> 5.315772e+01
<TRANSP> 5
 0.000000e+00 1.000000e+00 0.000000e+00 0.000000e+00 0.000000e+00
 0.000000e+00 6.575256e-01 3.424744e-01 0.000000e+00 0.000000e+00
 0.000000e+00 0.000000e+00 6.012132e-01 3.987868e-01 0.000000e+00
 0.000000e+00 0.000000e+00 0.000000e+00 8.519456e-01 1.480544e-01
 0.000000e+00 0.000000e+00 0.000000e+00 0.000000e+00 0.000000e+00
<ENDHMM>
