~o
<STREAMINFO> 1 12
<VECSIZE> 12<NULLD><MFCC><DIAGC>
~h "t"
<BEGINHMM>
<NUMSTATES> 5
<STATE> 2
<MEAN> 12
 -4.833030e+00 4.031562e+00 3.094503e+00 -4.267574e-01 -4.045406e+00 -1.022621e+01 -6.469984e+00 1.524123e+00 1.119481e+00 -6.339609e-01 1.124522e+00 -3.133595e+00
<VARIANCE> 12
 2.852286e+01 1.902503e+01 4.006215e+01 2.491858e+01 2.202497e+01 3.353190e+01 3.643784e+01 4.327165e+01 4.202778e+01 4.921726e+01 2.458804e+01 3.796051e+01
<GCONST> 6.369820e+01
<STATE> 3
<MEAN> 12
 -1.888013e+01 -1.214705e+00 -9.936112e-01 -3.563956e+00 -3.440891e-01 -1.813236e+00 -1.117341e+00 -8.595703e-01 2.922204e+00 1.551682e+00 1.685163e+00 8.172524e-01
<VARIANCE> 12
 3.729782e+01 2.873483e+01 2.482675e+01 2.471033e+01 2.932444e+01 3.452049e+01 2.960304e+01 2.412943e+01 2.502149e+01 2.726003e+01 2.516486e+01 1.711519e+01
<GCONST> 6.153257e+01
<STATE> 4
<MEAN> 12
 -7.948970e+00 -4.158180e-01 2.762199e-01 -1.630384e+00 -3.766925e+00 -1.190387e+01 -8.526993e+00 -3.022727e+00 -1.196209e-01 -4.503583e-01 3.475378e+00 -5.553817e+00
<VARIANCE> 12
 4.413537e+01 2.982731e+01 3.515693e+01 1.876428e+01 5.038052e+01 7.162002e+01 5.151558e+01 5.572725e+01 3.209029e+01 6.219493e+01 3.476365e+01 5.647695e+01
<GCONST> 6.706355e+01
<TRANSP> 5
 0.000000e+00 1.000000e+00 0.000000e+00 0.000000e+00 0.000000e+00
 0.000000e+00 6.273855e-01 3.726145e-01 0.000000e+00 0.000000e+00
 0.000000e+00 0.000000e+00 7.194810e-01 2.805190e-01 0.000000e+00
 0.000000e+00 0.000000e+00 0.000000e+00 5.662842e-01 4.337157e-01
 0.000000e+00 0.000000e+00 0.000000e+00 0.000000e+00 0.000000e+00
<ENDHMM>
