~o
<STREAMINFO> 1 12
<VECSIZE> 12<NULLD><MFCC><DIAGC>
~h "u"
<BEGINHMM>
<NUMSTATES> 5
<STATE> 2
<MEAN> 12
 -3.097007e+00 -7.669003e-01 1.695808e+00 -3.063110e+00 -2.404717e+00 -8.522784e+00 -1.501240e+01 -5.526251e+00 -5.013816e+00 -6.832377e+00 9.755906e+00 -5.574059e+00
<VARIANCE> 12
 2.284449e+01 1.869849e+01 2.231685e+01 1.347148e+01 3.382876e+01 4.863372e+01 6.734376e+01 3.391554e+01 4.290108e+01 3.638638e+01 4.648952e+01 3.222198e+01
<GCONST> 6.362186e+01
<STATE> 3
<MEAN> 12
 1.025822e+00 1.496789e+00 2.978353e+00 -8.523254e+00 -6.627805e+00 -3.625448e+00 -1.214293e+01 -3.899099e+00 -6.740075e+00 -1.678074e+01 8.284408e+00 -1.224038e+00
<VARIANCE> 12
 2.750466e+01 2.133978e+01 1.952014e+01 4.840604e+01 5.181967e+01 5.349619e+01 4.831723e+01 5.276415e+01 4.730816e+01 9.906575e+01 7.985016e+01 5.253270e+01
<GCONST> 6.784557e+01
<STATE> 4
<MEAN> 12
 -9.042799e+00 -9.906310e-01 1.736183e+00 1.155348e+00 1.718944e+00 3.116560e-01 -4.844435e+00 1.623788e+00 -1.175432e+00 -1.767759e+00 1.533716e-01 -1.741870e+00
<VARIANCE> 12
 3.684342e+01 1.326100e+01 1.558623e+01 3.667804e+01 3.488743e+01 3.163761e+01 3.881857e+01 2.516185e+01 1.915181e+01 4.891912e+01 4.924493e+01 2.414036e+01
<GCONST> 6.240855e+01
<TRANSP> 5
 0.000000e+00 1.000000e+00 0.000000e+00 0.000000e+00 0.000000e+00
 0.000000e+00 6.836243e-01 3.163758e-01 0.000000e+00 0.000000e+00
 0.000000e+00 0.000000e+00 7.245253e-01 2.754748e-01 0.000000e+00
 0.000000e+00 0.000000e+00 0.000000e+00 6.565571e-01 3.434429e-01
 0.000000e+00 0.000000e+00 0.000000e+00 0.000000e+00 0.000000e+00
<ENDHMM>
