~o
<STREAMINFO> 1 12
<VECSIZE> 12<NULLD><MFCC><DIAGC>
~h "v"
<BEGINHMM>
<NUMSTATES> 5
<STATE> 2
<MEAN> 12
 -4.048863e+00 -2.742121e-02 8.854311e-01 -1.765721e+00 -3.053486e+00 -6.016999e+00 -9.846649e+00 2.822594e+00 -4.553430e+00 -2.248723e+00 2.608596e+00 -2.939719e+00
<VARIANCE> 12
 3.067842e+01 1.826541e+01 1.535632e+01 2.814249e+01 2.425107e+01 4.188629e+01 5.555215e+01 5.237926e+01 3.484314e+01 3.943244e+01 4.680477e+01 2.183063e+01
<GCONST> 6.350590e+01
<STATE> 3
<MEAN> 12
 -6.641477e+00 4.793940e-01 1.655299e+00 6.733413e-01 -9.530462e-01 -4.806784e+00 -6.290163e+00 -1.175784e-01 -6.521872e-01 -7.010511e-01 6.978388e-01 -2.142479e+00
<VARIANCE> 12
 2.360207e+01 1.169098e+01 1.516777e+01 2.781918e+01 2.181767e+01 6.608860e+01 4.923107e+01 2.915252e+01 2.295002e+01 1.718188e+01 1.661810e+01 1.345567e+01
<GCONST> 5.964943e+01
<STATE> 4
<MEAN> 12
 -3.604069e+00 -2.927385e+00 -3.565907e-02 -3.868427e+00 -4.776344e+00 -5.782191e+00 -1.012634e+01 3.471222e+00 -3.481536e+00 -2.819616e+00 4.525219e+00 -5.053732e+00
<VARIANCE> 12
 3.896729e+01 2.842108e+01 3.163743e+01 4.613381e+01 2.103142e+01 7.359914e+01 6.232015e+01 5.285973e+01 2.634688e+01 2.834715e+01 4.134087e+01 1.793468e+01
<GCONST> 6.501931e+01
<TRANSP> 5
 0.000000e+00 1.000000e+00 0.000000e+00 0.000000e+00 0.000000e+00
 0.000000e+00 1.223022e-01 8.776978e-01 0.000000e+00 0.000000e+00
 0.000000e+00 0.000000e+00 6.059477e-01 3.940524e-01 0.000000e+00
 0.000000e+00 0.000000e+00 0.000000e+00 3.379341e-01 6.620659e-01
 0.000000e+00 0.000000e+00 0.000000e+00 0.000000e+00 0.000000e+00
<ENDHMM>
