~o
<STREAMINFO> 1 12
<VECSIZE> 12<NULLD><MFCC><DIAGC>
~h "w"
<BEGINHMM>
<NUMSTATES> 5
<STATE> 2
<MEAN> 12
 4.793927e-01 2.263684e+00 -6.460915e-01 -9.385834e+00 -6.282693e+00 -1.518048e+00 -6.969542e+00 -1.211548e+00 -4.370099e+00 -1.189311e+01 3.699887e+00 -3.235165e+00
<VARIANCE> 12
 1.641440e+01 8.531103e+00 2.026984e+01 3.600915e+01 4.469843e+01 3.200623e+01 2.233053e+01 2.389035e+01 2.378659e+01 5.027433e+01 3.301952e+01 1.207270e+01
<GCONST> 6.020927e+01
<STATE> 3
<MEAN> 12
 4.876343e+00 -4.026874e+00 -1.047776e+00 -1.396894e+01 -9.948089e+00 1.784252e+00 -1.769762e+01 3.388611e+00 -8.211351e+00 -1.442009e+01 1.847400e+01 -5.889008e-01
<VARIANCE> 12
 1.466041e+01 1.461852e+01 2.220597e+01 2.119892e+01 2.258317e+01 3.059979e+01 4.940179e+01 1.696536e+01 2.006492e+01 7.937641e+01 7.234518e+01 4.847107e+01
<GCONST> 6.238123e+01
<STATE> 4
<MEAN> 12
 2.164819e+00 -1.000996e+01 -4.245803e+00 -1.656957e+01 -3.898138e+00 -2.877636e+00 -1.728573e+01 9.204078e+00 -3.462910e+00 -2.893728e+00 1.670104e+01 -1.348089e+01
<VARIANCE> 12
 7.108247e+00 1.065488e+01 1.891487e+01 5.786281e+01 2.383885e+01 3.155595e+01 7.865717e+01 4.986232e+01 2.397422e+01 4.062253e+01 5.286054e+01 3.173597e+01
<GCONST> 6.258368e+01
<TRANSP> 5
 0.000000e+00 1.000000e+00 0.000000e+00 0.000000e+00 0.000000e+00
 0.000000e+00 4.973935e-01 5.026065e-01 0.000000e+00 0.000000e+00
 0.000000e+00 0.000000e+00 6.501121e-01 3.498879e-01 0.000000e+00
 0.000000e+00 0.000000e+00 0.000000e+00 6.987033e-01 3.012966e-01
 0.000000e+00 0.000000e+00 0.000000e+00 0.000000e+00 0.000000e+00
<ENDHMM>
