~o
<STREAMINFO> 1 12
<VECSIZE> 12<NULLD><MFCC><DIAGC>
~h "y"
<BEGINHMM>
<NUMSTATES> 5
<STATE> 2
<MEAN> 12
 -1.085934e+01 -9.348221e-01 1.020380e+01 4.168018e+00 -6.622825e+00 -9.099487e+00 -1.033807e+01 -1.832268e+00 -2.043096e+00 -8.121805e+00 -1.869801e+00 -2.072832e+00
<VARIANCE> 12
 5.632698e+01 2.650282e+01 7.452647e+01 3.010187e+01 3.232390e+01 2.178443e+01 2.812630e+01 2.770849e+01 1.969624e+01 3.109925e+01 2.049401e+01 2.165441e+01
<GCONST> 6.280709e+01
<STATE> 3
<MEAN> 12
 -3.988578e+00 -3.716864e+00 1.257591e+01 6.244028e+00 -1.230961e+01 -9.141127e+00 -1.568938e+01 1.414865e+00 -1.695539e+00 -1.604552e+01 2.080080e+00 -6.444492e-01
<VARIANCE> 12
 2.626646e+01 1.218341e+01 3.898573e+01 2.149659e+01 3.410417e+01 2.721888e+01 7.089975e+01 2.506511e+01 2.928827e+01 4.943652e+01 1.057994e+01 1.395349e+01
<GCONST> 6.114262e+01
<STATE> 4
<MEAN> 12
 -4.339464e+00 -2.149136e+00 2.922876e+00 1.815332e+00 -5.072823e+00 -6.095904e+00 -6.872752e+00 -4.169269e+00 -2.677428e+00 -5.807291e+00 1.487808e+00 -4.994754e+00
<VARIANCE> 12
 7.664241e+01 1.300882e+01 2.729139e+01 3.783454e+01 2.793814e+01 2.449388e+01 6.069714e+01 6.354574e+01 1.622633e+01 4.674061e+01 3.520589e+01 3.344090e+01
<GCONST> 6.438741e+01
<TRANSP> 5
 0.000000e+00 1.000000e+00 0.000000e+00 0.000000e+00 0.000000e+00
 0.000000e+00 4.025810e-01 5.974190e-01 0.000000e+00 0.000000e+00
 0.000000e+00 0.000000e+00 7.382086e-01 2.617914e-01 0.000000e+00
 0.000000e+00 0.000000e+00 0.000000e+00 4.106502e-01 5.893497e-01
 0.000000e+00 0.000000e+00 0.000000e+00 0.000000e+00 0.000000e+00
<ENDHMM>
