~o
<STREAMINFO> 1 12
<VECSIZE> 12<NULLD><MFCC><DIAGC>
~h "z"
<BEGINHMM>
<NUMSTATES> 5
<STATE> 2
<MEAN> 12
 -6.439570e+00 3.843346e+00 6.089148e+00 2.286968e+00 -5.537161e+00 -1.144465e+01 -8.612990e+00 1.136519e+00 -3.787774e+00 -3.110447e+00 -1.342808e-01 -7.037009e+00
<VARIANCE> 12
 3.459302e+01 2.646281e+01 6.980372e+01 3.870203e+01 3.501102e+01 7.564552e+01 4.601576e+01 3.938689e+01 1.363325e+01 4.895183e+01 1.526966e+01 6.995911e+01
<GCONST> 6.563676e+01
<STATE> 3
<MEAN> 12
 -1.469704e+01 1.104457e+01 9.617487e+00 6.985551e+00 -2.928152e+00 -1.233309e+01 -6.606152e+00 -6.454567e+00 -1.405604e+00 -5.811925e+00 -3.124147e+00 8.941654e-01
<VARIANCE> 12
 1.506329e+01 1.996184e+01 4.212071e+01 2.483972e+01 9.702417e+00 1.911652e+01 1.440773e+01 1.556829e+01 1.199081e+01 2.302870e+01 1.188745e+01 1.550875e+01
<GCONST> 5.618730e+01
<STATE> 4
<MEAN> 12
 -9.004591e+00 5.128976e+00 6.365693e+00 6.042114e-01 -1.859801e+00 -7.492463e+00 -7.370274e+00 -3.033166e+00 2.490907e-01 -2.618965e+00 -1.240511e+00 -2.839263e+00
<VARIANCE> 12
 7.729788e+01 3.850532e+01 6.710427e+01 1.687580e+01 2.332348e+01 4.294225e+01 3.883402e+01 1.830342e+01 4.413966e+01 4.619791e+01 2.116947e+01 3.735614e+01
<GCONST> 6.485417e+01
<TRANSP> 5
 0.000000e+00 1.000000e+00 0.000000e+00 0.000000e+00 0.000000e+00
 0.000000e+00 6.188087e-01 3.811913e-01 0.000000e+00 0.000000e+00
 0.000000e+00 0.000000e+00 8.395919e-01 1.604082e-01 0.000000e+00
 0.000000e+00 0.000000e+00 0.000000e+00 3.911881e-01 6.088119e-01
 0.000000e+00 0.000000e+00 0.000000e+00 0.000000e+00 0.000000e+00
<ENDHMM>
