~o
<STREAMINFO> 1 12
<VECSIZE> 12<NULLD><MFCC><DIAGC>
~h "Z"
<BEGINHMM>
<NUMSTATES> 5
<STATE> 2
<MEAN> 12
 -1.402720e+01 1.654942e+00 8.254117e+00 3.648458e+00 9.927231e-01 -8.609735e+00 -3.961800e+00 -9.314848e+00 2.908362e+00 -3.000635e+00 -1.000473e+00 -7.035575e-01
<VARIANCE> 12
 2.187558e+01 7.010342e+00 5.723965e+01 1.758520e+01 2.655857e+01 4.098898e+01 2.436894e+01 3.759467e+01 1.744648e+01 1.719093e+01 1.306932e+01 1.055092e+01
<GCONST> 5.844441e+01
<STATE> 3
<MEAN> 12
 -4.814147e+00 3.789902e-01 1.948265e+00 -2.300845e+00 -2.447901e+00 -9.713303e+00 -1.368341e+01 -8.629844e+00 5.848801e-01 -4.252212e+00 2.149101e+00 -1.727210e+00
<VARIANCE> 12
 1.430560e+01 1.324623e+01 1.658937e+01 9.718516e+00 3.109660e+01 2.411278e+01 1.167912e+02 5.408834e+01 4.921776e+01 1.913158e+01 2.759071e+01 2.519840e+01
<GCONST> 6.114439e+01
<STATE> 4
<MEAN> 12
 -1.218203e-01 -3.002660e+00 -1.865098e+00 -5.821176e+00 -6.874215e+00 -5.521902e+00 -1.251269e+01 -4.000738e+00 1.072262e+00 -4.358051e+00 3.549101e+00 -6.142185e+00
<VARIANCE> 12
 9.869842e+00 5.363829e+01 4.408722e+01 3.808424e+01 4.541030e+01 2.637227e+01 5.384245e+01 7.585156e+01 4.452124e+01 1.057826e+02 7.022589e+01 8.249923e+01
<GCONST> 6.827699e+01
<TRANSP> 5
 0.000000e+00 1.000000e+00 0.000000e+00 0.000000e+00 0.000000e+00
 0.000000e+00 8.068048e-01 1.931951e-01 0.000000e+00 0.000000e+00
 0.000000e+00 0.000000e+00 4.170084e-01 5.829916e-01 0.000000e+00
 0.000000e+00 0.000000e+00 0.000000e+00 5.904896e-01 4.095104e-01
 0.000000e+00 0.000000e+00 0.000000e+00 0.000000e+00 0.000000e+00
<ENDHMM>
