~o
<STREAMINFO> 1 12
<VECSIZE> 12<NULLD><MFCC><DIAGC>
~h "@"
<BEGINHMM>
<NUMSTATES> 5
<STATE> 2
<NUMMIXES> 3
<MIXTURE> 1 3.947510e-01
<MEAN> 12
 -6.182958e+00 8.640078e-01 8.503125e-01 -1.710328e+00 -5.576781e-01 -3.214313e+00 -5.576660e+00 -1.751425e+00 -4.228378e+00 -8.343307e-01 1.130718e+00 -4.412940e+00
<VARIANCE> 12
 3.383985e+01 1.769983e+01 3.368199e+01 2.909444e+01 1.544740e+01 4.774259e+01 3.325827e+01 2.964340e+01 3.416373e+01 2.181047e+01 6.194537e+01 7.974378e+00
<GCONST> 6.165009e+01
<MIXTURE> 2 1.323286e-01
<MEAN> 12
 -8.243799e+00 2.849482e+00 9.943124e+00 1.547615e+00 -1.537704e+00 -1.220638e+01 -1.284130e+01 -3.228578e+00 -3.284774e+00 -1.898957e+00 1.895341e+00 -5.851763e+00
<VARIANCE> 12
 2.620651e+00 1.234368e+00 3.216657e+01 2.139482e+01 9.153402e+00 1.254300e+00 4.212282e+00 3.745374e+00 4.907423e+00 1.700281e+01 1.628017e+01 1.550377e+01
<GCONST> 4.491697e+01
<MIXTURE> 3 4.729207e-01
<MEAN> 12
 -1.281557e+00 -4.108568e+00 4.136718e+00 2.402124e+00 -8.337409e+00 -9.911032e+00 -2.072394e+01 -2.331250e+00 6.250066e-01 -8.965038e+00 6.159340e+00 -6.167934e+00
<VARIANCE> 12
 7.019248e+00 6.436301e+00 3.136482e+01 2.585317e+01 2.154549e+01 3.665915e+01 7.265030e+01 7.509825e+01 1.699384e+01 6.114233e+01 3.026741e+01 4.607265e+01
<GCONST> 6.202589e+01
<STATE> 3
<NUMMIXES> 3
<MIXTURE> 2 1.000000e+00
<MEAN> 12
 -2.622473e+00 -2.392303e+00 3.239097e+00 5.348709e-01 -5.485893e+00 -8.033228e+00 -1.481489e+01 -1.100435e+00 -2.214044e+00 -4.835666e+00 4.678054e+00 -5.077047e+00
<VARIANCE> 12
 2.277376e+01 2.304130e+01 3.738190e+01 3.054896e+01 2.433323e+01 3.945965e+01 1.151757e+02 4.726965e+01 2.904038e+01 5.572352e+01 3.698036e+01 4.001343e+01
<GCONST> 6.551608e+01
<STATE> 4
<NUMMIXES> 3
<MIXTURE> 2 1.000000e+00
<MEAN> 12
 -2.512119e+00 -3.064810e+00 4.220446e+00 1.920550e-01 -5.516240e+00 -8.871251e+00 -1.940780e+01 -4.138937e+00 -1.188242e+00 -6.277029e+00 6.895817e+00 -6.214153e+00
<VARIANCE> 12
 1.423847e+01 1.656770e+01 2.793911e+01 1.700387e+01 1.289086e+01 4.368122e+01 6.815668e+01 4.470854e+01 2.518575e+01 3.867604e+01 3.557453e+01 3.574552e+01
<GCONST> 6.206636e+01
<TRANSP> 5
 0.000000e+00 1.000000e+00 0.000000e+00 0.000000e+00 0.000000e+00
 0.000000e+00 0.000000e+00 1.000000e+00 0.000000e+00 0.000000e+00
 0.000000e+00 0.000000e+00 0.000000e+00 1.000000e+00 0.000000e+00
 0.000000e+00 0.000000e+00 0.000000e+00 4.956025e-01 5.043975e-01
 0.000000e+00 0.000000e+00 0.000000e+00 0.000000e+00 0.000000e+00
<ENDHMM>
~h "A"
<BEGINHMM>
<NUMSTATES> 5
<STATE> 2
<NUMMIXES> 3
<MIXTURE> 1 2.400978e-01
<MEAN> 12
 6.387786e-01 -8.112974e+00 -4.776266e+00 -4.669095e+00 5.321214e-01 -4.107956e+00 -6.749750e+00 9.372485e+00 -5.269434e+00 1.398336e+00 9.391891e+00 -1.476453e+01
<VARIANCE> 12
 1.155247e+00 8.773779e-01 5.687670e-01 3.132857e+00 4.035073e+00 3.181843e+00 1.017537e+01 2.186309e+00 1.128814e+01 2.039290e+00 2.252926e+00 2.457981e+01
<GCONST> 3.545086e+01
<MIXTURE> 2 6.798654e-01
<MEAN> 12
 -1.167044e+00 -3.660567e+00 -1.250595e+01 1.923937e+00 -3.805521e+00 -1.303291e+01 -1.627578e+00 6.931518e+00 -3.073493e+00 -6.133446e+00 3.520021e+00 7.566830e+00
<VARIANCE> 12
 2.212034e+00 7.624605e+00 1.263129e+01 1.476310e+01 1.701660e+01 9.700103e+00 1.332833e+01 1.615842e+01 1.139779e+01 1.103682e+01 4.939893e+00 3.027099e+00
<GCONST> 4.812639e+01
<MIXTURE> 3 8.003683e-02
<MEAN> 12
 -1.236457e+00 7.477426e-01 -6.579169e+00 3.827450e-01 -2.048236e+00 -8.601430e+00 -8.549818e+00 8.531591e-01 2.320576e+00 -1.234425e+00 1.215141e+00 -8.792508e+00
<VARIANCE> 12
 9.772709e+00 1.323511e+01 5.128088e-02 1.248477e+00 1.881963e+00 3.570118e-01 8.986859e-03 2.681937e+00 2.718186e+00 1.927216e+00 2.147907e+01 9.349483e+01
<GCONST> 2.930638e+01
<STATE> 3
<NUMMIXES> 3
<MIXTURE> 1 3.161981e-01
<MEAN> 12
 -4.897841e+00 -1.309539e+00 -5.118701e+00 6.237823e+00 1.059606e+00 -6.453033e+00 -1.294146e+00 -7.875499e-01 -6.889389e+00 -5.439983e+00 8.036671e-01 4.374381e+00
<VARIANCE> 12
 2.082940e+00 7.734312e+00 2.780139e+00 2.739653e+01 1.784922e+01 3.231757e+00 1.836185e+00 1.787669e+01 4.794245e+01 1.775002e+01 4.002037e+00 9.504976e-01
<GCONST> 4.479549e+01
<MIXTURE> 2 4.916420e-01
<MEAN> 12
 -2.125048e+00 5.854208e-01 -1.295773e+01 -5.103777e+00 -4.704079e+00 -9.043477e+00 -5.903070e+00 5.342514e+00 6.515846e+00 -9.867924e-02 -9.136188e-01 2.296223e+00
<VARIANCE> 12
 1.791674e-01 1.702711e+00 1.262145e+00 3.449263e+00 1.929422e+00 2.341110e+00 3.014103e+00 7.396349e+00 1.450990e+01 3.502879e+00 1.856156e+00 1.793445e+00
<GCONST> 3.208148e+01
<MIXTURE> 3 1.921599e-01
<MEAN> 12
 -2.409095e+00 4.736257e-01 -8.473519e+00 -8.316351e-01 -6.616672e+00 -8.527175e+00 -3.619750e+00 2.289893e+00 3.930456e+00 8.743767e-01 1.201194e+00 -1.831319e+00
<VARIANCE> 12
 9.967153e+00 2.705025e+00 5.786109e+00 2.605291e+01 4.749379e+00 8.062797e-02 2.147090e+00 1.812417e+01 3.533698e+01 1.649393e+01 4.201222e+00 1.121007e+02
<GCONST> 4.558868e+01
<STATE> 4
<NUMMIXES> 3
<MIXTURE> 1 4.598765e-01
<MEAN> 12
 -1.438221e+01 2.703182e+00 -1.104190e+00 1.158618e+00 -1.361298e+00 1.048160e+00 4.234075e+00 5.303951e+00 5.706695e+00 4.605466e+00 2.196144e+00 -4.686809e-01
<VARIANCE> 12
 3.959636e+00 1.831335e+00 4.972060e+00 3.122166e+01 8.556904e+00 4.128890e+00 3.436518e+00 2.847570e+01 3.842312e+01 1.295545e+01 1.722639e+00 7.602402e+00
<GCONST> 4.601143e+01
<MIXTURE> 2 3.086319e-01
<MEAN> 12
 -2.222563e+00 3.122039e+00 -3.135453e+00 4.544597e+00 -4.935349e+00 -1.095517e+01 -3.461869e+00 -3.182448e+00 -3.766404e-01 -5.079427e+00 3.591713e+00 -5.912977e+00
<VARIANCE> 12
 1.108273e+01 2.186153e+00 1.482496e+00 1.375689e+01 1.282402e+01 1.815773e+01 9.303044e+00 1.756200e+01 6.155007e+01 6.957194e+00 9.424048e+00 9.245720e+01
<GCONST> 5.163346e+01
<MIXTURE> 3 2.314914e-01
<MEAN> 12
 -8.777502e+00 3.406454e+00 -4.308312e-02 6.781623e+00 2.053423e+00 -2.162164e-01 5.645749e-01 -2.376374e+00 -7.234465e+00 -6.566688e+00 -1.702605e+00 4.357490e+00
<VARIANCE> 12
 1.179644e+00 4.999087e-01 3.633465e+00 8.935285e-01 5.789774e+00 1.189989e+00 1.038926e-01 2.979866e+00 1.331648e+00 8.752711e+00 3.399073e+00 2.800576e+00
<GCONST> 2.817065e+01
<TRANSP> 5
 0.000000e+00 1.000000e+00 0.000000e+00 0.000000e+00 0.000000e+00
 0.000000e+00 7.999079e-01 2.000921e-01 0.000000e+00 0.000000e+00
 0.000000e+00 0.000000e+00 6.930699e-01 3.069300e-01 0.000000e+00
 0.000000e+00 0.000000e+00 0.000000e+00 6.141810e-01 3.858190e-01
 0.000000e+00 0.000000e+00 0.000000e+00 0.000000e+00 0.000000e+00
<ENDHMM>
~h "E"
<BEGINHMM>
<NUMSTATES> 5
<STATE> 2
<NUMMIXES> 3
<MIXTURE> 1 1.000000e+00
<MEAN> 12
 -3.650599e+00 -4.366884e+00 5.261412e+00 8.067808e-02 -1.199067e+01 -1.328396e+01 -1.275531e+01 2.482516e+00 -2.026713e+00 -5.806464e+00 3.582558e+00 -4.081251e+00
<VARIANCE> 12
 1.383257e+01 1.564726e+01 3.624677e+01 2.621316e+01 4.529140e+01 3.146444e+01 4.475397e+01 4.133524e+01 2.247159e+01 3.075276e+01 3.341053e+01 1.894811e+01
<GCONST> 6.206213e+01
<STATE> 3
<NUMMIXES> 3
<MIXTURE> 1 1.109292e-01
<MEAN> 12
 -6.390749e+00 1.936102e+00 2.051323e+00 5.756288e-01 -9.582974e+00 -1.699594e+01 -1.286354e+01 -3.911919e+00 -1.809316e+00 -6.574965e+00 3.896619e+00 6.159736e+00
<VARIANCE> 12
 1.418741e+01 1.263544e+01 1.908970e+01 7.407684e+00 1.796349e+01 5.620557e+01 3.276026e+01 1.341994e+01 1.626437e+01 5.302707e+01 3.292835e+01 4.492723e+01
<GCONST> 5.925752e+01
<MIXTURE> 2 8.032360e-01
<MEAN> 12
 -3.698253e+00 -7.229833e+00 4.960573e+00 -4.515893e+00 -1.356730e+01 -1.546303e+01 -1.477836e+01 8.097511e+00 -1.564201e+00 -3.322780e+00 4.777170e+00 -6.721331e+00
<VARIANCE> 12
 5.230881e+00 9.487314e+00 3.334546e+01 1.644632e+01 2.247077e+01 2.507481e+01 2.746733e+01 2.907444e+01 2.916208e+01 2.535953e+01 2.366368e+01 1.778183e+01
<GCONST> 5.793116e+01
<MIXTURE> 3 8.583467e-02
<MEAN> 12
 -2.003653e+01 -3.653230e+00 -2.590622e+00 -1.882464e+00 5.489072e+00 6.790519e+00 6.648522e+00 4.224764e+00 6.611562e+00 9.491956e-01 3.126481e-01 -4.755964e-01
<VARIANCE> 12
 1.089837e+01 1.320845e+01 7.799142e+00 2.218257e+01 1.217043e+01 2.462763e+01 1.542956e+01 2.717742e+01 2.401116e+01 9.963367e+00 1.802602e+01 4.695209e+00
<GCONST> 5.383466e+01
<STATE> 4
<NUMMIXES> 3
<MIXTURE> 2 1.000000e+00
<MEAN> 12
 -2.884166e+00 -4.777017e+00 8.357423e+00 5.403825e-01 -1.314281e+01 -1.200901e+01 -1.371412e+01 6.147229e+00 -4.364027e+00 -6.397753e+00 5.402079e+00 -5.315133e+00
<VARIANCE> 12
 1.543214e+01 2.453143e+01 6.305468e+01 2.387716e+01 6.607077e+01 5.589682e+01 7.034395e+01 5.544893e+01 3.654775e+01 3.968748e+01 4.484414e+01 2.879530e+01
<GCONST> 6.623401e+01
<TRANSP> 5
 0.000000e+00 1.000000e+00 0.000000e+00 0.000000e+00 0.000000e+00
 0.000000e+00 7.964456e-02 9.203554e-01 0.000000e+00 0.000000e+00
 0.000000e+00 0.000000e+00 7.872431e-01 2.127569e-01 0.000000e+00
 0.000000e+00 0.000000e+00 0.000000e+00 3.636504e-01 6.363496e-01
 0.000000e+00 0.000000e+00 0.000000e+00 0.000000e+00 0.000000e+00
<ENDHMM>
~h "H"
<BEGINHMM>
<NUMSTATES> 5
<STATE> 2
<NUMMIXES> 3
<MIXTURE> 2 1.000000e+00
<MEAN> 12
 -8.253842e+00 -1.477146e+00 7.979105e+00 3.446857e+00 -3.978843e+00 -5.315183e+00 -7.682199e+00 -2.914052e+00 -9.183572e-01 -4.856256e+00 -2.985693e-01 -1.898375e+00
<VARIANCE> 12
 6.204630e+01 5.004408e+01 4.712502e+01 2.117407e+01 4.176192e+01 1.848789e+01 5.918816e+01 3.730743e+01 1.876252e+01 5.372184e+01 5.395271e+01 3.066860e+01
<GCONST> 6.567693e+01
<STATE> 3
<NUMMIXES> 3
<MIXTURE> 3 1.000000e+00
<MEAN> 12
 -6.482728e+00 -2.280605e+00 9.649804e+00 4.256376e+00 -5.387859e+00 -6.022228e+00 -8.131728e+00 -2.083255e+00 -2.971127e+00 -6.929321e+00 9.194608e-01 -2.774264e+00
<VARIANCE> 12
 4.454180e+01 3.960939e+01 7.036713e+01 3.331313e+01 5.756408e+01 2.498215e+01 6.429747e+01 4.644073e+01 1.197091e+01 6.638348e+01 4.465413e+01 1.653760e+01
<GCONST> 6.584496e+01
<STATE> 4
<NUMMIXES> 3
<MIXTURE> 2 1.000000e+00
<MEAN> 12
 -4.992814e+00 -3.777148e+00 1.110207e+01 4.406455e+00 -6.552182e+00 -1.078915e+01 -1.135860e+01 -2.009040e+00 -3.424874e+00 -8.320213e+00 1.658089e+00 -2.087594e+00
<VARIANCE> 12
 1.995535e+01 1.625591e+01 8.096725e+01 2.196574e+01 5.692399e+01 3.164141e+01 2.023809e+01 3.438701e+01 1.879272e+01 5.411216e+01 5.108833e+01 8.926694e+00
<GCONST> 6.240857e+01
<TRANSP> 5
 0.000000e+00 1.000000e+00 0.000000e+00 0.000000e+00 0.000000e+00
 0.000000e+00 0.000000e+00 1.000000e+00 0.000000e+00 0.000000e+00
 0.000000e+00 0.000000e+00 0.000000e+00 1.000000e+00 0.000000e+00
 0.000000e+00 0.000000e+00 0.000000e+00 0.000000e+00 1.000000e+00
 0.000000e+00 0.000000e+00 0.000000e+00 0.000000e+00 0.000000e+00
<ENDHMM>
~h "J"
<BEGINHMM>
<NUMSTATES> 5
<STATE> 2
<NUMMIXES> 3
<MIXTURE> 2 5.000018e-01
<MEAN> 12
 -7.475713e+00 -2.688300e+00 -6.097168e+00 4.099230e+00 1.555413e+00 -4.628608e+00 -1.056023e+00 5.538416e+00 4.318200e-01 -1.959486e+00 4.775578e+00 3.077718e+00
<VARIANCE> 12
 1.414757e+01 8.016191e+00 4.046053e+01 4.459158e+00 1.120264e+01 1.043558e+01 6.367818e-01 1.960013e+01 6.848085e+00 2.420299e+01 8.906233e+00 1.479346e+01
<GCONST> 4.925779e+01
<MIXTURE> 3 4.999982e-01
<MEAN> 12
 -7.271146e+00 -2.808324e-01 -6.460949e+00 6.163529e+00 1.088252e+01 3.780745e+00 -2.044149e+00 -4.115190e+00 -7.810629e+00 -4.702515e+00 4.571571e+00 6.726378e+00
<VARIANCE> 12
 2.223452e-02 4.666408e-01 5.997179e-01 4.009773e+00 1.488457e+01 1.687330e+00 4.539265e+00 6.156781e+00 1.698560e+00 1.343030e+00 4.081764e-01 1.238741e-01
<GCONST> 2.275762e+01
<STATE> 3
<NUMMIXES> 3
<MIXTURE> 2 5.000001e-01
<MEAN> 12
 -8.883667e+00 -5.312576e-01 -5.564061e+00 1.386641e+00 -6.325188e-01 -4.131332e+00 -1.757375e+00 3.970781e+00 2.243555e+00 3.150229e-01 2.352447e+00 1.656445e+00
<VARIANCE> 12
 2.379587e+01 3.972846e-03 4.398708e+01 8.412842e+00 7.393653e+00 1.303364e+01 9.070606e-01 1.804808e+01 7.782838e+00 1.632195e+01 2.160815e+00 1.278278e+00
<GCONST> 3.883350e+01
<MIXTURE> 3 5.000000e-01
<MEAN> 12
 -5.646266e+00 7.575459e-01 -7.308823e+00 4.509138e+00 1.610857e-01 -6.353365e+00 -2.354226e+00 4.253871e+00 9.546893e-01 -1.424641e+00 4.309462e+00 6.969582e-01
<VARIANCE> 12
 3.837887e-05 2.097822e-02 5.359526e-01 2.173439e-01 4.395014e+00 5.697746e-01 2.034744e-01 5.241911e-03 9.928387e-01 5.699391e+00 1.245256e-01 5.804598e-02
<GCONST> -3.249651e+00
<STATE> 4
<NUMMIXES> 3
<MIXTURE> 2 1.000000e+00
<MEAN> 12
 -5.394178e+00 1.941959e+00 -5.552109e+00 3.334675e-01 -1.313978e+00 -2.817291e+00 -4.358813e+00 -2.187390e-01 1.800747e+00 -5.240827e-01 1.708704e+00 3.825574e+00
<VARIANCE> 12
 1.071065e+00 2.300573e-05 5.820804e+00 1.653004e+01 1.475200e+01 2.810616e+01 1.741611e+00 4.703091e+01 1.764372e+01 3.314308e+00 9.034796e+00 1.362504e-02
<GCONST> 2.841688e+01
<TRANSP> 5
 0.000000e+00 1.000000e+00 0.000000e+00 0.000000e+00 0.000000e+00
 0.000000e+00 5.000001e-01 4.999999e-01 0.000000e+00 0.000000e+00
 0.000000e+00 0.000000e+00 2.500001e-01 7.499999e-01 0.000000e+00
 0.000000e+00 0.000000e+00 0.000000e+00 0.000000e+00 1.000000e+00
 0.000000e+00 0.000000e+00 0.000000e+00 0.000000e+00 0.000000e+00
<ENDHMM>
~h "O"
<BEGINHMM>
<NUMSTATES> 5
<STATE> 2
<NUMMIXES> 3
<MIXTURE> 1 1.000000e+00
<MEAN> 12
 -4.789439e+00 -5.753734e-01 -9.679013e-01 -4.721866e+00 -1.212602e+00 -4.860063e+00 -1.062436e+01 -3.026734e+00 -4.091757e+00 -5.817574e-01 3.931737e+00 -9.962543e-01
<VARIANCE> 12
 9.309107e+00 5.904200e+00 1.595625e+01 2.349538e+01 4.379522e+01 2.459170e+01 3.074696e+01 1.253286e+01 3.624674e+01 4.711836e+01 7.031699e+00 1.849319e+01
<GCONST> 5.723476e+01
<STATE> 3
<NUMMIXES> 3
<MIXTURE> 2 1.000000e+00
<MEAN> 12
 -2.089405e+00 -4.414799e-01 -1.385636e+00 -1.050946e+01 -6.789217e+00 -8.114616e-01 -1.223761e+01 -7.302894e+00 -5.956888e+00 -3.359075e+00 1.298993e+01 1.569882e+00
<VARIANCE> 12
 1.258133e+01 6.894416e+00 2.298498e+01 1.736268e+01 2.278499e+01 2.405353e+01 2.041243e+01 4.294263e+01 2.470712e+01 1.586288e+01 2.166184e+01 7.081215e+01
<GCONST> 5.889567e+01
<STATE> 4
<NUMMIXES> 3
<MIXTURE> 2 1.000000e+00
<MEAN> 12
 2.913105e+00 -8.561767e+00 -4.629004e+00 -1.524374e+01 -1.397480e+00 -4.465746e+00 -1.367142e+01 6.106504e+00 -8.461828e+00 -3.002263e+00 1.822643e+01 -9.776917e+00
<VARIANCE> 12
 1.170513e+01 1.311996e+01 2.231164e+01 3.340604e+01 1.744709e+01 2.145062e+01 5.814846e+01 2.469691e+01 3.678783e+01 1.974943e+01 3.818257e+01 2.487121e+01
<GCONST> 6.034152e+01
<TRANSP> 5
 0.000000e+00 1.000000e+00 0.000000e+00 0.000000e+00 0.000000e+00
 0.000000e+00 6.146546e-17 1.000000e+00 0.000000e+00 0.000000e+00
 0.000000e+00 0.000000e+00 5.514396e-01 4.485604e-01 0.000000e+00
 0.000000e+00 0.000000e+00 0.000000e+00 8.535131e-01 1.464870e-01
 0.000000e+00 0.000000e+00 0.000000e+00 0.000000e+00 0.000000e+00
<ENDHMM>
~h "R"
<BEGINHMM>
<NUMSTATES> 5
<STATE> 2
<NUMMIXES> 3
<MIXTURE> 1 3.537021e-01
<MEAN> 12
 -1.399714e+01 -5.939954e+00 -4.288847e-01 -1.084784e+00 6.038322e+00 5.521261e-01 1.338211e+00 2.611750e+00 3.637752e+00 4.192839e+00 3.360839e+00 -1.606219e+00
<VARIANCE> 12
 2.776744e+01 2.045830e+01 1.735079e+01 1.640470e+01 1.940219e+01 5.545941e+01 4.135802e+01 2.365498e+01 3.226956e+01 3.543549e+01 3.080817e+01 3.852663e+01
<GCONST> 6.203583e+01
<MIXTURE> 2 1.588536e-01
<MEAN> 12
 -5.006053e+00 -6.570007e+00 9.766182e+00 -4.542351e+00 -1.344773e+01 -1.920131e+01 -1.470207e+01 3.041768e+00 -3.296531e+00 -1.096120e+01 6.267809e+00 -6.380836e+00
<VARIANCE> 12
 2.363836e+00 6.100183e+00 2.423324e+01 3.939883e+00 2.182617e+01 1.751476e+01 2.851690e+01 2.158452e+01 3.639389e+01 2.623031e+01 3.928889e+01 1.341250e+01
<GCONST> 5.477908e+01
<MIXTURE> 3 4.874436e-01
<MEAN> 12
 -1.784935e-01 -5.344742e+00 -4.105114e+00 -1.418966e+01 -4.971711e+00 -1.654731e+00 -9.738757e+00 2.376798e+00 -6.440506e+00 -3.115125e+00 8.347090e+00 -4.692612e+00
<VARIANCE> 12
 1.116544e+01 2.611617e+01 1.805626e+01 3.608441e+01 3.201469e+01 3.452668e+01 5.045465e+01 6.163552e+01 6.626933e+01 5.282548e+01 7.469212e+01 6.059295e+01
<GCONST> 6.583777e+01
<STATE> 3
<NUMMIXES> 3
<MIXTURE> 1 1.826409e-01
<MEAN> 12
 -1.705074e+01 -6.348945e+00 -3.428645e+00 -3.188564e+00 9.324952e+00 2.522897e+00 2.805466e+00 -2.120236e-01 1.496504e+00 6.478796e+00 8.831789e+00 -2.924472e+00
<VARIANCE> 12
 8.727994e+00 9.070292e+00 1.173762e+01 1.293479e+01 2.268831e+01 2.108711e+01 1.637940e+01 2.152420e+01 1.806146e+01 2.391439e+01 2.043922e+01 1.678665e+01
<GCONST> 5.539080e+01
<MIXTURE> 2 3.567767e-01
<MEAN> 12
 -6.061438e-01 -5.873819e+00 -1.806776e+00 -1.013847e+01 -6.243667e+00 -4.072546e+00 -1.739296e+01 1.055703e+00 -5.189564e+00 9.963229e-01 1.240503e+01 -8.895687e+00
<VARIANCE> 12
 6.213868e+00 1.307837e+01 3.404845e+01 2.608470e+01 1.296581e+01 3.383968e+01 3.901855e+01 4.075291e+01 7.786798e+01 2.181934e+01 4.818346e+01 3.702728e+01
<GCONST> 6.162140e+01
<MIXTURE> 3 4.605829e-01
<MEAN> 12
 -3.670936e+00 -1.044910e+00 -3.786141e+00 -1.354515e+01 -5.937937e-01 8.075117e-01 1.225641e+00 1.902232e-02 -5.841830e+00 -3.538249e+00 6.925419e+00 -3.283810e+00
<VARIANCE> 12
 3.026930e+01 2.368679e+01 1.361201e+01 4.181911e+01 2.528691e+01 2.646410e+01 1.892444e+01 3.999551e+01 5.551624e+01 4.146292e+01 3.335022e+01 2.226129e+01
<GCONST> 6.246056e+01
<STATE> 4
<NUMMIXES> 3
<MIXTURE> 1 2.159361e-02
<MEAN> 12
 -2.014766e+01 1.038654e+00 -3.295871e+00 2.636123e+00 5.630835e+00 3.825490e+00 5.072817e+00 7.954650e+00 1.028321e+01 5.737892e+00 7.836252e+00 2.269602e+00
<VARIANCE> 12
 4.104357e+00 2.151765e+00 1.612615e+01 2.166124e+00 9.897964e+00 1.240751e+01 2.605769e+01 9.880663e+00 2.955806e+00 6.805560e+00 5.323233e+00 1.368822e+01
<GCONST> 4.543790e+01
<MIXTURE> 2 4.423266e-01
<MEAN> 12
 -1.793411e+00 -2.345826e+00 -1.745967e+00 -7.636221e+00 -2.663135e+00 -5.876311e+00 -9.841694e+00 2.468533e+00 -5.015810e+00 3.079834e+00 5.775363e+00 -7.073178e+00
<VARIANCE> 12
 1.464501e+01 2.965417e+01 3.065933e+01 3.673536e+01 3.216116e+01 3.769621e+01 7.539027e+01 3.282504e+01 5.852879e+01 6.747443e+01 6.258075e+01 3.166305e+01
<GCONST> 6.594196e+01
<MIXTURE> 3 5.360798e-01
<MEAN> 12
 -1.173209e+01 -2.340311e+00 1.083814e+00 1.181673e+00 2.941272e+00 1.103937e-01 -2.335990e+00 1.473062e+00 1.402530e+00 2.427907e+00 -3.250655e-01 -3.658791e-01
<VARIANCE> 12
 1.584065e+01 1.382472e+01 1.723341e+01 1.578859e+01 1.948768e+01 2.591314e+01 2.500992e+01 2.356254e+01 2.008182e+01 2.238284e+01 2.472314e+01 1.873242e+01
<GCONST> 5.789927e+01
<TRANSP> 5
 0.000000e+00 1.000000e+00 0.000000e+00 0.000000e+00 0.000000e+00
 0.000000e+00 4.915157e-01 5.084844e-01 0.000000e+00 0.000000e+00
 0.000000e+00 0.000000e+00 6.987015e-01 3.012985e-01 0.000000e+00
 0.000000e+00 0.000000e+00 0.000000e+00 6.819396e-01 3.180604e-01
 0.000000e+00 0.000000e+00 0.000000e+00 0.000000e+00 0.000000e+00
<ENDHMM>
~h "S"
<BEGINHMM>
<NUMSTATES> 5
<STATE> 2
<NUMMIXES> 3
<MIXTURE> 1 1.000000e+00
<MEAN> 12
 -2.450834e+01 -7.079609e+00 4.990287e+00 -1.463519e+00 1.516560e+00 -6.572395e+00 -8.639181e-02 -4.118141e+00 5.175695e+00 -1.690089e-01 2.765604e-01 -3.854302e-01
<VARIANCE> 12
 4.247433e+01 4.022288e+01 3.222819e+01 2.257279e+01 3.449425e+01 2.770456e+01 2.375235e+01 2.821710e+01 3.057296e+01 2.243111e+01 2.014884e+01 2.580909e+01
<GCONST> 6.224189e+01
<STATE> 3
<NUMMIXES> 3
<MIXTURE> 1 1.000000e+00
<MEAN> 12
 -1.013961e+01 5.484636e-02 5.099074e+00 -3.316468e+00 -2.185714e-01 -6.719587e+00 -2.551300e+00 -3.084512e+00 -8.261418e-01 -2.612065e+00 1.437667e+00 -3.379248e+00
<VARIANCE> 12
 2.839274e+01 6.662489e+00 2.369807e+01 3.849076e+01 1.427358e+01 1.562915e+01 5.065518e+01 3.876570e+01 4.404629e+01 2.123815e+01 6.183659e+00 4.093380e+01
<GCONST> 5.947799e+01
<STATE> 4
<NUMMIXES> 3
<MIXTURE> 1 1.000000e+00
<MEAN> 12
 -2.826632e+00 -8.427185e-01 1.037651e+00 -5.623520e+00 -2.957929e+00 -8.228070e+00 -5.127169e+00 -1.269385e-01 -1.613131e+00 -4.104248e+00 2.292778e+00 -4.502263e+00
<VARIANCE> 12
 3.769099e+01 8.372601e+00 2.864677e+01 4.833305e+01 4.235359e+00 4.127944e+01 2.358525e+01 4.856820e+01 6.492094e+01 1.377271e+01 1.957589e+01 3.204501e+01
<GCONST> 6.048679e+01
<TRANSP> 5
 0.000000e+00 1.000000e+00 0.000000e+00 0.000000e+00 0.000000e+00
 0.000000e+00 8.421440e-01 1.578560e-01 0.000000e+00 0.000000e+00
 0.000000e+00 0.000000e+00 1.201829e-16 1.000000e+00 0.000000e+00
 0.000000e+00 0.000000e+00 0.000000e+00 8.742416e-29 1.000000e+00
 0.000000e+00 0.000000e+00 0.000000e+00 0.000000e+00 0.000000e+00
<ENDHMM>
~h "Z"
<BEGINHMM>
<NUMSTATES> 5
<STATE> 2
<NUMMIXES> 3
<MIXTURE> 2 1.000000e+00
<MEAN> 12
 -1.386378e+01 1.598004e+00 8.791516e+00 2.158439e+00 5.980671e-01 -9.449938e+00 -5.903450e+00 -1.074418e+01 2.929273e+00 -3.130469e+00 -1.174778e+00 -6.839722e-01
<VARIANCE> 12
 2.575612e+01 6.805449e+00 4.526694e+01 2.675984e+01 2.615797e+01 3.607939e+01 2.463559e+01 2.452809e+01 2.368735e+01 1.854927e+01 1.458775e+01 1.260647e+01
<GCONST> 5.887405e+01
<STATE> 3
<NUMMIXES> 3
<MIXTURE> 1 1.000000e+00
<MEAN> 12
 -7.171875e+00 1.246400e+00 2.483410e+00 -2.811504e+00 -1.449878e+00 -9.408882e+00 -1.008975e+01 -1.117801e+01 1.353247e+00 -2.718598e+00 4.882389e-02 -8.693196e-01
<VARIANCE> 12
 3.553235e+01 1.715254e+01 2.967018e+01 1.360387e+01 2.106526e+01 3.948478e+01 3.115581e+01 5.050804e+01 6.021861e+01 1.302477e+01 2.574293e+01 1.697287e+01
<GCONST> 6.129689e+01
<STATE> 4
<NUMMIXES> 3
<MIXTURE> 2 1.000000e+00
<MEAN> 12
 -3.759083e+00 -1.095903e+00 2.132007e+00 -2.615509e+00 -5.258150e+00 -7.473091e+00 -1.188294e+01 -9.365559e+00 2.563507e-01 -3.945527e+00 2.998834e+00 -7.737575e-01
<VARIANCE> 12
 3.672285e+01 3.186685e+01 3.006116e+01 2.560973e+01 2.714560e+01 3.822247e+01 3.303911e+01 7.302605e+01 6.717534e+01 3.893154e+01 4.264389e+01 3.482721e+01
<GCONST> 6.567124e+01
<TRANSP> 5
 0.000000e+00 1.000000e+00 0.000000e+00 0.000000e+00 0.000000e+00
 0.000000e+00 8.125385e-01 1.874615e-01 0.000000e+00 0.000000e+00
 0.000000e+00 0.000000e+00 2.781380e-02 9.721862e-01 0.000000e+00
 0.000000e+00 0.000000e+00 0.000000e+00 1.310745e-04 9.998689e-01
 0.000000e+00 0.000000e+00 0.000000e+00 0.000000e+00 0.000000e+00
<ENDHMM>
~h "a"
<BEGINHMM>
<NUMSTATES> 5
<STATE> 2
<NUMMIXES> 3
<MIXTURE> 1 3.024813e-01
<MEAN> 12
 -6.297957e-01 -4.910543e+00 -7.586849e+00 -1.200122e+01 -1.779102e+00 1.522737e+00 -6.181932e+00 1.430280e+00 1.031981e+00 2.415826e+00 1.820153e+00 -1.251107e+01
<VARIANCE> 12
 1.891755e+01 1.499759e+01 2.933488e+01 2.511026e+01 1.674000e+01 5.717218e+01 3.124465e+01 2.509305e+01 2.250397e+01 2.084021e+01 2.442074e+01 4.467345e+01
<GCONST> 6.097826e+01
<MIXTURE> 2 2.740142e-01
<MEAN> 12
 -8.285603e-01 -8.743280e+00 -1.124924e+00 -6.359921e+00 -9.928796e+00 -1.149760e+01 -1.541181e+01 7.951838e+00 2.783170e+00 -2.833038e+00 7.314305e+00 -1.051045e+01
<VARIANCE> 12
 6.019818e+00 1.110168e+01 4.457792e+01 2.042574e+01 2.645450e+01 4.254373e+01 3.520874e+01 3.896697e+01 2.965732e+01 4.330596e+01 6.809891e+01 4.295608e+01
<GCONST> 6.245982e+01
<MIXTURE> 3 4.235038e-01
<MEAN> 12
 1.790081e+00 -1.197944e+01 -8.004364e+00 -1.625718e+01 4.473433e+00 -4.289640e+00 -7.157426e+00 9.107079e+00 -1.009970e+01 3.609457e+00 9.109839e+00 -1.279765e+01
<VARIANCE> 12
 4.928239e+00 1.114153e+01 1.149014e+01 1.747310e+01 1.966758e+01 2.335836e+01 3.307257e+01 1.893329e+01 2.276013e+01 2.183163e+01 5.446254e+01 3.484281e+01
<GCONST> 5.768862e+01
<STATE> 3
<NUMMIXES> 3
<MIXTURE> 1 2.108841e-02
<MEAN> 12
 3.892238e-01 -1.475747e+01 7.981597e+00 -6.434915e+00 -1.551296e+01 -8.092227e+00 -1.990848e+01 9.266753e+00 1.289655e+01 -6.232124e+00 1.248006e+01 -1.166883e+01
<VARIANCE> 12
 5.799845e+00 5.136761e+00 1.338810e+01 3.653297e+00 2.495685e+00 2.093603e+01 1.107152e+01 9.898828e+00 2.482689e+01 1.287119e+01 1.957047e+00 3.041440e+00
<GCONST> 4.554229e+01
<MIXTURE> 2 9.789116e-01
<MEAN> 12
 -1.142369e+00 -9.003393e+00 -5.822731e+00 -9.262136e+00 -4.789309e+00 -7.341813e+00 -1.201347e+01 9.171325e+00 2.055500e+00 1.936175e+00 2.329773e+00 -1.499213e+01
<VARIANCE> 12
 9.220086e+00 1.322021e+01 2.140411e+01 1.769018e+01 2.126352e+01 4.008590e+01 3.599710e+01 4.546431e+01 4.623918e+01 3.012953e+01 3.539186e+01 3.084130e+01
<GCONST> 6.117731e+01
<STATE> 4
<NUMMIXES> 3
<MIXTURE> 1 3.933675e-01
<MEAN> 12
 -5.622797e+00 -1.722421e+00 -1.956952e+00 -4.264004e+00 -7.703158e-01 -6.830618e+00 -1.998846e+00 2.127744e+00 1.497246e-02 3.618807e+00 -1.064242e+00 -6.393335e+00
<VARIANCE> 12
 5.857561e+01 2.246719e+01 1.109408e+01 1.687532e+01 3.264630e+01 4.638945e+01 2.932108e+01 3.983132e+01 3.447953e+01 2.008014e+01 1.897571e+01 1.636878e+01
<GCONST> 6.113356e+01
<MIXTURE> 2 5.291150e-01
<MEAN> 12
 -7.482947e-01 -7.908053e+00 4.894706e-01 -5.325588e+00 -7.622860e+00 -1.154920e+01 -1.324579e+01 8.616391e+00 -1.787874e+00 2.147554e+00 1.251600e+00 -9.354524e+00
<VARIANCE> 12
 7.124213e+00 1.580657e+01 2.922166e+01 2.866928e+01 3.220382e+01 4.516594e+01 4.181554e+01 7.889941e+01 4.841680e+01 3.322101e+01 6.937113e+01 2.689636e+01
<GCONST> 6.380755e+01
<MIXTURE> 3 7.751701e-02
<MEAN> 12
 -9.927711e+00 -2.399982e-01 3.525879e+00 -2.462827e+00 -2.635828e+00 -9.180695e+00 -1.410898e+01 -1.143587e+01 -8.729694e-01 -3.815629e+00 5.942970e-02 -4.185558e+00
<VARIANCE> 12
 1.206046e+01 4.632415e+00 1.162450e+01 1.094786e+01 1.127154e+01 1.442841e+01 6.195027e+01 1.650486e+01 6.716120e+01 3.279058e+01 3.605886e+01 7.023127e+00
<GCONST> 5.617686e+01
<TRANSP> 5
 0.000000e+00 1.000000e+00 0.000000e+00 0.000000e+00 0.000000e+00
 0.000000e+00 6.859401e-01 3.140598e-01 0.000000e+00 0.000000e+00
 0.000000e+00 0.000000e+00 6.587943e-01 3.412057e-01 0.000000e+00
 0.000000e+00 0.000000e+00 0.000000e+00 4.924233e-01 5.075767e-01
 0.000000e+00 0.000000e+00 0.000000e+00 0.000000e+00 0.000000e+00
<ENDHMM>
~h "b"
<BEGINHMM>
<NUMSTATES> 5
<STATE> 2
<NUMMIXES> 3
<MIXTURE> 2 1.000000e+00
<MEAN> 12
 3.076447e+00 -2.286643e+00 5.416918e+00 1.075928e+00 -2.319866e+00 -4.625129e-01 -1.467695e+01 -2.845255e+00 -3.280743e+00 -7.532859e+00 4.690751e+00 -3.988130e+00
<VARIANCE> 12
 2.761151e+01 4.149073e+01 1.732693e+01 3.321782e+01 8.616230e+00 4.088345e+01 8.900249e+01 1.308958e+01 4.238857e+01 2.691073e+01 3.011153e+01 3.781927e+01
<GCONST> 6.245556e+01
<STATE> 3
<NUMMIXES> 3
<MIXTURE> 2 1.000000e+00
<MEAN> 12
 4.343914e+00 1.022659e+00 5.263451e+00 2.642434e+00 -5.971516e-01 -1.507111e+00 -1.214277e+01 -3.209959e+00 -3.959170e+00 -7.144422e+00 3.502321e+00 -4.863086e+00
<VARIANCE> 12
 2.951974e+01 3.034437e+01 1.481482e+01 3.665109e+01 1.259293e+01 2.301514e+01 4.866424e+01 2.252677e+01 4.115111e+01 3.147807e+01 1.805679e+01 4.247060e+01
<GCONST> 6.162708e+01
<STATE> 4
<NUMMIXES> 3
<MIXTURE> 2 1.000000e+00
<MEAN> 12
 5.746408e+00 4.482107e+00 5.463665e+00 3.935803e+00 2.405694e+00 -7.725289e-01 -1.102373e+01 -5.504756e+00 -4.033966e+00 -7.429608e+00 2.800594e+00 -3.667233e+00
<VARIANCE> 12
 2.446541e+01 1.218391e+01 8.168561e+00 1.995263e+01 1.994894e+01 1.901719e+01 3.316337e+01 2.990937e+01 4.227988e+01 4.350650e+01 2.344867e+01 4.218694e+01
<GCONST> 6.009784e+01
<TRANSP> 5
 0.000000e+00 1.000000e+00 0.000000e+00 0.000000e+00 0.000000e+00
 0.000000e+00 0.000000e+00 1.000000e+00 0.000000e+00 0.000000e+00
 0.000000e+00 0.000000e+00 1.146510e-38 1.000000e+00 0.000000e+00
 0.000000e+00 0.000000e+00 0.000000e+00 7.114439e-01 2.885561e-01
 0.000000e+00 0.000000e+00 0.000000e+00 0.000000e+00 0.000000e+00
<ENDHMM>
~h "d"
<BEGINHMM>
<NUMSTATES> 5
<STATE> 2
<NUMMIXES> 3
<MIXTURE> 2 1.000000e+00
<MEAN> 12
 -1.846303e+00 2.420325e+00 7.220857e+00 1.368623e+00 -4.091443e+00 -7.143443e+00 -7.418247e+00 -5.164791e+00 -3.033198e+00 -3.157288e+00 -1.037251e+00 -9.096797e+00
<VARIANCE> 12
 3.767003e+01 2.558249e+01 3.803928e+01 2.424870e+01 4.735431e+01 5.844785e+01 5.387952e+01 4.752928e+01 3.163064e+01 2.924122e+01 3.401004e+01 3.875878e+01
<GCONST> 6.553989e+01
<STATE> 3
<NUMMIXES> 3
<MIXTURE> 3 1.000000e+00
<MEAN> 12
 -1.619686e+00 5.281896e+00 9.261505e+00 1.438970e+00 -1.886626e+00 -6.362174e+00 -8.282593e+00 -1.240417e+00 -1.412878e+00 -4.434328e+00 -2.175747e+00 -7.831183e+00
<VARIANCE> 12
 3.934835e+01 2.778464e+01 2.164105e+01 2.057929e+01 2.301609e+01 3.732687e+01 2.459027e+01 3.133520e+01 1.637190e+01 2.023007e+01 2.771558e+01 2.279760e+01
<GCONST> 6.080473e+01
<STATE> 4
<NUMMIXES> 3
<MIXTURE> 1 9.812790e-01
<MEAN> 12
 -6.913063e+00 1.834276e-01 8.211061e+00 5.031057e-01 -4.190538e+00 -8.447891e+00 -1.140846e+01 -4.551523e+00 -2.128472e+00 -6.316331e+00 -7.752001e-01 -4.245589e+00
<VARIANCE> 12
 2.124809e+01 3.301952e+01 4.108913e+01 2.565900e+01 3.206097e+01 4.568843e+01 3.563474e+01 3.144108e+01 2.283208e+01 2.996731e+01 4.949493e+01 2.821037e+01
<GCONST> 6.364929e+01
<MIXTURE> 3 1.872114e-02
<MEAN> 12
 -9.261369e+00 -2.724572e+00 5.513113e+00 2.758279e+00 4.434477e+00 3.165068e+00 -2.786103e+00 -7.782294e-01 -5.190075e+00 -8.839345e+00 -4.843982e+00 -4.494595e+00
<VARIANCE> 12
 1.091065e+00 1.859988e-01 9.366591e-02 1.421105e-01 2.243635e-01 2.207074e+00 4.444347e+00 2.604418e-03 6.801432e-01 2.053191e+00 5.566797e-01 4.558712e-03
<GCONST> 5.336223e+00
<TRANSP> 5
 0.000000e+00 1.000000e+00 0.000000e+00 0.000000e+00 0.000000e+00
 0.000000e+00 3.370393e-10 1.000000e+00 0.000000e+00 0.000000e+00
 0.000000e+00 0.000000e+00 5.209770e-01 4.790230e-01 0.000000e+00
 0.000000e+00 0.000000e+00 0.000000e+00 2.980013e-01 7.019987e-01
 0.000000e+00 0.000000e+00 0.000000e+00 0.000000e+00 0.000000e+00
<ENDHMM>
~h "e"
<BEGINHMM>
<NUMSTATES> 5
<STATE> 2
<NUMMIXES> 3
<MIXTURE> 1 1.000000e+00
<MEAN> 12
 -6.176569e+00 -1.783432e+00 7.551000e+00 1.430283e+00 -1.009516e+01 -1.016543e+01 -1.060419e+01 -6.102200e-01 -1.839754e+00 -7.397168e+00 2.450655e+00 -1.282516e+00
<VARIANCE> 12
 4.412916e+01 4.061974e+01 4.239420e+01 3.795131e+01 4.095871e+01 6.353904e+01 6.873808e+01 6.159148e+01 3.145469e+01 5.734666e+01 3.365418e+01 3.808968e+01
<GCONST> 6.779800e+01
<STATE> 3
<NUMMIXES> 3
<MIXTURE> 2 1.000000e+00
<MEAN> 12
 -4.626377e+00 -3.902609e+00 1.281673e+01 -8.433443e-01 -1.692135e+01 -1.466191e+01 -1.591104e+01 3.350932e+00 -9.164501e+00 -7.191020e+00 6.272727e+00 -1.708046e+00
<VARIANCE> 12
 6.711912e+00 1.405658e+01 3.425343e+01 2.142751e+01 3.039143e+01 4.310123e+01 4.324434e+01 2.630864e+01 4.648645e+01 3.821796e+01 2.695270e+01 2.668798e+01
<GCONST> 6.147520e+01
<STATE> 4
<NUMMIXES> 3
<MIXTURE> 2 1.000000e+00
<MEAN> 12
 -4.235661e+00 -1.391263e+00 8.602087e+00 1.498662e+00 -9.895486e+00 -1.381853e+01 -1.088585e+01 2.551304e+00 -4.144614e+00 -5.764748e+00 4.455393e+00 -3.372245e+00
<VARIANCE> 12
 1.903932e+01 2.350940e+01 3.645398e+01 2.500979e+01 2.228319e+01 3.793653e+01 5.642051e+01 4.297208e+01 4.290502e+01 3.172975e+01 2.999245e+01 4.404668e+01
<GCONST> 6.390932e+01
<TRANSP> 5
 0.000000e+00 1.000000e+00 0.000000e+00 0.000000e+00 0.000000e+00
 0.000000e+00 6.786366e-01 3.213634e-01 0.000000e+00 0.000000e+00
 0.000000e+00 0.000000e+00 8.080874e-01 1.919126e-01 0.000000e+00
 0.000000e+00 0.000000e+00 0.000000e+00 6.755994e-05 9.999324e-01
 0.000000e+00 0.000000e+00 0.000000e+00 0.000000e+00 0.000000e+00
<ENDHMM>
~h "f"
<BEGINHMM>
<NUMSTATES> 5
<STATE> 2
<NUMMIXES> 3
<MIXTURE> 1 5.758269e-01
<MEAN> 12
 -1.294886e+01 -2.667555e-01 2.192095e+00 4.022363e+00 1.340962e-01 -2.283948e+00 -2.175976e+00 3.794306e-01 1.596841e+00 -5.088425e-01 -1.166420e+00 -1.372600e+00
<VARIANCE> 12
 1.713632e+01 1.583525e+01 2.314239e+01 6.825976e+00 1.843039e+01 1.914664e+01 3.580842e+01 2.387720e+01 2.189059e+01 1.479937e+01 1.420743e+01 1.952782e+01
<GCONST> 5.674384e+01
<MIXTURE> 2 4.241734e-01
<MEAN> 12
 -2.318911e+01 -8.403184e+00 8.653206e-01 1.154123e-01 -3.769817e+00 -3.078730e+00 7.213743e-01 5.145286e+00 4.103023e+00 4.253253e+00 2.922929e+00 2.268846e+00
<VARIANCE> 12
 1.181609e+01 1.989373e+00 7.126031e+00 6.686290e+00 2.062132e+01 1.644291e+01 1.413219e+01 1.716237e+01 2.344532e+01 2.235014e+01 1.977579e+01 8.883162e+00
<GCONST> 5.182314e+01
<STATE> 3
<NUMMIXES> 3
<MIXTURE> 1 8.523990e-01
<MEAN> 12
 -2.111336e+01 -1.053356e+01 -5.980415e+00 -9.149369e-01 -2.013570e+00 -1.182959e-01 -1.757946e+00 1.339159e+00 3.533255e+00 3.685079e+00 3.464369e+00 1.675240e+00
<VARIANCE> 12
 4.387317e+00 4.286438e+00 1.239842e+01 1.107152e+01 1.253453e+01 1.721481e+01 2.354692e+01 2.255861e+01 1.448492e+01 2.022032e+01 1.756549e+01 1.495579e+01
<GCONST> 5.281084e+01
<MIXTURE> 2 1.476010e-01
<MEAN> 12
 -1.512070e+01 -3.555099e+00 -1.515423e+00 1.673779e+00 9.229344e-01 -5.831271e-01 -1.417221e+00 -2.304429e+00 2.234565e+00 -2.046929e+00 1.345151e+00 -7.819159e-02
<VARIANCE> 12
 3.154558e+01 1.600615e+01 3.254361e+01 1.370309e+01 2.774985e+01 4.049685e+01 3.157925e+01 2.486245e+01 2.976411e+01 1.336135e+01 1.802804e+01 1.800936e+01
<GCONST> 5.983794e+01
<STATE> 4
<NUMMIXES> 3
<MIXTURE> 2 1.914699e-01
<MEAN> 12
 -1.871322e+01 -1.033889e+01 -5.967457e+00 -1.327020e+00 8.006235e-01 3.441465e+00 3.248201e+00 4.396102e+00 3.740934e+00 2.914351e+00 4.752212e+00 3.216448e-01
<VARIANCE> 12
 1.928903e+00 1.171351e+00 1.258123e+01 7.473134e+00 1.560836e+00 1.555112e+01 9.718673e+00 3.535572e+00 2.707629e+00 2.120712e+01 7.620874e+00 7.265226e+00
<GCONST> 4.220383e+01
<MIXTURE> 3 8.085299e-01
<MEAN> 12
 -1.207968e+01 -2.164084e+00 6.398201e-01 9.383906e-01 -1.955325e+00 -3.443646e+00 -4.314789e+00 -2.685965e+00 1.218173e-01 -2.677363e+00 -5.142134e-01 -1.818102e+00
<VARIANCE> 12
 2.988401e+01 1.654325e+01 3.690877e+01 1.713259e+01 2.509098e+01 2.349661e+01 2.362150e+01 4.031300e+01 2.584059e+01 2.131613e+01 1.977694e+01 1.456547e+01
<GCONST> 5.992004e+01
<TRANSP> 5
 0.000000e+00 1.000000e+00 0.000000e+00 0.000000e+00 0.000000e+00
 0.000000e+00 6.588955e-01 3.411045e-01 0.000000e+00 0.000000e+00
 0.000000e+00 0.000000e+00 7.490952e-01 2.509048e-01 0.000000e+00
 0.000000e+00 0.000000e+00 0.000000e+00 1.169855e-14 1.000000e+00
 0.000000e+00 0.000000e+00 0.000000e+00 0.000000e+00 0.000000e+00
<ENDHMM>
~h "g"
<BEGINHMM>
<NUMSTATES> 5
<STATE> 2
<NUMMIXES> 3
<MIXTURE> 2 1.000000e+00
<MEAN> 12
 -8.617986e+00 -1.703100e+00 1.544216e+01 5.721962e+00 -6.941132e+00 -1.493893e+01 -1.104087e+01 2.119194e+00 -8.955892e+00 -8.389144e+00 4.905049e+00 -2.260610e+00
<VARIANCE> 12
 2.713754e+01 1.772449e+01 4.144783e+01 6.589390e+00 7.206684e+00 6.858814e+00 5.554102e+01 2.355431e+01 4.166502e+00 2.722885e+01 1.936477e+01 2.286802e+00
<GCONST> 5.343923e+01
<STATE> 3
<NUMMIXES> 3
<MIXTURE> 1 1.000000e+00
<MEAN> 12
 -7.242750e+00 -2.091891e+00 1.481180e+01 4.294119e+00 -9.127679e+00 -1.435840e+01 -1.377925e+01 9.969101e-01 -8.967653e+00 -8.837511e+00 6.228739e+00 8.836621e-01
<VARIANCE> 12
 2.009819e+01 1.132449e+01 4.299049e+01 7.666582e+00 1.528405e+01 4.761054e+00 2.489898e+01 3.874399e+01 4.616452e+00 8.248051e+00 2.287357e+01 7.332510e+00
<GCONST> 5.320096e+01
<STATE> 4
<NUMMIXES> 3
<MIXTURE> 2 1.000000e+00
<MEAN> 12
 -6.248004e+00 -2.672582e+00 1.414425e+01 2.739613e+00 -1.143483e+01 -1.627679e+01 -1.426178e+01 2.335658e+00 -8.146329e+00 -9.198734e+00 5.469180e+00 2.752878e+00
<VARIANCE> 12
 2.671127e+01 1.752234e+01 2.418562e+01 1.154313e+01 1.815823e+01 1.650694e+01 1.288570e+01 3.954856e+01 9.824353e+00 1.630091e+01 1.815046e+01 2.100925e+01
<GCONST> 5.679123e+01
<TRANSP> 5
 0.000000e+00 1.000000e+00 0.000000e+00 0.000000e+00 0.000000e+00
 0.000000e+00 0.000000e+00 1.000000e+00 0.000000e+00 0.000000e+00
 0.000000e+00 0.000000e+00 0.000000e+00 1.000000e+00 0.000000e+00
 0.000000e+00 0.000000e+00 0.000000e+00 0.000000e+00 1.000000e+00
 0.000000e+00 0.000000e+00 0.000000e+00 0.000000e+00 0.000000e+00
<ENDHMM>
~h "i"
<BEGINHMM>
<NUMSTATES> 5
<STATE> 2
<NUMMIXES> 3
<MIXTURE> 2 1.000000e+00
<MEAN> 12
 -1.066786e+01 3.223642e+00 1.351498e+01 3.405360e+00 -6.242412e+00 -1.260666e+01 -1.136997e+01 -4.217354e+00 -2.030212e+00 -1.081959e+01 -9.608588e-01 4.720995e-01
<VARIANCE> 12
 3.364738e+01 3.589217e+01 1.886258e+01 2.380933e+01 2.071544e+01 2.879066e+01 2.930222e+01 2.988940e+01 2.742991e+01 2.566390e+01 2.417619e+01 1.757214e+01
<GCONST> 6.103274e+01
<STATE> 3
<NUMMIXES> 3
<MIXTURE> 2 1.000000e+00
<MEAN> 12
 -8.675736e+00 4.766012e-01 1.536258e+01 2.006766e+00 -8.925906e+00 -1.064272e+01 -1.499978e+01 -2.381444e+00 -3.279567e+00 -1.362818e+01 3.770489e-01 4.543884e-01
<VARIANCE> 12
 2.602818e+01 3.282854e+01 2.554173e+01 2.754651e+01 3.539655e+01 3.674518e+01 3.004213e+01 3.240856e+01 3.669436e+01 3.571215e+01 3.544694e+01 1.961028e+01
<GCONST> 6.313505e+01
<STATE> 4
<NUMMIXES> 3
<MIXTURE> 2 1.000000e+00
<MEAN> 12
 -8.135868e+00 2.162785e-01 1.778365e+01 7.929913e-01 -1.087240e+01 -1.040672e+01 -1.775222e+01 -2.020838e+00 -4.360039e+00 -1.698075e+01 1.471052e+00 -2.820139e-02
<VARIANCE> 12
 1.510699e+01 2.231088e+01 2.353357e+01 2.042288e+01 2.570105e+01 2.726732e+01 3.388401e+01 2.702225e+01 3.135752e+01 3.297712e+01 2.199880e+01 2.075047e+01
<GCONST> 6.048650e+01
<TRANSP> 5
 0.000000e+00 1.000000e+00 0.000000e+00 0.000000e+00 0.000000e+00
 0.000000e+00 4.265774e-01 5.734225e-01 0.000000e+00 0.000000e+00
 0.000000e+00 0.000000e+00 5.956144e-12 1.000000e+00 0.000000e+00
 0.000000e+00 0.000000e+00 0.000000e+00 8.126189e-01 1.873811e-01
 0.000000e+00 0.000000e+00 0.000000e+00 0.000000e+00 0.000000e+00
<ENDHMM>
~h "j"
<BEGINHMM>
<NUMSTATES> 5
<STATE> 2
<NUMMIXES> 3
<MIXTURE> 1 3.051162e-01
<MEAN> 12
 -2.177220e+01 -4.697862e+00 9.312798e+00 2.123452e+00 -6.073350e+00 -2.276987e-02 -5.990453e-01 3.350070e+00 2.694303e+00 6.673189e-01 3.299975e+00 5.114328e-01
<VARIANCE> 12
 3.518388e+01 2.516806e+01 1.320738e+01 5.026337e+01 1.393296e+01 4.157943e+01 3.204429e+01 3.864037e+01 1.337717e+01 1.879801e+01 2.599309e+01 3.310696e+01
<GCONST> 6.110690e+01
<MIXTURE> 3 6.948838e-01
<MEAN> 12
 -5.162195e+00 -5.390258e-01 7.782523e+00 -4.271781e+00 -6.056291e+00 -7.059407e+00 -1.722294e+01 -5.991058e+00 -7.688324e+00 -1.580124e+01 4.062659e+00 2.520859e+00
<VARIANCE> 12
 1.124549e+01 1.211824e+01 5.334849e+01 2.616071e+01 5.783743e+01 3.673211e+01 2.915785e+01 4.058297e+01 2.674269e+01 2.468763e+01 4.253659e+01 5.068797e+01
<GCONST> 6.311629e+01
<STATE> 3
<NUMMIXES> 3
<MIXTURE> 1 7.142937e-01
<MEAN> 12
 -7.055526e+00 -1.095818e+00 2.108940e+01 -1.108975e+00 -1.692074e+01 -4.188319e+00 -2.016519e+01 4.603230e+00 -6.311706e+00 -1.489957e+01 6.199280e+00 -1.527694e+00
<VARIANCE> 12
 7.912072e+00 1.622798e+01 2.866545e+01 1.714243e+01 1.865789e+01 2.303091e+01 2.558883e+01 1.181901e+01 2.040928e+01 1.821396e+01 5.989957e+00 1.142708e+01
<GCONST> 5.502613e+01
<MIXTURE> 3 2.857065e-01
<MEAN> 12
 -9.540984e+00 3.023207e+00 4.733404e+00 3.686496e-01 1.430295e+00 -1.045092e+01 -1.472049e+01 -3.133589e+00 -7.106085e+00 -3.786350e+00 9.051590e-01 -6.306530e+00
<VARIANCE> 12
 1.742804e+01 2.355084e+01 1.732382e+01 3.838011e+00 1.582758e+01 2.073963e+01 1.887073e+01 3.888343e+01 2.446614e+01 1.824535e+01 8.898263e+00 1.660013e+01
<GCONST> 5.575725e+01
<STATE> 4
<NUMMIXES> 3
<MIXTURE> 2 6.114782e-01
<MEAN> 12
 -2.715744e+00 -6.908466e+00 7.824538e+00 -1.859337e+00 -1.215105e+01 -1.142440e+01 -2.202314e+01 5.568968e+00 -2.914223e+00 -9.652502e+00 8.049552e+00 -3.760274e+00
<VARIANCE> 12
 6.917116e+00 1.249087e+01 2.814859e+01 2.404048e+01 5.002880e+01 1.967569e+01 3.638041e+01 4.928982e+01 3.475986e+01 3.573167e+01 2.784056e+01 3.796441e+01
<GCONST> 6.150213e+01
<MIXTURE> 3 3.885217e-01
<MEAN> 12
 -1.606595e+01 -2.562825e+00 2.871210e-01 -2.127569e-01 4.148658e+00 1.370483e+00 1.155047e+00 -3.753965e+00 -2.857758e+00 -3.370607e+00 -2.931560e+00 -3.429724e+00
<VARIANCE> 12
 6.335140e+00 1.336370e+00 4.091057e+00 4.800399e+00 1.567946e+01 6.587599e+00 1.854747e+01 1.245614e+01 8.487465e+00 1.101926e+01 1.039458e+01 1.166982e+01
<GCONST> 4.658471e+01
<TRANSP> 5
 0.000000e+00 1.000000e+00 0.000000e+00 0.000000e+00 0.000000e+00
 0.000000e+00 6.026624e-01 3.973377e-01 0.000000e+00 0.000000e+00
 0.000000e+00 0.000000e+00 7.335368e-01 2.664632e-01 0.000000e+00
 0.000000e+00 0.000000e+00 0.000000e+00 6.449241e-01 3.550760e-01
 0.000000e+00 0.000000e+00 0.000000e+00 0.000000e+00 0.000000e+00
<ENDHMM>
~h "k"
<BEGINHMM>
<NUMSTATES> 5
<STATE> 2
<NUMMIXES> 3
<MIXTURE> 1 8.943082e-01
<MEAN> 12
 -3.239612e+00 2.239004e+00 5.424285e+00 2.805370e+00 -3.415062e+00 -8.518701e+00 -4.343712e+00 2.774250e+00 -3.552048e+00 -3.601799e+00 2.681998e+00 -2.690160e+00
<VARIANCE> 12
 2.363367e+01 1.853016e+01 3.895350e+01 2.058440e+01 3.487414e+01 5.019313e+01 7.147665e+01 5.674728e+01 4.093526e+01 3.929643e+01 3.334369e+01 2.375704e+01
<GCONST> 6.465697e+01
<MIXTURE> 2 1.056917e-01
<MEAN> 12
 -2.085380e+01 -1.190838e+01 2.585899e+00 -3.928390e+00 -1.004937e+01 -5.218047e+00 -5.630105e-01 7.760593e-01 -3.798366e+00 5.767025e+00 4.945798e+00 1.902445e-01
<VARIANCE> 12
 4.800242e+00 8.490499e+00 6.208131e+00 2.642973e+01 1.308474e+01 1.715975e+01 7.405311e+00 1.799130e+01 2.539502e+01 2.162588e+01 1.694758e+01 1.134810e+01
<GCONST> 5.273621e+01
<STATE> 3
<NUMMIXES> 3
<MIXTURE> 1 1.814442e-01
<MEAN> 12
 -2.328869e+01 -2.997926e+00 7.045669e+00 -7.327212e+00 -5.507311e+00 -2.816249e+00 -4.295426e+00 -5.909221e+00 1.426657e+00 -3.127534e-01 -1.481387e+00 9.711113e-01
<VARIANCE> 12
 1.423399e+01 2.050884e+01 2.567400e+01 1.898193e+01 1.050714e+01 7.587464e+00 1.405606e+01 1.794829e+01 1.434568e+01 2.204405e+01 8.857883e+00 7.360389e+00
<GCONST> 5.376300e+01
<MIXTURE> 2 8.185555e-01
<MEAN> 12
 -1.134015e+01 -5.555032e+00 3.907781e-01 -1.633507e-01 -3.644529e+00 -5.325208e+00 -4.372137e+00 2.503332e+00 -2.697348e+00 -5.654974e-01 2.938645e-01 -2.291081e+00
<VARIANCE> 12
 3.203663e+01 5.904440e+01 3.071580e+01 4.183611e+01 3.795186e+01 5.171791e+01 3.974826e+01 4.511635e+01 3.340490e+01 2.702356e+01 2.686607e+01 1.872828e+01
<GCONST> 6.485847e+01
<STATE> 4
<NUMMIXES> 3
<MIXTURE> 1 2.522117e-01
<MEAN> 12
 -1.652781e+01 -6.415864e+00 -3.724349e+00 -4.347562e+00 2.689873e+00 1.256445e+00 6.924242e-01 -8.044227e-01 -1.105027e+00 -3.425114e+00 -6.128677e-01 -1.760913e+00
<VARIANCE> 12
 7.301342e+00 1.883529e+01 1.255514e+01 6.903960e+00 8.031264e+00 1.505140e+01 9.535450e+00 1.492513e+01 2.191822e+01 2.024214e+01 1.665980e+01 1.935889e+01
<GCONST> 5.306465e+01
<MIXTURE> 2 2.978007e-01
<MEAN> 12
 -8.334414e+00 -5.594485e+00 -1.071036e+01 -1.244898e+01 -1.320820e+00 -1.650153e+00 -6.219657e+00 1.726326e-01 -4.932236e+00 1.453297e+00 4.347014e+00 -3.554945e+00
<VARIANCE> 12
 2.225024e+01 2.583656e+01 2.310563e+01 3.023268e+01 4.220477e+01 1.902633e+01 4.257994e+01 4.533183e+01 3.588305e+01 2.204920e+01 3.015986e+01 1.113386e+01
<GCONST> 6.170147e+01
<MIXTURE> 3 4.499874e-01
<MEAN> 12
 -9.247712e+00 -3.274007e-01 4.647398e+00 8.328073e-02 -3.690453e+00 -8.285389e+00 -7.683949e+00 -3.310861e+00 -4.321772e+00 -4.980166e+00 -1.253696e+00 -7.333829e-01
<VARIANCE> 12
 1.823118e+01 9.726179e+00 3.075370e+01 3.190612e+01 2.251471e+01 4.641700e+01 3.382373e+01 3.921116e+01 2.868421e+01 3.618377e+01 2.241598e+01 1.390697e+01
<GCONST> 6.095037e+01
<TRANSP> 5
 0.000000e+00 1.000000e+00 0.000000e+00 0.000000e+00 0.000000e+00
 0.000000e+00 5.588551e-01 4.411450e-01 0.000000e+00 0.000000e+00
 0.000000e+00 0.000000e+00 4.582611e-01 5.417390e-01 0.000000e+00
 0.000000e+00 0.000000e+00 0.000000e+00 6.835071e-01 3.164929e-01
 0.000000e+00 0.000000e+00 0.000000e+00 0.000000e+00 0.000000e+00
<ENDHMM>
~h "l"
<BEGINHMM>
<NUMSTATES> 5
<STATE> 2
<NUMMIXES> 3
<MIXTURE> 1 1.621261e-01
<MEAN> 12
 -1.543991e+01 -4.418006e+00 3.135554e+00 7.042886e-01 8.033634e-01 5.553293e-01 -7.176646e-01 7.583126e-01 6.287446e-01 -2.428919e+00 -3.355312e-01 -3.238691e+00
<VARIANCE> 12
 3.327943e+01 9.734829e+00 2.004075e+01 1.638415e+01 3.101347e+01 3.409288e+01 1.934013e+01 3.327378e+01 4.687082e+01 1.401519e+01 2.802476e+01 2.216953e+01
<GCONST> 5.997906e+01
<MIXTURE> 2 7.827055e-01
<MEAN> 12
 -1.494926e+00 -4.181633e+00 5.281868e+00 8.977500e-01 -7.276431e+00 -1.228900e+01 -1.642186e+01 -1.253280e+00 -1.406537e+00 -3.799529e+00 3.974341e-01 -1.035963e+01
<VARIANCE> 12
 1.628523e+01 1.201796e+01 4.593296e+01 3.215279e+01 2.367703e+01 3.651630e+01 4.387766e+01 4.950389e+01 2.358535e+01 7.315601e+01 1.645491e+01 3.344360e+01
<GCONST> 6.283829e+01
<MIXTURE> 3 5.516890e-02
<MEAN> 12
 3.239756e+00 -1.388078e+01 7.843679e+00 5.947441e+00 -1.908121e+01 2.996454e+00 -3.307963e+01 -3.395005e+00 3.973053e+00 -1.525825e+01 1.447302e+01 -1.750639e+00
<VARIANCE> 12
 5.774914e+00 2.956114e+00 5.283805e+01 1.914586e+01 2.086905e+01 2.752359e+01 2.925797e+01 2.236568e+01 1.499814e+01 5.950171e+00 2.624619e+01 8.044240e+00
<GCONST> 5.449206e+01
<STATE> 3
<NUMMIXES> 3
<MIXTURE> 1 3.702079e-01
<MEAN> 12
 -4.606791e+00 -1.169321e+00 7.373121e+00 2.817262e+00 -7.030376e+00 -7.717571e+00 -1.281410e+01 -2.825106e+00 8.006757e-01 -4.837611e+00 -7.397402e-01 -6.042416e+00
<VARIANCE> 12
 4.431204e+01 1.704761e+01 5.120927e+01 5.302822e+01 3.007674e+01 4.055328e+01 7.821167e+01 3.760561e+01 3.326628e+01 4.590233e+01 1.611020e+01 3.036648e+01
<GCONST> 6.520532e+01
<MIXTURE> 3 6.297922e-01
<MEAN> 12
 1.596793e+00 -6.880146e+00 5.178511e+00 9.631159e+00 -4.081915e+00 -8.710762e+00 -2.625707e+01 -1.862445e+00 4.518149e+00 -1.216262e+01 3.347669e+00 -7.701956e+00
<VARIANCE> 12
 3.935441e+00 6.599298e+00 2.510439e+01 3.564814e+01 6.710416e+01 1.834234e+01 3.123050e+01 3.627785e+01 3.747209e+01 2.991725e+01 3.870078e+01 4.187160e+01
<GCONST> 6.066881e+01
<STATE> 4
<NUMMIXES> 3
<MIXTURE> 2 1.000000e+00
<MEAN> 12
 -3.336163e+00 -3.794151e+00 6.457285e+00 1.877268e+00 -7.437356e+00 -8.409906e+00 -1.604554e+01 -1.606859e+00 1.312870e-01 -5.978731e+00 2.821682e+00 -7.104710e+00
<VARIANCE> 12
 4.637254e+01 1.695915e+01 5.015718e+01 4.881975e+01 3.394972e+01 2.929806e+01 8.274594e+01 3.385157e+01 3.239888e+01 5.092666e+01 3.985620e+01 2.713486e+01
<GCONST> 6.576010e+01
<TRANSP> 5
 0.000000e+00 1.000000e+00 0.000000e+00 0.000000e+00 0.000000e+00
 0.000000e+00 5.591525e-01 4.408475e-01 0.000000e+00 0.000000e+00
 0.000000e+00 0.000000e+00 6.263442e-01 3.736558e-01 0.000000e+00
 0.000000e+00 0.000000e+00 0.000000e+00 5.033769e-05 9.999496e-01
 0.000000e+00 0.000000e+00 0.000000e+00 0.000000e+00 0.000000e+00
<ENDHMM>
~h "m"
<BEGINHMM>
<NUMSTATES> 5
<STATE> 2
<NUMMIXES> 3
<MIXTURE> 2 1.000000e+00
<MEAN> 12
 2.459691e+00 -2.224306e+00 5.451842e+00 3.988483e+00 -6.541936e+00 -7.657983e+00 -5.621681e+00 -4.876420e+00 -1.147948e+01 -3.568863e+00 3.700473e+00 -1.363885e+01
<VARIANCE> 12
 1.212354e+01 1.540299e+01 1.467528e+01 1.840017e+01 1.159103e+01 2.711803e+01 1.898310e+01 3.970332e+01 3.798083e+01 4.976391e+01 2.557231e+01 4.088174e+01
<GCONST> 5.975474e+01
<STATE> 3
<NUMMIXES> 3
<MIXTURE> 2 1.000000e+00
<MEAN> 12
 5.083793e-01 -2.735682e+00 4.758069e+00 1.609346e+00 -6.075498e+00 -5.166206e+00 -7.319964e+00 -7.383310e+00 -8.668276e+00 -6.289805e+00 4.755967e+00 -1.046500e+01
<VARIANCE> 12
 1.872558e+01 2.709199e+01 1.714468e+01 2.881808e+01 1.493608e+01 5.069138e+01 3.352634e+01 5.699408e+01 3.036797e+01 4.575600e+01 3.227318e+01 3.532773e+01
<GCONST> 6.294677e+01
<STATE> 4
<NUMMIXES> 3
<MIXTURE> 2 1.000000e+00
<MEAN> 12
 4.612381e-02 -3.149302e+00 3.391109e+00 -1.164138e+00 -7.594034e+00 -3.911672e+00 -8.688629e+00 -5.213626e+00 -6.714976e+00 -7.591878e+00 4.872870e+00 -9.640474e+00
<VARIANCE> 12
 1.598076e+01 3.342219e+01 2.138147e+01 3.126324e+01 2.153747e+01 6.809075e+01 3.249646e+01 7.455376e+01 2.336277e+01 4.042362e+01 4.045050e+01 3.162779e+01
<GCONST> 6.392806e+01
<TRANSP> 5
 0.000000e+00 1.000000e+00 0.000000e+00 0.000000e+00 0.000000e+00
 0.000000e+00 7.274427e-01 2.725573e-01 0.000000e+00 0.000000e+00
 0.000000e+00 0.000000e+00 8.330219e-27 1.000000e+00 0.000000e+00
 0.000000e+00 0.000000e+00 0.000000e+00 2.563172e-16 1.000000e+00
 0.000000e+00 0.000000e+00 0.000000e+00 0.000000e+00 0.000000e+00
<ENDHMM>
~h "n"
<BEGINHMM>
<NUMSTATES> 5
<STATE> 2
<NUMMIXES> 3
<MIXTURE> 2 1.000000e+00
<MEAN> 12
 2.563262e+00 -1.821842e+00 6.042831e+00 1.829151e+00 -1.059580e+01 -6.299251e+00 -1.979375e+00 -1.240288e+01 -8.688472e+00 -6.958423e-01 -1.734500e+00 -1.301109e+01
<VARIANCE> 12
 7.364868e+00 1.112235e+01 1.299584e+01 1.331730e+01 1.479299e+01 1.615213e+01 3.329949e+01 3.289458e+01 2.022248e+01 3.111502e+01 3.151087e+01 3.232018e+01
<GCONST> 5.745947e+01
<STATE> 3
<NUMMIXES> 3
<MIXTURE> 2 1.000000e+00
<MEAN> 12
 -5.398239e-01 -4.903465e-01 4.532674e+00 3.127612e-01 -7.723454e+00 -8.825641e+00 -5.308084e+00 -6.821829e+00 -6.264593e+00 -3.002436e+00 5.588323e-03 -1.003224e+01
<VARIANCE> 12
 1.049872e+01 2.274613e+01 1.975924e+01 1.587082e+01 2.261434e+01 2.523181e+01 3.341871e+01 3.105834e+01 2.165615e+01 2.251599e+01 3.760992e+01 2.951916e+01
<GCONST> 5.977178e+01
<STATE> 4
<NUMMIXES> 3
<MIXTURE> 1 9.702087e-02
<MEAN> 12
 -2.833642e+01 -7.505370e+00 3.291267e+00 -2.690966e+00 -7.506305e+00 -4.138567e+00 -1.798524e+00 7.783253e-01 -2.426768e-01 2.683546e-01 1.976568e+00 -1.535973e+00
<VARIANCE> 12
 3.525927e+00 5.141560e+00 7.212138e+00 4.620021e+00 1.474779e+01 1.036363e+01 4.215632e+00 2.312130e+01 7.771410e+00 1.078335e+01 6.428875e+00 5.297808e+00
<GCONST> 4.602369e+01
<MIXTURE> 2 5.263526e-01
<MEAN> 12
 -2.150097e+00 -1.526644e+00 4.242470e+00 -2.277193e+00 -1.170903e+01 -1.107557e+01 -1.175675e+01 2.797844e+00 -4.359595e+00 -7.032859e+00 6.115380e+00 -9.829820e+00
<VARIANCE> 12
 4.949123e+00 1.473869e+01 7.297964e+01 1.971040e+01 3.545409e+01 3.314340e+01 2.993360e+01 6.438428e+01 2.643348e+01 7.148328e+01 3.396764e+01 4.676917e+01
<GCONST> 6.316320e+01
<MIXTURE> 3 3.766263e-01
<MEAN> 12
 -1.979816e+00 6.565845e+00 7.562648e+00 -3.572285e+00 -6.950550e+00 -2.069033e+00 -8.091349e+00 -3.960793e+00 -1.903805e+00 -8.390178e+00 -1.746232e+00 -6.279672e+00
<VARIANCE> 12
 3.666437e+01 9.150594e+00 2.870207e+01 3.199532e+01 1.206013e+01 4.351957e+01 5.789916e+01 2.498023e+01 9.307929e+00 1.663495e+01 1.110290e+01 1.487523e+01
<GCONST> 5.838190e+01
<TRANSP> 5
 0.000000e+00 1.000000e+00 0.000000e+00 0.000000e+00 0.000000e+00
 0.000000e+00 7.238100e-01 2.761899e-01 0.000000e+00 0.000000e+00
 0.000000e+00 0.000000e+00 5.940452e-20 1.000000e+00 0.000000e+00
 0.000000e+00 0.000000e+00 0.000000e+00 5.773019e-01 4.226982e-01
 0.000000e+00 0.000000e+00 0.000000e+00 0.000000e+00 0.000000e+00
<ENDHMM>
~h "o"
<BEGINHMM>
<NUMSTATES> 5
<STATE> 2
<NUMMIXES> 3
<MIXTURE> 1 1.000000e+00
<MEAN> 12
 2.345285e+00 -1.758785e+00 -1.214159e+00 -1.234789e+01 -1.052203e+01 -9.409778e-03 -1.401923e+01 -3.127120e+00 -8.717517e+00 -1.443505e+01 1.553471e+01 -6.876515e-01
<VARIANCE> 12
 1.320878e+01 1.138473e+01 1.560555e+01 3.012043e+01 4.544596e+01 2.910443e+01 5.177869e+01 4.488358e+01 3.913114e+01 5.678069e+01 3.874357e+01 4.802235e+01
<GCONST> 6.339372e+01
<STATE> 3
<NUMMIXES> 3
<MIXTURE> 2 1.000000e+00
<MEAN> 12
 -3.008575e-01 -8.141414e-01 4.565622e-01 -5.188193e+00 -2.866728e+00 -7.501570e+00 -1.583787e+01 -2.401633e+00 -5.168961e+00 -4.622968e+00 9.802201e+00 -5.170723e+00
<VARIANCE> 12
 1.943872e+01 2.020898e+01 3.063799e+01 2.448248e+01 1.809917e+01 5.820672e+01 4.361954e+01 5.538889e+01 1.499277e+01 6.514941e+01 3.344653e+01 5.796169e+01
<GCONST> 6.385185e+01
<STATE> 4
<NUMMIXES> 3
<MIXTURE> 2 1.000000e+00
<MEAN> 12
 -2.631708e+00 -1.069616e+00 2.927094e+00 -1.861466e+00 -2.812521e+00 -6.150134e+00 -1.188633e+01 -4.961470e+00 -4.273074e+00 -3.370629e+00 3.816459e+00 -4.105165e+00
<VARIANCE> 12
 3.225314e+01 2.499388e+01 3.561422e+01 2.948819e+01 2.502704e+01 8.314259e+01 4.578492e+01 3.124850e+01 1.371224e+01 4.280919e+01 4.149840e+01 3.862827e+01
<GCONST> 6.436463e+01
<TRANSP> 5
 0.000000e+00 1.000000e+00 0.000000e+00 0.000000e+00 0.000000e+00
 0.000000e+00 7.752981e-01 2.247019e-01 0.000000e+00 0.000000e+00
 0.000000e+00 0.000000e+00 5.239129e-01 4.760871e-01 0.000000e+00
 0.000000e+00 0.000000e+00 0.000000e+00 1.182100e-17 1.000000e+00
 0.000000e+00 0.000000e+00 0.000000e+00 0.000000e+00 0.000000e+00
<ENDHMM>
~h "p"
<BEGINHMM>
<NUMSTATES> 5
<STATE> 2
<NUMMIXES> 3
<MIXTURE> 1 9.650403e-02
<MEAN> 12
 -3.447312e-01 3.451301e+00 -7.543133e+00 -4.033224e+00 -2.101056e+00 -3.597255e+00 -1.583972e-01 9.978528e+00 5.393887e+00 5.570292e+00 7.594319e+00 1.019093e+00
<VARIANCE> 12
 1.745710e+00 3.402787e+00 3.330458e+00 9.103539e+00 3.198893e+01 1.767088e+01 1.376047e+01 2.564668e+01 6.288955e+00 7.896876e+00 9.497070e+00 1.215659e+01
<GCONST> 4.810569e+01
<MIXTURE> 3 9.034963e-01
<MEAN> 12
 -1.599111e+00 5.009771e+00 4.540056e+00 2.745565e+00 -1.014935e+00 -4.611237e+00 -3.210631e+00 -2.900125e+00 -3.991797e+00 -3.294825e+00 -5.643128e-01 -4.219426e+00
<VARIANCE> 12
 2.274177e+01 2.175793e+01 1.698814e+01 2.003510e+01 1.299599e+01 1.594719e+01 3.916459e+01 2.604640e+01 1.594098e+01 3.749901e+01 1.985834e+01 1.519032e+01
<GCONST> 5.845277e+01
<STATE> 3
<NUMMIXES> 3
<MIXTURE> 2 8.078922e-01
<MEAN> 12
 -6.454300e+00 3.764219e+00 8.140346e-02 -1.501898e+00 -5.704900e+00 -2.488630e+00 -3.674204e+00 -3.250912e+00 -8.315855e-01 -1.137819e+00 -2.494566e+00 -1.635626e+00
<VARIANCE> 12
 1.115010e+01 2.005069e+01 1.185676e+01 1.444805e+01 2.847457e+01 1.519309e+01 1.392255e+01 1.622983e+01 2.537443e+01 1.444402e+01 3.268824e+01 1.975829e+01
<GCONST> 5.647252e+01
<MIXTURE> 3 1.921078e-01
<MEAN> 12
 -9.658454e+00 2.043186e+00 2.379265e+00 3.531352e+00 4.552583e-01 2.866697e+00 2.984410e+00 -1.698092e+00 3.605136e-01 6.702176e-02 -1.991400e+00 -1.162154e+00
<VARIANCE> 12
 8.439891e+00 2.361434e+00 3.636408e+00 3.658851e+00 1.027892e+01 7.537057e+00 2.937967e+00 1.168272e+01 1.768332e+01 1.191903e+01 1.513858e+01 4.774227e+00
<GCONST> 4.515191e+01
<STATE> 4
<NUMMIXES> 3
<MIXTURE> 1 9.112463e-01
<MEAN> 12
 -9.470865e+00 1.406860e+00 2.045247e+00 1.533849e+00 1.209559e+00 -5.298891e-02 -4.619628e-03 3.482602e-01 1.225552e+00 9.304298e-01 -3.402061e-02 -9.496853e-01
<VARIANCE> 12
 1.079404e+01 1.007656e+01 1.399730e+01 9.709606e+00 1.412470e+01 1.863228e+01 1.833599e+01 1.754274e+01 1.726420e+01 1.654309e+01 1.618353e+01 1.293763e+01
<GCONST> 5.400078e+01
<MIXTURE> 2 8.875406e-02
<MEAN> 12
 -2.570094e+00 -5.345955e-01 2.374658e+00 -4.505310e+00 -5.923903e+00 -9.467067e+00 -1.199794e+01 3.539539e+00 1.759012e+00 -1.713560e+00 7.459777e+00 -1.002573e+00
<VARIANCE> 12
 5.414622e+00 4.047451e+01 1.357365e+01 1.850965e+01 2.044100e+01 3.352287e+01 3.237982e+01 4.795619e+01 3.492395e+01 1.379781e+01 2.996164e+01 4.664998e+01
<GCONST> 6.026860e+01
<TRANSP> 5
 0.000000e+00 1.000000e+00 0.000000e+00 0.000000e+00 0.000000e+00
 0.000000e+00 5.433858e-01 4.566142e-01 0.000000e+00 0.000000e+00
 0.000000e+00 0.000000e+00 7.292418e-01 2.707582e-01 0.000000e+00
 0.000000e+00 0.000000e+00 0.000000e+00 8.671710e-01 1.328289e-01
 0.000000e+00 0.000000e+00 0.000000e+00 0.000000e+00 0.000000e+00
<ENDHMM>
~h "s"
<BEGINHMM>
<NUMSTATES> 5
<STATE> 2
<NUMMIXES> 3
<MIXTURE> 1 1.000000e+00
<MEAN> 12
 -1.678375e+01 6.996180e+00 2.205431e+00 3.056065e+00 3.191119e-01 -7.012444e+00 -1.556093e+00 -2.268270e+00 -2.421252e-01 1.550643e-01 -1.515200e-01 -1.740849e+00
<VARIANCE> 12
 4.014559e+01 2.611809e+01 3.059689e+01 2.702961e+01 2.169064e+01 4.001922e+01 4.153920e+01 2.985871e+01 3.353082e+01 2.120930e+01 1.737240e+01 2.007464e+01
<GCONST> 6.203810e+01
<STATE> 3
<NUMMIXES> 3
<MIXTURE> 1 7.763847e-03
<MEAN> 12
 -1.778410e+01 -6.352258e+00 -6.300923e+00 -7.560641e-01 8.544126e+00 1.023396e+01 1.294406e+01 2.393206e+00 7.694046e+00 3.030551e-01 8.271565e+00 5.252602e+00
<VARIANCE> 12
 6.661860e-01 1.386009e-01 2.377838e-01 3.784994e+00 1.151599e+00 4.474539e+00 1.436771e+00 1.717716e+00 1.979388e+01 1.230376e+01 8.711843e-01 6.218649e+00
<GCONST> 2.929471e+01
<MIXTURE> 2 1.302807e-01
<MEAN> 12
 -2.021126e+01 5.670209e+00 1.848625e+00 -2.835769e+00 3.404781e+00 -2.675716e+00 -4.587150e+00 1.632841e+00 -1.145440e+00 -1.525664e+00 1.455212e+00 -1.703863e+00
<VARIANCE> 12
 4.783264e+01 1.883743e+01 1.977711e+01 2.467563e+01 1.831421e+01 2.029416e+01 4.746361e+01 3.640104e+01 3.896638e+01 3.182598e+01 2.406325e+01 1.951800e+01
<GCONST> 6.169600e+01
<MIXTURE> 3 8.619549e-01
<MEAN> 12
 -2.856523e+01 -1.356387e-01 -6.652424e+00 6.662534e-01 -2.565193e+00 -4.312123e+00 2.510200e+00 -2.226924e+00 3.351552e+00 1.142927e+00 1.535896e+00 1.416851e+00
<VARIANCE> 12
 4.808414e+00 8.414044e+00 7.915008e+00 1.260941e+01 1.964893e+01 1.551103e+01 1.553846e+01 1.687984e+01 1.693418e+01 1.654306e+01 1.347065e+01 1.458877e+01
<GCONST> 5.256308e+01
<STATE> 4
<NUMMIXES> 3
<MIXTURE> 1 2.876338e-02
<MEAN> 12
 -4.000286e+00 5.373443e+00 -5.603899e+00 -7.823337e+00 1.650822e+00 -3.437047e+00 -1.547238e+01 -1.213675e+01 -7.284678e+00 3.592807e+00 6.193377e+00 -9.167409e+00
<VARIANCE> 12
 3.682696e+00 4.651300e+01 6.144435e+00 9.564560e+00 5.417305e-01 2.366317e+00 1.455909e+01 1.476324e+02 2.332082e+01 1.142389e+00 4.225103e+00 3.223358e+01
<GCONST> 4.738932e+01
<MIXTURE> 2 3.556100e-01
<MEAN> 12
 -1.603161e+01 3.748745e+00 -4.384997e-02 1.069822e+00 2.821791e-01 -6.645798e+00 -1.087484e+00 -2.933143e+00 -5.801802e-01 1.427387e+00 -4.529124e-02 -3.218056e+00
<VARIANCE> 12
 3.463081e+01 1.916374e+01 2.001262e+01 1.750039e+01 1.750212e+01 2.733604e+01 2.288102e+01 2.055386e+01 1.962494e+01 2.507626e+01 2.247909e+01 2.230783e+01
<GCONST> 5.915101e+01
<MIXTURE> 3 6.156270e-01
<MEAN> 12
 -2.692764e+01 -1.318123e+00 -1.386975e+00 -6.022236e+00 9.269568e-01 -3.677230e+00 -1.960001e+00 2.862009e+00 5.715247e-01 2.217628e+00 1.682491e+00 -6.234440e-01
<VARIANCE> 12
 1.093134e+01 9.135896e+00 2.467947e+01 9.671851e+00 1.700385e+01 2.252573e+01 1.877081e+01 2.138362e+01 1.861327e+01 1.604826e+01 1.918366e+01 1.741871e+01
<GCONST> 5.558767e+01
<TRANSP> 5
 0.000000e+00 1.000000e+00 0.000000e+00 0.000000e+00 0.000000e+00
 0.000000e+00 5.071422e-01 4.928578e-01 0.000000e+00 0.000000e+00
 0.000000e+00 0.000000e+00 7.903832e-01 2.096169e-01 0.000000e+00
 0.000000e+00 0.000000e+00 0.000000e+00 7.106780e-01 2.893219e-01
 0.000000e+00 0.000000e+00 0.000000e+00 0.000000e+00 0.000000e+00
<ENDHMM>
~h "t"
<BEGINHMM>
<NUMSTATES> 5
<STATE> 2
<NUMMIXES> 3
<MIXTURE> 1 1.321242e-02
<MEAN> 12
 -1.276448e+01 1.106867e+00 7.727234e-01 -3.839024e+00 2.135622e+00 2.748642e+00 6.399071e+00 9.353221e+00 8.052584e+00 6.692549e+00 6.468339e+00 4.103848e+00
<VARIANCE> 12
 1.062204e+01 1.157947e+00 2.788242e+00 4.989684e+00 6.547256e-01 4.495560e+00 6.554142e+00 2.697759e+01 5.062914e-01 1.876454e+00 5.142239e+00 2.667216e+00
<GCONST> 3.601881e+01
<MIXTURE> 2 9.867876e-01
<MEAN> 12
 -4.632426e+00 4.011718e+00 2.839691e+00 -2.212249e-01 -3.334695e+00 -9.175389e+00 -6.430813e+00 1.633704e+00 1.491765e+00 3.672406e-01 1.174448e+00 -3.633165e+00
<VARIANCE> 12
 2.598012e+01 1.767784e+01 3.732955e+01 2.363138e+01 1.983041e+01 3.767884e+01 3.448520e+01 4.096376e+01 3.875049e+01 4.513453e+01 2.242295e+01 3.547252e+01
<GCONST> 6.298170e+01
<STATE> 3
<NUMMIXES> 3
<MIXTURE> 1 1.552881e-01
<MEAN> 12
 -1.317391e+01 -1.423854e+00 -2.671177e+00 -7.160185e+00 6.385569e+00 7.761431e+00 2.099688e+00 2.164586e+00 5.482051e+00 6.034709e+00 5.569030e+00 2.629350e+00
<VARIANCE> 12
 5.645905e+00 1.148450e+01 6.605856e+00 1.992620e+01 7.519149e+00 1.550792e+01 9.407827e+00 2.475286e+01 1.196702e+01 1.576288e+01 2.808147e+01 1.724414e+01
<GCONST> 5.273813e+01
<MIXTURE> 2 1.052082e-01
<MEAN> 12
 -4.724449e+00 2.858995e+00 3.007372e+00 1.723755e+00 -1.166221e+00 -2.025054e+00 -4.566887e+00 -6.100534e+00 -2.346100e+00 -3.238417e+00 -4.047534e-01 -4.629913e+00
<VARIANCE> 12
 2.298874e+01 9.576652e+00 9.383761e+00 3.803304e+01 3.835711e+01 2.626470e+01 7.674263e+01 4.664950e+01 3.238645e+01 2.552334e+01 7.481512e+00 2.988042e+01
<GCONST> 6.055155e+01
<MIXTURE> 3 7.395034e-01
<MEAN> 12
 -2.042513e+01 -3.843046e+00 -1.348220e+00 -4.935491e+00 -1.472995e+00 -3.166395e+00 -2.335551e+00 -6.513788e-01 3.298062e+00 1.621632e+00 2.188489e+00 1.738286e+00
<VARIANCE> 12
 1.378312e+01 1.454876e+01 2.842449e+01 2.061228e+01 3.024420e+01 2.519760e+01 2.302383e+01 1.976291e+01 2.070639e+01 2.100738e+01 1.830782e+01 1.578802e+01
<GCONST> 5.822690e+01
<STATE> 4
<NUMMIXES> 3
<MIXTURE> 1 1.144482e-02
<MEAN> 12
 -1.094211e+01 3.806799e+00 -1.276687e+00 4.618098e+00 8.702562e-01 -7.672319e-01 7.856319e+00 3.982896e+00 5.164316e+00 4.741835e-01 -1.530335e+00 2.996579e+00
<VARIANCE> 12
 1.260880e+00 3.143814e+00 1.373065e-03 1.010097e-01 1.044026e+00 1.628329e-01 9.956170e-01 1.409703e+01 4.522167e-02 8.756688e-01 7.968472e-03 5.208806e+00
<GCONST> 9.007292e+00
<MIXTURE> 2 2.219831e-01
<MEAN> 12
 -2.897830e+00 3.213608e-01 -2.281218e+00 -3.303746e+00 -6.292157e+00 -1.438416e+01 -1.237854e+01 -1.752260e+00 -1.139403e+00 5.489327e+00 5.078017e+00 -1.007444e+01
<VARIANCE> 12
 1.575265e+01 1.804649e+01 9.672739e+00 9.949117e+00 4.393811e+01 4.572153e+01 1.774132e+01 1.180832e+02 2.976761e+01 6.273317e+01 2.962698e+01 9.173315e+01
<GCONST> 6.296380e+01
<MIXTURE> 3 7.665719e-01
<MEAN> 12
 -1.518915e+01 2.090659e+00 1.852833e-01 -1.712808e+00 -1.346311e+00 -4.344537e+00 -2.705725e+00 -2.181000e+00 9.627618e-01 2.325352e-01 -1.816257e-01 -1.578567e+00
<VARIANCE> 12
 6.440282e+01 1.863650e+01 2.430716e+01 2.082162e+01 2.380791e+01 3.967499e+01 3.192696e+01 2.875080e+01 3.513362e+01 3.089014e+01 2.358232e+01 2.263764e+01
<GCONST> 6.231413e+01
<TRANSP> 5
 0.000000e+00 1.000000e+00 0.000000e+00 0.000000e+00 0.000000e+00
 0.000000e+00 6.344072e-01 3.655928e-01 0.000000e+00 0.000000e+00
 0.000000e+00 0.000000e+00 6.002398e-01 3.997603e-01 0.000000e+00
 0.000000e+00 0.000000e+00 0.000000e+00 5.250660e-01 4.749340e-01
 0.000000e+00 0.000000e+00 0.000000e+00 0.000000e+00 0.000000e+00
<ENDHMM>
~h "u"
<BEGINHMM>
<NUMSTATES> 5
<STATE> 2
<NUMMIXES> 3
<MIXTURE> 2 1.000000e+00
<MEAN> 12
 -6.051167e+00 5.982163e-01 -6.996095e-01 -4.443369e+00 -2.423615e+00 -4.643778e+00 -7.627559e+00 -4.437105e+00 -4.660908e+00 -4.897210e+00 5.728850e+00 -2.445000e+00
<VARIANCE> 12
 4.665071e+01 3.185307e+01 2.993813e+01 2.539431e+01 3.801105e+01 5.775540e+01 8.848377e+01 2.952718e+01 3.014294e+01 2.970051e+01 6.489854e+01 3.801762e+01
<GCONST> 6.616222e+01
<STATE> 3
<NUMMIXES> 3
<MIXTURE> 1 4.339009e-01
<MEAN> 12
 -1.248191e+01 2.258248e+00 1.210525e+00 -5.140901e+00 -4.698064e+00 -2.830114e+00 -1.226826e+00 -3.941843e+00 -1.313977e+00 -2.148144e+00 -6.003268e-01 -7.158008e-01
<VARIANCE> 12
 1.127035e+02 2.340987e+01 3.034371e+01 3.016384e+01 2.251231e+01 1.668354e+01 2.381384e+01 2.461312e+01 1.274063e+01 4.810192e+01 1.467405e+01 1.409609e+01
<GCONST> 6.080380e+01
<MIXTURE> 2 5.660985e-01
<MEAN> 12
 -1.713816e+00 -7.819551e-01 7.776150e-01 -5.016221e+00 -4.867221e-01 -8.321247e+00 -1.811871e+01 -8.263590e+00 -9.885077e+00 -1.203489e+01 1.473068e+01 -5.069972e+00
<VARIANCE> 12
 8.217175e+00 9.852691e+00 1.405133e+01 1.371774e+01 3.182343e+01 5.436283e+01 3.025266e+01 1.678793e+01 1.721597e+01 5.472996e+01 2.289345e+01 2.851777e+01
<GCONST> 5.872566e+01
<STATE> 4
<NUMMIXES> 3
<MIXTURE> 1 2.607418e-01
<MEAN> 12
 -1.057853e+01 1.409394e+00 5.876037e-01 2.826645e+00 6.009964e+00 4.274591e+00 5.883446e+00 2.231599e+00 4.095901e+00 1.876505e+00 2.858513e+00 1.893502e+00
<VARIANCE> 12
 1.326839e+01 2.261664e+01 6.538933e+00 7.951074e+00 1.699586e+01 1.068046e+01 1.410732e+01 1.279177e+01 1.219601e+01 1.882642e+01 1.358127e+01 1.348671e+01
<GCONST> 5.275332e+01
<MIXTURE> 2 7.392586e-01
<MEAN> 12
 1.958268e+00 2.042240e+00 2.122668e+00 -1.062512e+01 -9.493632e+00 -1.952317e+00 -1.145207e+01 -3.571643e+00 -6.263825e+00 -1.756157e+01 8.779091e+00 -1.793826e+00
<VARIANCE> 12
 1.648622e+01 2.471347e+01 2.074633e+01 4.684669e+01 4.146452e+01 4.472312e+01 4.110014e+01 4.712938e+01 4.617098e+01 7.832693e+01 8.149711e+01 6.173915e+01
<GCONST> 6.675462e+01
<TRANSP> 5
 0.000000e+00 1.000000e+00 0.000000e+00 0.000000e+00 0.000000e+00
 0.000000e+00 1.305146e-31 1.000000e+00 0.000000e+00 0.000000e+00
 0.000000e+00 0.000000e+00 6.671945e-01 3.328055e-01 0.000000e+00
 0.000000e+00 0.000000e+00 0.000000e+00 7.893135e-01 2.106865e-01
 0.000000e+00 0.000000e+00 0.000000e+00 0.000000e+00 0.000000e+00
<ENDHMM>
~h "v"
<BEGINHMM>
<NUMSTATES> 5
<STATE> 2
<NUMMIXES> 3
<MIXTURE> 1 5.054885e-02
<MEAN> 12
 -1.070575e+00 2.269779e+00 -4.071479e-01 2.189427e+00 -6.783844e+00 -1.773607e+01 -1.136555e+01 -2.497676e-01 2.655304e+00 -2.260580e+00 2.416625e+00 -3.437656e+00
<VARIANCE> 12
 2.677421e-01 3.378963e-01 1.536865e-01 2.165422e-01 2.475667e+00 4.468054e+00 2.048410e-04 1.456224e-02 6.031203e-01 1.293447e+00 1.600506e-01 6.096254e-01
<GCONST> 3.354325e+00
<MIXTURE> 2 9.494509e-01
<MEAN> 12
 -2.631602e+00 -1.319103e+00 6.589150e-01 -2.998679e+00 -4.266023e+00 -6.209018e+00 -1.443715e+01 2.837821e+00 -6.688990e+00 -1.650625e+00 5.677587e+00 -5.803555e+00
<VARIANCE> 12
 2.334491e+01 1.340167e+01 1.080983e+01 2.857836e+01 1.388644e+01 4.852468e+01 6.234711e+01 8.271545e+01 2.431806e+01 4.375517e+01 4.030150e+01 2.240217e+01
<GCONST> 6.236987e+01
<STATE> 3
<NUMMIXES> 3
<MIXTURE> 1 1.000000e+00
<MEAN> 12
 -4.481210e+00 6.021729e-01 1.018073e+00 -1.575211e+00 -2.429561e+00 -4.155051e+00 -1.175386e+01 -2.994518e+00 -4.936122e+00 -6.719726e-01 3.417504e+00 -3.270336e+00
<VARIANCE> 12
 1.985862e+01 1.361811e+01 9.617069e+00 2.872944e+01 9.485912e+00 6.142646e+01 4.285587e+01 5.878872e+01 2.629522e+01 3.786942e+01 2.905800e+01 1.408838e+01
<GCONST> 6.039365e+01
<STATE> 4
<NUMMIXES> 3
<MIXTURE> 1 1.000000e+00
<MEAN> 12
 -3.442724e+00 -1.565629e+00 1.049062e+00 -2.907090e+00 -4.106449e+00 -6.280982e+00 -1.154846e+01 1.104634e+00 -3.176557e+00 -3.073904e+00 3.751648e+00 -4.197144e+00
<VARIANCE> 12
 2.977663e+01 1.644284e+01 2.141123e+01 4.181065e+01 1.473486e+01 6.468932e+01 4.458365e+01 3.483172e+01 2.232905e+01 3.604784e+01 3.077935e+01 1.170553e+01
<GCONST> 6.183056e+01
<TRANSP> 5
 0.000000e+00 1.000000e+00 0.000000e+00 0.000000e+00 0.000000e+00
 0.000000e+00 1.913514e-01 8.086486e-01 0.000000e+00 0.000000e+00
 0.000000e+00 0.000000e+00 3.694904e-01 6.305096e-01 0.000000e+00
 0.000000e+00 0.000000e+00 0.000000e+00 3.673448e-05 9.999633e-01
 0.000000e+00 0.000000e+00 0.000000e+00 0.000000e+00 0.000000e+00
<ENDHMM>
~h "w"
<BEGINHMM>
<NUMSTATES> 5
<STATE> 2
<NUMMIXES> 3
<MIXTURE> 1 1.000000e+00
<MEAN> 12
 -4.233699e-02 2.265759e+00 -1.048049e+00 -9.548724e+00 -8.814648e+00 4.415028e-01 -5.961007e+00 -3.357024e+00 -1.529557e+00 -8.593452e+00 6.260199e-01 -5.701430e+00
<VARIANCE> 12
 1.381201e+01 7.637258e+00 2.023882e+01 3.690263e+01 5.374313e+01 2.739370e+01 2.053507e+01 1.894247e+01 2.580132e+01 5.114301e+01 4.506615e+01 1.995489e+01
<GCONST> 6.057372e+01
<STATE> 3
<NUMMIXES> 3
<MIXTURE> 2 1.000000e+00
<MEAN> 12
 5.012825e+00 -3.403026e+00 -1.293003e+00 -1.412744e+01 -9.147429e+00 1.759655e+00 -1.702907e+01 2.953329e+00 -8.512061e+00 -1.497196e+01 1.838076e+01 -6.882463e-01
<VARIANCE> 12
 1.239187e+01 1.940974e+01 2.406667e+01 2.073352e+01 2.319739e+01 2.778966e+01 4.680384e+01 1.677629e+01 2.041899e+01 7.578880e+01 5.497968e+01 4.719129e+01
<GCONST> 6.209014e+01
<STATE> 4
<NUMMIXES> 3
<MIXTURE> 1 1.000000e+00
<MEAN> 12
 2.074251e+00 -9.980771e+00 -4.170558e+00 -1.762249e+01 -4.580161e+00 -2.422388e-01 -1.746153e+01 7.528155e+00 -2.594779e+00 -2.847388e+00 1.680513e+01 -1.297549e+01
<VARIANCE> 12
 7.191660e+00 7.707672e+00 1.356228e+01 4.381427e+01 1.325845e+01 3.341280e+01 7.998679e+01 6.392209e+01 1.739188e+01 3.170369e+01 4.953234e+01 3.234893e+01
<GCONST> 6.078166e+01
<TRANSP> 5
 0.000000e+00 1.000000e+00 0.000000e+00 0.000000e+00 0.000000e+00
 0.000000e+00 6.101466e-01 3.898534e-01 0.000000e+00 0.000000e+00
 0.000000e+00 0.000000e+00 6.695739e-01 3.304260e-01 0.000000e+00
 0.000000e+00 0.000000e+00 0.000000e+00 6.679667e-01 3.320333e-01
 0.000000e+00 0.000000e+00 0.000000e+00 0.000000e+00 0.000000e+00
<ENDHMM>
~h "y"
<BEGINHMM>
<NUMSTATES> 5
<STATE> 2
<NUMMIXES> 3
<MIXTURE> 2 1.000000e+00
<MEAN> 12
 -1.067045e+01 5.935682e-01 1.209808e+01 5.143121e+00 -8.844025e+00 -7.628478e+00 -9.954659e+00 -2.310834e+00 -2.101140e+00 -9.984127e+00 -2.683430e+00 -1.266357e+00
<VARIANCE> 12
 4.314568e+01 2.642262e+01 3.401818e+01 1.486780e+01 2.774883e+01 2.815653e+01 2.010910e+01 2.385519e+01 3.018784e+01 3.056364e+01 3.097276e+01 3.429001e+01
<GCONST> 6.194878e+01
<STATE> 3
<NUMMIXES> 3
<MIXTURE> 1 1.000000e+00
<MEAN> 12
 -4.816495e+00 -3.211490e+00 1.308884e+01 7.589837e+00 -1.319854e+01 -1.029720e+01 -1.577777e+01 6.184964e-01 -2.573455e+00 -1.620165e+01 2.134857e+00 -3.395256e-02
<VARIANCE> 12
 2.366082e+01 1.406777e+01 2.617875e+01 1.838594e+01 2.722182e+01 3.051979e+01 5.509225e+01 2.430799e+01 3.230022e+01 4.783174e+01 1.337138e+01 1.618509e+01
<GCONST> 6.068095e+01
<STATE> 4
<NUMMIXES> 3
<MIXTURE> 2 8.572344e-01
<MEAN> 12
 -2.463681e+00 2.733702e-01 5.344709e+00 2.736268e+00 -7.313783e+00 -7.815543e+00 -8.922822e+00 -4.718339e+00 -2.742247e+00 -9.184455e+00 2.071822e+00 -4.830777e+00
<VARIANCE> 12
 5.782822e+01 1.354149e+01 2.258531e+01 2.262218e+01 2.584782e+01 2.215521e+01 4.598373e+01 2.896813e+01 4.625449e+01 4.651611e+01 2.555479e+01 3.514277e+01
<GCONST> 6.297298e+01
<MIXTURE> 3 1.427655e-01
<MEAN> 12
 -1.515590e+01 -5.959292e+00 6.902186e+00 8.236405e+00 -1.344513e+00 -4.789332e+00 -1.333834e-01 1.001149e+01 8.861820e-01 -4.697082e+00 1.663188e+00 3.304442e+00
<VARIANCE> 12
 1.917905e+01 2.200478e+00 2.042554e-01 7.975525e-01 1.346943e+00 2.635480e+00 5.958438e+00 1.793615e+00 1.500016e+00 8.114313e+00 1.786543e+00 2.267316e+01
<GCONST> 3.381894e+01
<TRANSP> 5
 0.000000e+00 1.000000e+00 0.000000e+00 0.000000e+00 0.000000e+00
 0.000000e+00 3.443327e-01 6.556673e-01 0.000000e+00 0.000000e+00
 0.000000e+00 0.000000e+00 7.602041e-01 2.397959e-01 0.000000e+00
 0.000000e+00 0.000000e+00 0.000000e+00 7.257016e-04 9.992743e-01
 0.000000e+00 0.000000e+00 0.000000e+00 0.000000e+00 0.000000e+00
<ENDHMM>
~h "z"
<BEGINHMM>
<NUMSTATES> 5
<STATE> 2
<NUMMIXES> 3
<MIXTURE> 1 3.398381e-01
<MEAN> 12
 -8.304156e+00 5.857463e+00 -1.876625e-01 1.228713e+00 -2.958420e+00 -1.327915e+01 -7.741428e+00 -5.900235e+00 -4.768865e+00 -2.064255e+00 1.553178e+00 -7.542411e+00
<VARIANCE> 12
 5.992194e+00 2.837303e+01 2.977850e+01 4.557121e+01 1.147447e+01 6.824789e+01 2.274711e+01 3.267981e+01 8.073234e+00 3.161195e+01 2.751314e+01 4.014957e+01
<GCONST> 6.022732e+01
<MIXTURE> 2 1.526124e-01
<MEAN> 12
 3.448210e-01 3.918932e+00 -7.821211e-01 -4.684381e+00 -9.327711e+00 -1.022412e+01 -9.385108e+00 9.702066e+00 -6.934099e+00 7.198995e+00 6.681627e-02 -1.806116e+01
<VARIANCE> 12
 1.576463e+00 4.198923e+00 1.558707e+01 1.569667e+01 2.108657e+01 1.284785e+01 5.107150e+01 1.598841e+01 9.559310e+00 4.785627e+00 1.082775e+01 3.002438e+01
<GCONST> 5.135858e+01
<MIXTURE> 3 5.075493e-01
<MEAN> 12
 -1.489927e+01 1.318162e+01 5.949328e+00 9.914810e+00 -3.282914e+00 -1.287481e+01 -5.282559e+00 -7.789317e+00 -1.331892e+00 -4.389066e+00 -1.678129e+00 5.188236e-01
<VARIANCE> 12
 8.252816e+00 1.372492e+01 1.837839e+01 5.103099e+00 8.150568e+00 1.762789e+01 1.177217e+01 1.478728e+01 8.057626e+00 9.903973e+00 1.085839e+01 8.573837e+00
<GCONST> 5.036560e+01
<STATE> 3
<NUMMIXES> 3
<MIXTURE> 1 9.576736e-02
<MEAN> 12
 -9.566020e+00 2.259822e+00 2.152808e+01 7.333812e+00 -7.238729e+00 -1.167496e+01 -1.297360e+01 1.200772e+00 -5.453913e+00 -1.239124e+01 2.769314e-01 1.580869e+00
<VARIANCE> 12
 3.774371e+00 5.777516e+00 1.061867e+01 3.293448e+00 9.447278e+00 4.249146e+00 2.095039e+00 5.384518e+00 5.518969e+00 7.996242e+00 9.170973e+00 1.028204e+01
<GCONST> 4.314043e+01
<MIXTURE> 2 3.827482e-01
<MEAN> 12
 -1.066534e+01 9.545460e+00 -3.003070e-02 -2.817463e+00 2.897617e+00 -1.907737e+00 -6.251256e+00 -4.583342e+00 -2.229485e+00 2.625782e+00 -1.812842e-01 -5.617482e+00
<VARIANCE> 12
 8.934975e+01 2.304000e+01 2.161504e+01 1.730186e+01 3.608685e+01 2.264752e+01 3.309965e+01 1.767606e+01 6.003032e+01 1.398570e+01 1.478975e+01 3.589367e+01
<GCONST> 6.169361e+01
<MIXTURE> 3 5.214844e-01
<MEAN> 12
 -1.678256e+01 1.250698e+01 1.477147e+01 4.143895e+00 -2.423500e+00 -1.270357e+01 -6.678271e+00 -6.534155e+00 -2.172474e+00 -7.651692e+00 -4.194795e+00 3.291100e+00
<VARIANCE> 12
 4.649029e+00 3.470884e+00 5.148641e+00 8.476618e+00 8.664056e+00 8.032806e+00 8.767735e+00 8.887492e+00 9.444821e+00 2.312283e+01 1.003665e+01 8.211270e+00
<GCONST> 4.700812e+01
<STATE> 4
<NUMMIXES> 3
<MIXTURE> 2 6.695803e-02
<MEAN> 12
 -1.134111e+01 -7.550697e+00 -3.374129e+00 -1.260577e+00 5.198688e+00 -3.398284e+00 3.484974e+00 9.466010e+00 -3.365986e-01 2.160587e+00 1.676416e+00 1.969759e+00
<VARIANCE> 12
 2.935099e+01 1.228537e+00 7.544878e-03 6.174223e-06 1.189285e+00 4.749549e+01 1.497870e+01 9.824005e-02 2.018348e+00 9.959687e+00 2.548935e+00 5.301453e+00
<GCONST> 1.878242e+01
<MIXTURE> 3 9.330419e-01
<MEAN> 12
 -1.104559e+01 5.835024e+00 8.150853e+00 6.461233e+00 -2.967312e+00 -1.119225e+01 -9.532980e+00 -5.422586e+00 -1.624881e+00 -4.549674e+00 -3.071732e+00 -3.636366e+00
<VARIANCE> 12
 2.040854e+01 1.094304e+01 5.205840e+01 7.576024e+01 1.355446e+01 2.805766e+01 1.023168e+01 4.504095e+00 1.317602e+01 4.718113e+01 1.877609e+01 1.813491e+01
<GCONST> 5.777739e+01
<TRANSP> 5
 0.000000e+00 1.000000e+00 0.000000e+00 0.000000e+00 0.000000e+00
 0.000000e+00 7.714596e-01 2.285403e-01 0.000000e+00 0.000000e+00
 0.000000e+00 0.000000e+00 7.844743e-01 2.155257e-01 0.000000e+00
 0.000000e+00 0.000000e+00 0.000000e+00 3.973719e-01 6.026281e-01
 0.000000e+00 0.000000e+00 0.000000e+00 0.000000e+00 0.000000e+00
<ENDHMM>
~h "#2"
<BEGINHMM>
<NUMSTATES> 5
<STATE> 2
<NUMMIXES> 3
<MIXTURE> 1 1.000000e+00
<MEAN> 12
 -2.613172e+00 -2.318497e+00 4.947096e+00 4.082677e+00 -4.017739e+00 -7.748870e+00 -1.953197e+01 -6.439302e+00 -1.067836e+00 -1.808242e+00 5.022054e+00 -4.552453e+00
<VARIANCE> 12
 7.552913e+00 4.277329e+00 1.107273e+01 9.213846e+00 4.102204e+01 3.570432e+01 5.437876e+01 5.379898e+01 8.730633e+00 5.021056e+01 2.037388e+01 2.433124e+01
<GCONST> 5.771467e+01
<STATE> 3
<NUMMIXES> 3
<MIXTURE> 2 1.000000e+00
<MEAN> 12
 -1.612500e+00 -4.003227e+00 5.306515e+00 5.816346e-01 -4.427501e+00 -8.212265e+00 -2.233562e+01 -7.344734e+00 -2.470649e-01 -4.603222e+00 5.798512e+00 -5.589898e+00
<VARIANCE> 12
 1.045377e+01 4.022610e+00 2.000487e+01 1.319266e+01 2.348700e+01 3.066812e+01 2.709702e+01 4.079408e+01 1.002371e+01 2.360286e+01 1.544658e+01 3.676395e+01
<GCONST> 5.676492e+01
<STATE> 4
<NUMMIXES> 3
<MIXTURE> 2 1.000000e+00
<MEAN> 12
 -2.260188e+00 -4.879308e+00 2.900366e+00 -8.175193e-01 -5.914359e+00 -1.315589e+01 -2.326216e+01 -7.351460e+00 1.563500e+00 -7.164399e+00 7.532269e+00 -6.842886e+00
<VARIANCE> 12
 5.278646e+00 2.479146e+00 2.767917e+01 9.166319e+00 1.001185e+01 4.149669e+01 1.871833e+01 3.271598e+01 1.541073e+01 1.980590e+01 1.782559e+01 3.588354e+01
<GCONST> 5.479104e+01
<TRANSP> 5
 0.000000e+00 1.000000e+00 0.000000e+00 0.000000e+00 0.000000e+00
 0.000000e+00 0.000000e+00 1.000000e+00 0.000000e+00 0.000000e+00
 0.000000e+00 0.000000e+00 0.000000e+00 1.000000e+00 0.000000e+00
 0.000000e+00 0.000000e+00 0.000000e+00 8.364476e-01 1.635524e-01
 0.000000e+00 0.000000e+00 0.000000e+00 0.000000e+00 0.000000e+00
<ENDHMM>
~h "#9"
<BEGINHMM>
<NUMSTATES> 5
<STATE> 2
<NUMMIXES> 3
<MIXTURE> 1 1.000000e+00
<MEAN> 12
 -2.494306e+00 -5.669341e+00 -2.386594e+00 -4.384472e+00 -1.006046e+01 -1.147477e+01 -1.953234e+01 2.493672e+00 -4.008847e-02 -2.748784e+00 6.887060e+00 -1.435545e+01
<VARIANCE> 12
 1.402145e+01 8.992099e+00 9.281728e+00 2.779899e+01 3.808767e+01 5.355053e+01 2.061183e+01 4.586586e+01 8.903352e+00 1.759887e+01 3.922775e+01 4.192014e+01
<GCONST> 5.937602e+01
<STATE> 3
<NUMMIXES> 3
<MIXTURE> 1 1.000000e+00
<MEAN> 12
 3.305502e-01 -1.595832e+00 -1.597321e+00 -3.253923e+00 -3.927816e+00 -1.134637e+01 -1.675280e+01 4.546758e+00 -4.498237e+00 7.191490e+00 6.809937e+00 -5.788187e+00
<VARIANCE> 12
 1.486469e+01 1.826622e+01 7.472167e+00 1.488228e+01 1.280671e+01 2.395246e+01 4.838403e+01 4.007502e+01 4.108057e+01 6.004266e+01 2.097770e+01 4.847029e+01
<GCONST> 6.040089e+01
<STATE> 4
<NUMMIXES> 3
<MIXTURE> 1 1.428697e-01
<MEAN> 12
 -8.883538e+00 5.168817e+00 1.672365e+00 1.420827e-01 -1.738185e+00 -4.977782e+00 -3.245512e+00 1.442957e-01 -6.491204e-01 2.733445e+00 -9.975173e-01 -4.586422e+00
<VARIANCE> 12
 2.844439e+00 2.001765e+00 5.032416e+00 1.472948e-01 6.353699e-01 4.688977e-01 3.708187e+00 3.484233e-01 2.336076e+01 1.246183e+01 9.982153e-04 5.161363e+00
<GCONST> 2.294518e+01
<MIXTURE> 2 1.428765e-01
<MEAN> 12
 3.903925e+00 -9.472102e+00 -4.254307e+00 -1.046188e+01 -5.648082e+00 -3.262657e+00 -1.792407e+01 1.216141e+01 -9.065916e+00 4.634521e+00 1.404753e+01 -1.019987e+01
<VARIANCE> 12
 8.123660e-02 2.932766e+00 1.451803e-02 1.000869e+01 1.147978e+00 2.733902e-01 7.469705e+00 5.370563e-02 8.402434e-03 4.008751e-01 1.537399e+01 1.070786e+01
<GCONST> 1.602925e+01
<MIXTURE> 3 7.142538e-01
<MEAN> 12
 -1.022430e+00 -5.179582e+00 -3.624241e+00 -7.697567e+00 -4.211685e+00 -6.234223e+00 -1.876150e+01 -1.049088e-01 -7.124913e-01 -5.307336e-01 6.555355e+00 -1.116661e+01
<VARIANCE> 12
 4.702639e+00 1.543527e+01 2.060039e+01 4.338866e+01 1.956491e+01 1.983426e+01 3.330427e+01 5.456735e+01 4.234889e+01 4.325468e+01 6.539109e+01 4.785162e+01
<GCONST> 6.216262e+01
<TRANSP> 5
 0.000000e+00 1.000000e+00 0.000000e+00 0.000000e+00 0.000000e+00
 0.000000e+00 6.484512e-01 3.515487e-01 0.000000e+00 0.000000e+00
 0.000000e+00 0.000000e+00 7.081146e-01 2.918853e-01 0.000000e+00
 0.000000e+00 0.000000e+00 0.000000e+00 1.391482e-13 1.000000e+00
 0.000000e+00 0.000000e+00 0.000000e+00 0.000000e+00 0.000000e+00
<ENDHMM>
~h "a#"
<BEGINHMM>
<NUMSTATES> 5
<STATE> 2
<NUMMIXES> 3
<MIXTURE> 1 5.500035e-01
<MEAN> 12
 -4.553434e-01 -1.662374e+00 -6.194643e+00 -1.104718e+01 -8.277727e+00 1.635337e+00 -2.335354e+00 -2.131522e+00 -2.613291e+00 -4.920665e+00 4.147425e+00 -6.776542e+00
<VARIANCE> 12
 1.857610e+01 1.893863e+01 3.190288e+01 3.951618e+01 4.444104e+01 5.912143e+01 3.341504e+01 6.018338e+01 3.776188e+01 5.082589e+01 3.314711e+01 3.015726e+01
<GCONST> 6.500426e+01
<MIXTURE> 2 4.499966e-01
<MEAN> 12
 2.582027e+00 -8.043893e+00 1.035306e+00 -2.095679e+01 -8.382051e+00 6.638844e+00 -1.062842e+01 1.265983e+00 -2.494528e+00 -1.252760e+01 1.155258e+01 -1.265204e+01
<VARIANCE> 12
 7.304165e+00 7.098708e+00 9.046730e+00 2.297248e+01 2.234051e+01 3.450052e+01 3.654978e+01 3.804660e+01 3.176700e+01 7.480318e+01 2.892740e+01 1.192692e+01
<GCONST> 5.884132e+01
<STATE> 3
<NUMMIXES> 3
<MIXTURE> 1 3.219011e-02
<MEAN> 12
 -2.225217e+01 4.481990e+00 1.566221e+01 2.087798e+00 -5.363174e+00 -1.886316e+00 -4.664811e+00 -1.301685e+01 8.631309e+00 -3.928137e+00 -2.906550e+00 3.911732e-01
<VARIANCE> 12
 4.939893e+00 4.597413e-01 9.533715e+00 1.534103e+00 4.418237e+00 5.618506e+00 1.129703e+01 1.241216e+01 3.325227e+00 1.156847e+01 1.550999e+00 2.003007e+01
<GCONST> 4.079854e+01
<MIXTURE> 2 9.678100e-01
<MEAN> 12
 3.595149e+00 -5.085361e+00 -3.862682e+00 -1.747193e+01 -9.069122e+00 -2.437583e+00 -1.359678e+00 4.408256e+00 -1.110736e+01 -4.242554e+00 9.598054e+00 -1.479586e+01
<VARIANCE> 12
 8.874085e+00 1.338386e+01 1.102220e+01 2.232834e+01 2.433496e+01 2.387145e+01 2.231099e+01 3.014671e+01 2.723665e+01 2.633370e+01 4.334943e+01 2.864535e+01
<GCONST> 5.891293e+01
<STATE> 4
<NUMMIXES> 3
<MIXTURE> 2 1.000000e+00
<MEAN> 12
 1.915384e+00 -1.114782e+00 -5.905336e-01 -5.836354e+00 -7.656229e+00 -5.217276e+00 9.484007e-01 -4.421052e+00 -1.090440e+01 1.206991e+00 1.659258e+00 -1.079342e+01
<VARIANCE> 12
 1.402895e+01 3.699993e+01 4.779689e+01 5.365005e+01 3.966818e+01 3.309827e+01 3.888264e+01 5.268571e+01 5.745684e+01 2.539201e+01 3.543170e+01 4.637436e+01
<GCONST> 6.565076e+01
<TRANSP> 5
 0.000000e+00 1.000000e+00 0.000000e+00 0.000000e+00 0.000000e+00
 0.000000e+00 7.949362e-01 2.050638e-01 0.000000e+00 0.000000e+00
 0.000000e+00 0.000000e+00 7.947996e-01 2.052004e-01 0.000000e+00
 0.000000e+00 0.000000e+00 0.000000e+00 5.619564e-01 4.380436e-01
 0.000000e+00 0.000000e+00 0.000000e+00 0.000000e+00 0.000000e+00
<ENDHMM>
~h "e#"
<BEGINHMM>
<NUMSTATES> 5
<STATE> 2
<NUMMIXES> 3
<MIXTURE> 2 1.000000e+00
<MEAN> 12
 2.330288e-01 -6.195100e+00 -3.997910e+00 -7.285642e+00 -3.877672e+00 -4.180843e+00 -1.399788e+01 4.897072e+00 -4.317866e+00 3.937006e-01 8.249010e+00 -1.412379e+01
<VARIANCE> 12
 2.823609e+01 1.587444e+01 2.090983e+01 2.059018e+01 2.120304e+01 3.465582e+01 5.915221e+01 4.168557e+01 3.471576e+01 3.424181e+01 3.634299e+01 3.234544e+01
<GCONST> 6.278487e+01
<STATE> 3
<NUMMIXES> 3
<MIXTURE> 1 1.282262e-02
<MEAN> 12
 -1.742731e+01 -7.113571e+00 7.853460e+00 2.181009e+00 9.827805e-01 1.468590e+01 7.427556e+00 -1.017997e+00 6.254210e+00 4.053287e-01 -6.979149e+00 -3.872131e+00
<VARIANCE> 12
 1.659951e-01 1.044320e-01 5.338466e-02 1.247837e+00 9.692707e-01 6.278079e+00 5.359767e-01 1.010414e+00 1.943305e+01 3.862283e+00 1.224155e-01 3.156272e+00
<GCONST> 1.985053e+01
<MIXTURE> 3 9.871776e-01
<MEAN> 12
 -1.047985e-01 -7.380355e+00 -6.198324e+00 -8.911579e+00 -3.144264e+00 -5.031982e+00 -1.459975e+01 7.689162e+00 -1.167663e+00 -2.259329e-01 6.257621e+00 -1.826001e+01
<VARIANCE> 12
 5.689054e+00 1.044202e+01 1.772255e+01 1.402409e+01 1.242536e+01 3.588987e+01 1.704807e+01 3.287920e+01 6.639648e+01 2.007762e+01 4.067955e+01 2.146995e+01
<GCONST> 5.805123e+01
<STATE> 4
<NUMMIXES> 3
<MIXTURE> 2 1.000000e+00
<MEAN> 12
 1.960224e+00 -3.390400e+00 5.261620e-01 -1.751723e+00 -6.928164e+00 -8.795321e+00 -5.552382e+00 9.963537e-01 -7.499307e+00 1.985175e+00 -3.073334e-01 -1.426379e+01
<VARIANCE> 12
 1.532728e+01 3.638653e+01 2.025722e+01 2.860841e+01 2.816551e+01 4.124263e+01 2.495545e+01 1.219447e+02 3.529565e+01 2.895738e+01 4.854422e+01 3.319809e+01
<GCONST> 6.413335e+01
<TRANSP> 5
 0.000000e+00 1.000000e+00 0.000000e+00 0.000000e+00 0.000000e+00
 0.000000e+00 2.950867e-39 1.000000e+00 0.000000e+00 0.000000e+00
 0.000000e+00 0.000000e+00 8.653532e-01 1.346468e-01 0.000000e+00
 0.000000e+00 0.000000e+00 0.000000e+00 6.624459e-01 3.375541e-01
 0.000000e+00 0.000000e+00 0.000000e+00 0.000000e+00 0.000000e+00
<ENDHMM>
~h "o#"
<BEGINHMM>
<NUMSTATES> 5
<STATE> 2
<NUMMIXES> 3
<MIXTURE> 2 1.000000e+00
<MEAN> 12
 -7.291544e-01 -5.041593e-01 -2.244579e-01 -1.041613e+01 -1.191954e+01 2.968514e-01 -6.919754e+00 -1.144309e+00 -2.181957e+00 -5.102483e+00 6.631235e+00 -7.599737e+00
<VARIANCE> 12
 2.142309e+01 2.158338e+01 1.396307e+01 2.113856e+01 4.811863e+01 5.452494e+01 3.831853e+01 2.945444e+01 5.153351e+01 2.750184e+01 2.688664e+01 2.176747e+01
<GCONST> 6.240807e+01
<STATE> 3
<NUMMIXES> 3
<MIXTURE> 1 1.131431e-01
<MEAN> 12
 -3.746754e+00 4.615901e+00 -2.259788e+00 -7.505780e+00 -6.975167e+00 -1.887444e+00 -3.595410e+00 -1.084287e+00 -4.344404e+00 -2.726623e+00 4.385086e-01 -4.735341e-01
<VARIANCE> 12
 3.956887e+01 7.849133e+00 6.062156e+00 2.513961e+01 3.306316e+01 2.524361e+01 2.452255e+01 4.846378e+01 2.545539e+01 1.316700e+01 8.512003e+00 2.325015e+01
<GCONST> 5.772931e+01
<MIXTURE> 3 8.868571e-01
<MEAN> 12
 3.529116e+00 -3.365956e+00 1.180166e+00 -1.471902e+01 -1.373120e+01 -7.075670e+00 -2.437079e+00 1.215772e+00 -8.173718e+00 -5.206499e+00 1.040059e+01 -1.601966e+01
<VARIANCE> 12
 7.182359e+00 8.838642e+00 2.001438e+01 2.340459e+01 2.919109e+01 2.672119e+01 3.322643e+01 2.697345e+01 3.996814e+01 5.178194e+01 4.592658e+01 2.007738e+01
<GCONST> 6.027395e+01
<STATE> 4
<NUMMIXES> 3
<MIXTURE> 2 9.626184e-01
<MEAN> 12
 3.161801e+00 -3.117149e+00 2.447893e+00 -4.587644e+00 -1.287110e+01 -3.754925e+00 4.584326e-01 -6.411253e+00 -7.523077e+00 -3.679352e+00 3.949917e+00 -1.047421e+01
<VARIANCE> 12
 1.144123e+01 2.468891e+01 2.051583e+01 2.448745e+01 4.032025e+01 3.443534e+01 2.670720e+01 4.651788e+01 2.411488e+01 2.070309e+01 2.164119e+01 3.332356e+01
<GCONST> 6.107214e+01
<MIXTURE> 3 3.738149e-02
<MEAN> 12
 -1.385572e+01 4.298351e+00 -1.373872e+00 -2.949892e+00 1.745330e+00 3.696546e+00 -4.568756e+00 4.228656e+00 -1.269324e+00 1.372347e+00 3.720655e+00 -1.569976e-02
<VARIANCE> 12
 9.372849e+01 4.029913e+00 2.194689e+01 5.485383e-01 2.388840e+00 8.469755e+00 1.310398e+01 2.095395e+00 1.916464e+00 6.886539e+00 7.339817e-02 1.195930e+01
<GCONST> 3.924648e+01
<TRANSP> 5
 0.000000e+00 1.000000e+00 0.000000e+00 0.000000e+00 0.000000e+00
 0.000000e+00 4.713793e-01 5.286207e-01 0.000000e+00 0.000000e+00
 0.000000e+00 0.000000e+00 8.118578e-01 1.881422e-01 0.000000e+00
 0.000000e+00 0.000000e+00 0.000000e+00 6.137356e-01 3.862644e-01
 0.000000e+00 0.000000e+00 0.000000e+00 0.000000e+00 0.000000e+00
<ENDHMM>
~h "sil"
<BEGINHMM>
<NUMSTATES> 5
<STATE> 2
<NUMMIXES> 3
<MIXTURE> 2 1.000000e+00
<MEAN> 12
 -4.865906e+00 -4.016768e+00 -2.507179e+00 -2.741241e+00 -4.353133e+00 -1.131611e+01 -4.858723e+00 5.996038e+00 -2.141364e-01 1.261161e+00 2.622662e+00 -1.039500e+01
<VARIANCE> 12
 3.675988e+01 2.111824e+01 2.367698e+01 1.898682e+01 1.639245e+01 5.053722e+01 3.350874e+01 3.238552e+01 2.190397e+01 2.330280e+01 1.874161e+01 1.048879e+02
<GCONST> 6.234525e+01
<STATE> 3
<NUMMIXES> 3
<MIXTURE> 2 1.000000e+00
<MEAN> 12
 -1.232678e+01 -8.820838e+00 -3.334838e+00 -2.714610e+00 -7.142660e-01 -6.955576e+00 5.380950e-01 6.325975e+00 -5.031064e-01 -9.870972e-01 2.529657e+00 -4.868705e-01
<VARIANCE> 12
 1.902926e+01 1.115462e+01 2.741099e+01 1.441439e+01 2.935402e+01 3.207898e+01 2.935639e+01 2.982159e+01 2.496940e+01 3.267430e+01 1.260172e+01 1.088446e+01
<GCONST> 5.863931e+01
<STATE> 4
<NUMMIXES> 3
<MIXTURE> 1 1.857216e-01
<MEAN> 12
 -1.300507e+01 -8.104779e+00 -3.745961e+00 1.685097e+00 7.343355e+00 7.463052e+00 7.138114e+00 7.587438e+00 1.398051e+00 -2.160416e-01 1.237899e+00 2.436165e+00
<VARIANCE> 12
 6.917606e+00 7.191948e+00 3.585659e+00 4.661003e+00 1.262870e+01 4.024296e+01 2.206704e+01 1.727853e+01 6.113480e+00 1.522907e+01 2.110880e+01 7.633951e+00
<GCONST> 5.056818e+01
<MIXTURE> 2 8.142778e-01
<MEAN> 12
 -1.736725e+01 -1.144315e+01 -3.993241e+00 -5.398897e+00 -3.072688e+00 -1.062814e+01 -1.338737e-01 5.016407e+00 -1.109290e+00 -1.456379e+00 -1.072618e+00 -5.294229e-01
<VARIANCE> 12
 3.175693e+00 3.705721e+00 1.315213e+01 5.364351e+00 2.160915e+01 1.694614e+01 1.616180e+01 1.276224e+01 1.983706e+01 9.946812e+00 1.640210e+01 1.180622e+01
<GCONST> 5.055943e+01
<TRANSP> 5
 0.000000e+00 1.000000e+00 0.000000e+00 0.000000e+00 0.000000e+00
 0.000000e+00 6.348578e-01 3.651422e-01 0.000000e+00 0.000000e+00
 0.000000e+00 0.000000e+00 4.707326e-01 5.292674e-01 0.000000e+00
 0.000000e+00 0.000000e+00 0.000000e+00 8.685482e-01 1.314518e-01
 0.000000e+00 0.000000e+00 0.000000e+00 0.000000e+00 0.000000e+00
<ENDHMM>
